,0,1,2,3,4,5,6,7,8,9,10,11,12,13,14,15,16,17,18,19,20,21,22,23,24,25,26,27,28,29,30,31,32,33,34,35,36,37,38,39,40,41,42,43,44,45,46,47,48,49,50,51,52,53,54,55,56,57,58,59,60,61,62,63,64,65,66,67,68,69,70,71,72,73,74,75,76,77,78,79,80,81,82,83,84,85,86,87,88,89,90,91,92,93,94,95,96,97,98,99,100,101,102,103,104,105,106,107,108,109,110,111,112,113,114,115,116,117,118,119,120,121,122,123,124,125,126,127
images/PRE_F240537_23_21_R.jpg,0.031032100319862366,-0.024269746616482735,-0.09169288724660873,-0.06308261305093765,-0.09398326277732849,-0.03835183382034302,0.1272660493850708,0.06032185256481171,-0.060842107981443405,0.09484435617923737,0.12888279557228088,-0.07498719543218613,0.0015829441836103797,-0.05349566414952278,0.038368768990039825,0.05928801745176315,-0.04878906533122063,0.0512128584086895,-0.08773215115070343,-0.04133148863911629,0.12807105481624603,0.11015455424785614,0.013440420851111412,0.04282468184828758,-0.017195062711834908,0.14275109767913818,0.17163443565368652,0.031723782420158386,-0.005515696946531534,0.08887972682714462,0.08767229318618774,-0.16043104231357574,-0.05727480351924896,0.05674126371741295,0.11017943173646927,0.06516217440366745,0.004299107939004898,-0.03517236188054085,0.08663209527730942,-0.11756487935781479,0.14146269857883453,-0.06374333053827286,0.0817495808005333,-0.022083265706896782,-0.0635833889245987,0.03038223274052143,0.17538292706012726,-0.025600913912057877,-0.03151938319206238,-0.09809789061546326,0.02308342605829239,0.1223393902182579,-0.18687598407268524,-0.014246270060539246,0.0036233810242265463,0.10785793513059616,-0.04062740132212639,-0.263408899307251,-0.005728551186621189,0.15222732722759247,-0.016894645988941193,0.12510935962200165,-0.018618280068039894,0.0018110201926901937,-0.10131370276212692,-0.00015499810979235917,0.03217434510588646,-0.062229398638010025,0.07795418798923492,0.03367658331990242,-0.10869472473859787,-0.11778745800256729,0.0047113895416259766,-0.0669776201248169,-0.07245706766843796,0.011752356775105,0.0942985862493515,0.17266128957271576,-0.04259282350540161,0.1241031140089035,0.07662255316972733,0.10977715253829956,-0.016805045306682587,0.08665882050991058,0.020386828109622,-0.07637393474578857,0.09212959557771683,-0.06231248006224632,-0.13065464794635773,-0.016931328922510147,0.006508542690426111,-0.06321270018815994,-0.07627342641353607,0.015539887361228466,0.07438217848539352,0.17442674934864044,-0.17015863955020905,-0.036799270659685135,-0.0363091379404068,0.06256246566772461,-0.06483399122953415,-0.012065606191754341,-0.1767388880252838,-0.09892361611127853,0.09568390995264053,0.004168620798736811,-0.12671491503715515,0.11099701374769211,-0.07459095120429993,-0.0013938101474195719,-0.1088368371129036,-0.07569215446710587,0.06562411040067673,-0.03763815015554428,0.051606591790914536,0.0673430934548378,-0.12368602305650711,0.07294679433107376,-0.03410027176141739,-0.01366190891712904,0.17827585339546204,0.09927817434072495,0.016770055517554283,0.17346136271953583,-0.09274940937757492,-0.014463914558291435,0.014987753704190254,0.0023115561343729496
images/PRE_F240836_23_21_R.jpg,-0.1281333565711975,0.08136506378650665,-0.007491542957723141,-2.9867314879084006e-05,0.05753486603498459,0.26284635066986084,0.049321386963129044,0.11919134855270386,0.053901392966508865,0.046265069395303726,-0.014821858145296574,0.02104596421122551,0.11676698923110962,-0.21564950048923492,-0.008939722552895546,0.10699436813592911,-0.07143664360046387,0.08344344794750214,-0.06538411974906921,0.05850005894899368,0.03259478509426117,0.07267013192176819,0.06748097389936447,0.19385141134262085,-0.014009859412908554,-0.017299162223935127,-0.004898963030427694,-0.0480702742934227,0.10707280784845352,-0.025996658951044083,0.04673552140593529,0.09053841233253479,0.014705873094499111,-0.008641781285405159,0.02637830376625061,0.12062378227710724,-0.06311319023370743,0.09205472469329834,0.07190938293933868,-0.11266590654850006,-0.04619394987821579,-0.03221077099442482,0.06600359082221985,-0.07168763875961304,-0.10301779955625534,-0.06969933211803436,0.060826417058706284,-0.016822148114442825,0.005385814234614372,0.029116809368133545,0.20468799769878387,-0.00798820611089468,0.23175299167633057,-0.019085444509983063,-0.014353472739458084,0.042974356561899185,-0.08321783691644669,-0.03814101219177246,-0.08614902943372726,-0.00961847510188818,-0.16316953301429749,-0.0327121838927269,0.039729487150907516,-0.015285336412489414,0.014044459909200668,-0.02139115333557129,-0.06478788703680038,-0.04044114053249359,0.15750591456890106,0.0057010408490896225,-0.031655970960855484,-0.08449915051460266,-0.2611887753009796,-0.008425923995673656,0.036291979253292084,-0.10248647630214691,0.005718425381928682,-0.004386506974697113,-0.05780113488435745,0.20626074075698853,-0.01629098504781723,-0.03824733942747116,0.0507127046585083,-0.046383120119571686,-0.08851609379053116,0.03654439002275467,-0.11266004294157028,0.1064496859908104,0.003485076129436493,-0.027442418038845062,-0.06101672723889351,0.11916845291852951,0.010339178144931793,-0.09305030852556229,-0.05692620202898979,-0.10027153044939041,-0.029321249574422836,-0.11460603028535843,-0.014577331021428108,0.04448139667510986,-0.14774870872497559,0.03679673746228218,0.021358659490942955,-0.07113486528396606,0.003045575227588415,-0.054371461272239685,-0.05150003731250763,0.06243423372507095,0.03175456076860428,0.028002416715025902,0.2082059532403946,-0.11070208996534348,0.12618331611156464,0.053098246455192566,0.030144261196255684,0.14752191305160522,0.13098008930683136,0.008825434371829033,-0.07301240414381027,0.046390730887651443,-0.06798578053712845,-0.004759024828672409,-0.02672819048166275,0.06404480338096619,-0.06460638344287872,0.2322569340467453,0.031199967488646507,0.046520158648490906
images/PRE_F241093_23_21_R.jpg,-0.019298767670989037,0.058927856385707855,0.05351466313004494,-0.05428517609834671,0.006941119208931923,-0.0770542323589325,-0.042991895228624344,0.11498988419771194,0.011362466029822826,0.08904557675123215,0.020649725571274757,0.1167120486497879,-0.005605659447610378,-0.12240662425756454,0.056453026831150055,0.08532799780368805,-0.21027901768684387,0.028484944254159927,0.005945861339569092,0.060612671077251434,0.08502840995788574,0.07906419038772583,0.1181536614894867,0.12691836059093475,-0.019057461991906166,-0.0322822704911232,0.10221042484045029,0.13042600452899933,-0.0066140820272266865,0.13180582225322723,0.16054102778434753,0.04499230533838272,-0.10198409110307693,-0.012678442522883415,0.10494084656238556,-0.004582879599183798,0.00855226069688797,-0.09288050979375839,0.12259205430746078,-0.028344709426164627,0.06480086594820023,-0.07837236672639847,0.11916189640760422,-0.10709058493375778,-0.06297580152750015,0.032371990382671356,0.09018845111131668,-0.03836962580680847,0.05031083896756172,-0.09910263866186142,0.2177480161190033,0.007292353548109531,0.2169075757265091,-0.11509089171886444,-0.06333677470684052,-0.06753046810626984,-0.00930581521242857,-0.06076755374670029,-0.07323679327964783,0.06452885270118713,-0.14583425223827362,0.18213075399398804,0.02652512863278389,-0.018257377669215202,-0.055947549641132355,-0.08656731992959976,0.10400750488042831,0.07465260475873947,0.05632429197430611,-0.06760933250188828,-0.06421388685703278,-0.09427400678396225,-0.10577037185430527,0.02463223598897457,-0.000147887971252203,-0.10263349115848541,0.0442996546626091,0.01503900345414877,-0.14839120209217072,0.011993661522865295,-0.005773934535682201,0.13648340106010437,-0.05914841964840889,-0.043178629130125046,0.04759351909160614,0.1600099503993988,0.05700051784515381,0.025015152990818024,0.102969229221344,-0.039899468421936035,-0.10555468499660492,0.09389862418174744,-0.04789742827415466,-0.04867958277463913,0.06064767390489578,0.15161602199077606,-0.13440318405628204,-0.03873829171061516,-0.0022251580376178026,-0.09094126522541046,-0.06444311141967773,-0.11169186234474182,-0.06834754347801208,-0.12932352721691132,0.15563753247261047,-0.08477449417114258,-0.1031704917550087,0.004082558210939169,-0.014287393540143967,-0.02057570591568947,0.04586588591337204,-0.033897582441568375,-0.037565432488918304,-0.04148554801940918,0.00618679029867053,0.13546547293663025,-0.02037585899233818,-0.051714882254600525,-0.13975998759269714,0.005295882001519203,0.04173145070672035,0.02262062020599842,-0.03443367779254913,0.09893495589494705,0.04403400793671608,0.21748773753643036,-0.15728889405727386,0.06492067128419876
images/PRE_F240445_23_21_R.jpg,0.01862226240336895,0.04048322141170502,-0.1071440652012825,-0.09762318432331085,0.04383781552314758,-0.016715742647647858,0.1195921003818512,0.13495129346847534,-0.08070822805166245,-0.09830552339553833,0.07163805514574051,-0.08549600094556808,0.050863172858953476,-0.09780040383338928,0.12567345798015594,-0.03744029253721237,-0.01328800618648529,-0.04313995689153671,-0.08136100322008133,-0.009754586964845657,0.002161797136068344,0.11286009103059769,0.05753764137625694,0.1439342498779297,-0.19843848049640656,0.04712419956922531,0.08044004440307617,0.010527832433581352,0.1481819450855255,0.022388357669115067,0.018384627997875214,0.0025873230770230293,0.1118927076458931,-0.01992168091237545,0.09520069509744644,0.06375518441200256,-0.05425737798213959,0.1315150409936905,0.12614049017429352,0.04571210965514183,-0.043170396238565445,0.016043148934841156,-0.01949417218565941,0.0019479154143482447,-0.08754216134548187,-0.011948245577514172,0.09056885540485382,-0.0914251059293747,0.010142438113689423,-0.10718704015016556,0.12932679057121277,0.08762912452220917,-0.026749160140752792,-0.00040236872155219316,-0.02750229835510254,0.0753093883395195,0.010580211877822876,0.04137010499835014,-0.03838372230529785,0.04988790303468704,-0.020260654389858246,0.012939795851707458,-0.10486960411071777,0.11696946620941162,-0.1561974287033081,-0.012936100363731384,0.0016479756450280547,-0.03535562753677368,-0.027287600561976433,-0.15367166697978973,-0.0665559470653534,-0.013405725359916687,-0.10032625496387482,-0.12198220938444138,0.038989387452602386,0.06263120472431183,0.011242257431149483,0.26080307364463806,-0.06489383429288864,0.3776157796382904,-0.02563401311635971,0.0698387399315834,0.11634449660778046,-0.10445281118154526,-0.03714168444275856,-0.014707239344716072,-0.0068916091695427895,-0.0015025081811472774,0.09592218697071075,-0.07482405006885529,-0.1700439155101776,-0.007197362836450338,-0.11484154313802719,-0.06115226447582245,0.06795763969421387,-0.002788464305922389,-0.0675491988658905,-0.09192053973674774,-0.030872240662574768,0.07664544135332108,-0.10199818760156631,-0.09821038693189621,-0.17668820917606354,0.0482056587934494,-0.052566543221473694,0.04987095668911934,-0.11128948628902435,0.08908579498529434,-0.015725715085864067,0.018909873440861702,-0.0159448254853487,-0.040207695215940475,0.0014057827647775412,-0.01930728740990162,0.1033845990896225,0.048256371170282364,0.054873671382665634,-0.17516712844371796,0.02211463637650013,-0.06883920729160309,0.09344860166311264,0.14327368140220642,0.09130861610174179,0.0671975240111351,0.01969015598297119,0.08226551115512848,-0.0333724208176136,0.03504785895347595
images/PRE_F240447_23_21_R.jpg,0.008723875507712364,0.046513743698596954,0.006180664990097284,-0.06591406464576721,-0.03023875504732132,0.010331789031624794,0.13311514258384705,0.1375889629125595,-0.12905138731002808,-0.041991788893938065,0.06518737226724625,-0.01609579101204872,-0.03377383202314377,-0.07831982523202896,0.1394357979297638,-0.0052878656424582005,-0.11443648487329483,0.041099902242422104,-0.07497543096542358,-0.15620429813861847,-0.1020655557513237,0.18802203238010406,0.032967109233140945,0.038710467517375946,0.06145637854933739,-0.08460947126150131,0.022542230784893036,-0.02757645584642887,0.01727285608649254,0.1854010373353958,0.14437498152256012,-0.04171018674969673,0.12513239681720734,0.11451530456542969,0.06376403570175171,-0.04678196832537651,-0.11363305151462555,0.04158279672265053,-0.042133186012506485,-0.0648597925901413,-0.08753053098917007,-0.0010640734108164907,0.0009378402610309422,-0.0100336205214262,-0.08642178773880005,0.1236061081290245,0.0828818678855896,0.10648543387651443,0.18421614170074463,-0.015354394912719727,-0.004694713745266199,-0.07666115462779999,-0.0470103845000267,-0.10759633779525757,0.030644824728369713,-0.04446209594607353,-0.030137503519654274,-0.04050792381167412,-0.09031274169683456,-0.04792093485593796,0.18897390365600586,-0.09293544292449951,0.009122892282903194,-0.0019987032283097506,-0.11885178089141846,0.1256990283727646,0.09093674272298813,0.0909259244799614,0.010664141736924648,-0.21512410044670105,-0.16307233273983002,0.033029790967702866,0.04134126380085945,-0.15676149725914001,0.022067220881581306,-0.01120260264724493,-0.08871441334486008,0.09810137003660202,-0.207591250538826,-0.03251606598496437,0.036166366189718246,0.14448758959770203,0.0918426662683487,0.00851860549300909,-0.05251752585172653,0.05391616001725197,0.04542870819568634,0.013708938844501972,0.19278153777122498,-0.057009704411029816,-0.04396392032504082,0.04716064780950546,-0.06820974498987198,-0.023419352248311043,0.059432290494441986,-0.05872521176934242,0.020846016705036163,-0.0988025814294815,0.0415133573114872,-0.0260308850556612,-0.00599113292992115,-0.10986782610416412,-0.0003978738677687943,0.023091265931725502,-0.0007944717654027045,-0.1491602510213852,-0.08287026733160019,0.06272733956575394,0.035994745790958405,0.14460566639900208,-0.16979855298995972,0.09211084991693497,-0.007807515095919371,0.042276326566934586,0.08287885785102844,0.025972632691264153,0.026670068502426147,0.049707088619470596,-0.14592821896076202,-0.08852332085371017,0.10266238451004028,-0.04878177493810654,-0.00473365793004632,0.16103164851665497,0.11947646737098694,-0.07023504376411438,-0.036461737006902695,0.03826281428337097
images/PRE_F240448_23_21_L.jpg,-0.03668879345059395,-0.04436303675174713,-0.04144115746021271,-0.07059210538864136,-0.06257957965135574,-0.12146417796611786,0.05504605174064636,0.1876642107963562,-0.043890759348869324,0.0931294783949852,0.06436149775981903,-0.004074116237461567,0.009085532277822495,0.03484251722693443,-0.04804054647684097,0.10920856148004532,-0.051450420171022415,0.03443511202931404,-0.08505066484212875,-0.08051090687513351,0.026162292808294296,0.11382441222667694,0.11491695791482925,0.08653444051742554,0.011430650018155575,0.02004585973918438,0.15496991574764252,0.12746311724185944,-0.024982476606965065,0.047568179666996,0.16624830663204193,0.04655339941382408,-0.12416091561317444,0.12911362946033478,0.058086346834897995,-0.03601685166358948,0.015734704211354256,-0.1356959342956543,0.04988256096839905,0.05933884158730507,0.1384267657995224,-0.09119638800621033,0.13208766281604767,-0.030609682202339172,-0.02132623828947544,0.07564155012369156,0.09870746731758118,-0.11182963848114014,0.13837960362434387,-0.035383548587560654,0.14116811752319336,-0.0007967472192831337,0.002053670585155487,-0.007893105037510395,-0.02988315373659134,0.10185328125953674,-0.03449876978993416,-0.2067287266254425,-0.03007853962481022,0.16323168575763702,-0.004623336251825094,0.04238516464829445,0.07716067135334015,0.01252523623406887,-0.16889922320842743,-0.05936616286635399,0.100587397813797,-0.020902859047055244,-0.06361819058656693,-0.11943235993385315,-0.0006988499662838876,-0.0466417595744133,-0.08921565860509872,0.017178788781166077,-0.09000185877084732,0.029183264821767807,-0.0599854402244091,0.06023755297064781,-0.07357408106327057,-0.045499276369810104,0.05514165014028549,-0.007758953608572483,-0.0360126718878746,0.08434745669364929,0.1015508621931076,-0.05114779621362686,-0.01879550889134407,-0.01350987795740366,0.15255096554756165,-0.17954464256763458,-0.14994384348392487,-0.011306782253086567,-0.07965904474258423,-0.10445891320705414,0.10626582056283951,0.15606282651424408,-0.11435279995203018,0.06502138078212738,0.063328817486763,-0.06736650317907333,-0.0736856609582901,0.03168978542089462,-0.06434667110443115,0.008852705359458923,0.035674288868904114,-0.030990667641162872,-0.012288112193346024,-0.002770049264654517,0.027148105204105377,-0.1187349408864975,-0.10697363317012787,-0.04237806051969528,-0.14648903906345367,-0.11358186602592468,0.11800505965948105,0.07864204049110413,0.00951653067022562,-0.06337521970272064,-0.038759030401706696,-0.12536805868148804,0.10968717187643051,0.15564078092575073,0.05452469363808632,0.07635543495416641,0.1583710014820099,0.18296895921230316,-0.11459407210350037,-0.009736435487866402
images/PRE_F240449_23_21_R.jpg,-0.04005116969347,0.039501406252384186,-0.14787769317626953,0.12414506822824478,-0.042191579937934875,0.10677947849035263,0.06103860214352608,0.12785717844963074,0.12250331789255142,0.07082607597112656,0.0608585961163044,-0.03741220012307167,0.12365788221359253,-0.005463102832436562,0.04977404698729515,0.16786926984786987,0.12217610329389572,0.1235928162932396,-0.07020672410726547,0.011604532599449158,0.050672225654125214,-0.02058688923716545,0.06873742491006851,0.06262622773647308,-0.0470791719853878,-0.08398477733135223,-0.034051600843667984,-0.02090955153107643,0.07576504349708557,-0.0473005436360836,0.19257961213588715,0.1448427438735962,-0.05283098295331001,0.16423286497592926,0.21471458673477173,-0.090147964656353,0.05731024593114853,-0.011615591123700142,-0.09707646816968918,-0.03800350800156593,-0.044492170214653015,-0.06202787160873413,-0.06044309213757515,-0.11231653392314911,-0.07012694329023361,0.12857486307621002,0.09691635519266129,-0.00925640482455492,0.08370082825422287,0.16336914896965027,0.0777607262134552,0.02326430194079876,-0.01008897740393877,-0.0300886370241642,0.021914280951023102,0.006548617966473103,-0.049672577530145645,-0.11665621399879456,-0.0782090350985527,-0.026866624131798744,0.030262649059295654,0.03671499341726303,0.04344546049833298,0.07401484996080399,-0.04552196338772774,0.0050880080088973045,-0.07207641750574112,0.07478358596563339,0.061818238347768784,-0.18146152794361115,0.04578198865056038,-0.057010676711797714,-0.049565836787223816,-0.13594356179237366,-0.01504731085151434,0.13623875379562378,-0.11557470262050629,0.14296619594097137,-0.14170077443122864,0.1311771422624588,-0.006709691137075424,0.09905420243740082,-0.03439497947692871,-0.18558216094970703,-0.10609454661607742,0.054150085896253586,0.02462608553469181,0.0507228784263134,-0.11477206647396088,-0.12827515602111816,-0.03736879676580429,-0.11378277838230133,-0.13672149181365967,0.07180285453796387,-0.0023167587351053953,-0.13144633173942566,0.10332461446523666,0.05469789355993271,0.015790285542607307,0.18031397461891174,-0.09512428194284439,0.13337679207324982,-0.051125090569257736,0.006894340738654137,-0.006674749776721001,-0.11114153265953064,0.03321031108498573,0.12478546053171158,0.005746519658714533,-0.016663726419210434,0.08368653059005737,0.002629829803481698,0.05009917542338371,-0.041506193578243256,0.10895994305610657,0.046616606414318085,0.008398710750043392,0.07147205621004105,0.08777495473623276,-0.11713115125894547,0.00752278883010149,-0.11847540736198425,0.02941408008337021,0.010173353366553783,-0.06010367348790169,0.04603306204080582,0.04487733915448189,0.10940420627593994
images/PRE_F240450_23_21_R.jpg,-0.06750352680683136,-0.005504901055246592,-0.0855669230222702,0.15399372577667236,-0.014923924580216408,0.1521158665418625,0.20388458669185638,0.1597358137369156,0.006837883032858372,0.02618142031133175,0.039626527577638626,-0.01972552016377449,0.10873863101005554,-0.10947933048009872,0.0516391396522522,0.045971259474754333,0.11659087240695953,0.097450852394104,-0.0834234356880188,0.013296404853463173,-0.03321782127022743,0.11767575144767761,-0.03000830113887787,0.13962829113006592,0.09706868976354599,0.02301790937781334,-0.07872307300567627,-0.005111756734549999,0.06364453583955765,-0.047828517854213715,-0.10234904289245605,0.09777870029211044,-0.10546231269836426,0.0769239068031311,0.0073341806419193745,-0.013662506826221943,0.02993858978152275,-0.09221936762332916,-0.04175478219985962,-0.1036350429058075,0.09938023239374161,0.007985426113009453,-0.006136538926512003,0.08201972395181656,-0.07053351402282715,0.022518392652273178,0.13932329416275024,-0.027486449107527733,0.08835898339748383,-0.10942036658525467,0.11806657165288925,-0.034895796328783035,0.07460761070251465,-0.10121616721153259,0.07460494339466095,0.12302897870540619,-0.06311167031526566,-0.11881701648235321,-0.01889241859316826,-0.09297099709510803,0.009614725597202778,-0.058225367218256,0.06388358026742935,0.018264316022396088,-0.05607715994119644,0.03800756111741066,-0.14222046732902527,0.13610468804836273,-0.10327547788619995,-0.03151637315750122,0.07040657848119736,-0.07077660411596298,-0.08526065945625305,-0.17923690378665924,-0.04442038759589195,0.058918219059705734,0.010917514562606812,0.0750284492969513,-0.18247316777706146,0.07309767603874207,-0.00876332726329565,-0.034144941717386246,0.2274378091096878,-0.09346397966146469,0.07621089369058609,0.06954813003540039,0.06858721375465393,-0.09166864305734634,0.08562973141670227,-0.1840554028749466,0.0916547179222107,0.0011483131675049663,0.012548744678497314,-0.03758327290415764,0.043362319469451904,-0.05084749311208725,-0.0001670860219746828,-0.008907575160264969,0.07599064707756042,0.12052253633737564,-0.17906537652015686,0.06055883318185806,-0.14987212419509888,0.06223902106285095,-0.026163319125771523,0.1230679303407669,-0.006765903439372778,0.10783132910728455,0.020164573565125465,-0.04999352619051933,-0.14745572209358215,-0.07511643320322037,0.0352000817656517,0.05275705084204674,0.1312691569328308,0.04786968603730202,0.04059641808271408,0.0961809754371643,-0.11852409690618515,-0.10742424428462982,-0.056383322924375534,0.08944986760616302,0.0779188796877861,-0.012550166808068752,0.10975219309329987,0.1365308314561844,0.005158386193215847,-0.053510598838329315
images/PRE_F240453_23_21_R.jpg,0.023067545145750046,0.08097430318593979,-0.02602745220065117,-0.04387923702597618,-0.1621824949979782,-0.04531920328736305,-0.010902571491897106,0.18302252888679504,-0.13297519087791443,-0.03214314952492714,0.0100648058578372,0.18253494799137115,0.013974960893392563,-0.06293150037527084,0.10661870241165161,0.03493982553482056,-0.015624725259840488,-0.029964370653033257,-0.040962669998407364,0.031379081308841705,0.12282704561948776,0.006359722465276718,0.04057026654481888,0.08206291496753693,0.07914329320192337,-0.008605300448834896,0.13248100876808167,0.06746436655521393,0.07043040543794632,0.1285286694765091,-0.006637671496719122,0.0266733318567276,-0.15363271534442902,0.026845481246709824,0.10534421354532242,0.12493280321359634,0.05641349405050278,-0.1526656597852707,0.02079135924577713,0.047941677272319794,-0.02083479054272175,-0.13255421817302704,0.03108460269868374,0.01221601665019989,0.014165757223963737,-0.006098845973610878,-0.011207050643861294,-0.033396441489458084,0.10496146231889725,-0.11151134222745895,0.18908339738845825,-0.06994449347257614,0.07116460055112839,-0.017564253881573677,-0.12990476191043854,0.09226183593273163,-0.003508468624204397,-0.03126196935772896,-0.052952490746974945,-0.010854861699044704,-0.021574096754193306,0.11508943140506744,-0.07010596245527267,0.03527919203042984,-0.1592882126569748,0.06648655235767365,0.06678333133459091,0.07500237971544266,-0.04106193035840988,-0.0797610878944397,-0.06547347456216812,-0.07670731097459793,-0.07855382561683655,0.04836186021566391,-0.09602458775043488,0.05463007092475891,0.014646911062300205,0.09591686725616455,-0.15537767112255096,-0.055500563234090805,0.17041762173175812,0.07736974954605103,0.007363537792116404,0.0878036618232727,-0.14470911026000977,0.08153404295444489,0.022897349670529366,-0.10085951536893845,-0.021202290430665016,-0.13877525925636292,-0.019476503133773804,0.08439535647630692,-0.1766231656074524,-0.05250738933682442,0.06902927905321121,0.12662386894226074,-0.053979240357875824,-0.027780888602137566,0.03700887784361839,-0.0482628159224987,0.16091468930244446,-0.0022302630823105574,-0.07991115003824234,-0.02857840806245804,0.20863494277000427,-0.07836824655532837,-0.09529273211956024,0.07344160228967667,0.017310120165348053,0.08294977992773056,-0.16371522843837738,-0.14982092380523682,-0.10355047881603241,0.009238922037184238,0.14186222851276398,0.08976174145936966,-0.07885339856147766,-0.018512602895498276,-0.06657300889492035,0.05882894992828369,0.03414895758032799,0.09612659364938736,-0.032631173729896545,-0.00711709214374423,0.16104258596897125,0.10943504422903061,-0.0449538379907608,-0.132423996925354
images/PRE_F240454_23_21_L.jpg,-0.031105676665902138,0.04766254499554634,0.10597708821296692,0.04462616518139839,-0.012432930991053581,0.02031678706407547,-0.06162004545331001,0.09600106626749039,-0.03931291401386261,0.07600301504135132,0.04356055334210396,-0.0031939195469021797,0.041794583201408386,-0.04733283817768097,0.08044407516717911,0.06698885560035706,-0.00956268236041069,0.1719813197851181,0.017486507073044777,0.13141851127147675,0.0491635724902153,0.0995541512966156,0.08864540606737137,0.10791222006082535,0.10688730329275131,0.12902724742889404,0.07153568416833878,0.04983280599117279,0.021792735904455185,0.13060089945793152,-0.03124246746301651,0.003751788754016161,0.14466118812561035,-0.014075509272515774,0.14056600630283356,0.1080106869339943,-0.009531288407742977,0.07424929738044739,-0.06668774038553238,-0.06578870862722397,-0.049070101231336594,-0.020127134397625923,0.23477394878864288,-0.1062014028429985,-0.21526575088500977,-0.08249031007289886,0.03834347054362297,-0.05575873330235481,-0.05914870277047157,-0.1195095032453537,0.03165676072239876,0.1036783829331398,0.11325865238904953,-0.012989958748221397,-0.048505544662475586,0.036774661391973495,-0.052891504019498825,-0.02602640725672245,0.016056668013334274,-0.013265954330563545,0.042694952338933945,0.055754564702510834,-0.01112878043204546,-0.1291034072637558,-0.022036053240299225,-0.2119918167591095,-0.025073451921343803,0.0299857035279274,-0.013957643881440163,-0.03887399658560753,-0.11754114180803299,-0.13213157653808594,-0.16138024628162384,0.06814210116863251,0.070118248462677,-0.07207344472408295,0.03584877401590347,0.12509480118751526,-0.164158433675766,0.17853394150733948,0.10992489755153656,0.0013783328467980027,0.11281229555606842,-0.06278515607118607,-0.07796800881624222,-0.07241954654455185,0.07834840565919876,0.027224639430642128,-0.04820769652724266,-0.06719459593296051,-0.02682928740978241,-0.029889890924096107,-0.02622084505856037,-0.23310939967632294,0.055911704897880554,-0.14292390644550323,-0.07195983827114105,-0.005964186042547226,-0.0029504757840186357,-0.0545731857419014,-0.09632956981658936,-0.0634516105055809,-0.16513212025165558,-0.07585005462169647,0.06335553526878357,-0.07802970707416534,-0.0849311575293541,0.10579847544431686,-0.016537245362997055,0.061739806085824966,-0.08685438334941864,0.039178021252155304,0.021798131987452507,0.039284564554691315,0.08581847697496414,0.029388243332505226,-0.044340696185827255,0.045777808874845505,-0.042709752917289734,0.08306939899921417,0.0935617983341217,-0.018575331196188927,-0.061740387231111526,0.09415275603532791,-0.17335672676563263,0.19275864958763123,0.06387235224246979,0.06327593326568604
images/PRE_F240455_23_21_R.jpg,0.0033184450585395098,-0.029360301792621613,-0.08384542912244797,-0.08417242020368576,0.006685617845505476,0.028023328632116318,0.03060884028673172,0.19034749269485474,0.03466496244072914,0.0392182394862175,0.09365048259496689,-0.05526662990450859,0.07879060506820679,-0.057746246457099915,0.09138944745063782,-0.09005002677440643,0.04056357592344284,-0.009245269000530243,-0.1643894463777542,-0.007146898657083511,0.0031998855993151665,0.16590136289596558,0.1106635108590126,0.017418351024389267,0.008656561374664307,0.08691390603780746,0.0755813792347908,0.052268173545598984,0.05546189099550247,-0.013836993835866451,0.11400732398033142,0.08820395171642303,-0.11594103276729584,-0.04673321545124054,0.07764151692390442,0.020910928025841713,0.12734857201576233,-0.035085566341876984,0.04875187948346138,-0.054485004395246506,0.08817313611507416,0.006180101539939642,0.03772413358092308,0.042302023619413376,-0.0993381142616272,0.03805587813258171,0.11670251935720444,-0.10626016557216644,0.011133859865367413,-0.07817420363426208,0.10845015943050385,-0.06961911171674728,0.0048033022321760654,0.0189752709120512,0.09691102802753448,0.13307343423366547,-0.03204731643199921,-0.13233554363250732,0.06496472656726837,-0.02644934691488743,-0.010207039304077625,0.024375151842832565,-0.03971024230122566,-0.08731450140476227,-0.08896499127149582,-0.0008611562661826611,-0.0018618907779455185,0.08969022333621979,-0.06552866101264954,-0.025816084817051888,-0.09255876392126083,-0.09370328485965729,-0.06161802262067795,0.049847859889268875,0.08119770139455795,-0.0019148074788972735,0.15372633934020996,0.1298062652349472,-0.05667891725897789,0.14711804687976837,-0.1343485414981842,0.035641416907310486,-0.006128613371402025,-0.012796414084732533,0.006339997984468937,-0.037730030715465546,0.017631201073527336,-0.15214206278324127,0.02144959382712841,-0.05789342522621155,0.03598238155245781,0.0644475519657135,-0.02420482598245144,-0.06768564134836197,0.08794964849948883,0.10681162029504776,-0.08740022033452988,-0.11846133321523666,0.12057242542505264,0.038467757403850555,-0.14363029599189758,-0.19275106489658356,-0.11691782623529434,-0.032003771513700485,-0.011757160536944866,-0.05510149151086807,-0.07723253965377808,0.19957205653190613,-0.059182487428188324,0.05537266284227371,-0.11037684977054596,-0.11854363977909088,0.010767711326479912,0.12361475080251694,0.14007513225078583,0.07851944863796234,-0.09055187553167343,-0.08491667360067368,-0.13067159056663513,-0.08302463591098785,0.0777178481221199,0.1499571055173874,0.11500837653875351,0.042496491223573685,0.05565309524536133,0.22496096789836884,-0.18818464875221252,-0.1480998694896698
images/PRE_F240457_23_21_R.jpg,-0.047622982412576675,-0.018898723646998405,-0.10097365826368332,-0.15764924883842468,-0.019711734727025032,0.05581493303179741,-0.034308020025491714,0.2011168748140335,0.035398755222558975,0.11660650372505188,-0.019135860726237297,0.008526823483407497,-0.010476435534656048,-0.0850888267159462,0.053359270095825195,0.07485074549913406,-0.03544578701257706,0.04990355297923088,-0.07147830724716187,0.07188642770051956,0.1125250980257988,0.16614708304405212,0.05732899531722069,0.033618513494729996,-0.0363461934030056,0.021901804953813553,-0.016449544578790665,0.10761415958404541,0.07411060482263565,-0.0314113087952137,-0.031175751239061356,0.12284963577985764,-0.07249478995800018,-0.006550255697220564,0.18127252161502838,-0.03133580833673477,-0.008302595466375351,-0.05692343786358833,0.03297775611281395,0.04542313143610954,0.04042423516511917,0.17900526523590088,0.060059621930122375,-0.1325284093618393,-0.05359870195388794,0.007466629613190889,0.046124521642923355,0.002806826028972864,-0.1171967014670372,-0.022269373759627342,0.05774259194731712,0.05409960821270943,0.04425164312124252,-0.09529577940702438,-0.008158748969435692,0.0664883702993393,-0.04186895862221718,-0.11057069152593613,-0.04012013599276543,-0.03416024148464203,0.03789924457669258,0.2262793481349945,0.0713295266032219,0.024612875655293465,-0.07489915937185287,-0.053751226514577866,-0.027106983587145805,0.052744217216968536,0.06391511857509613,-0.20920489728450775,-0.1866530328989029,-0.039129454642534256,-0.13286514580249786,-0.07405699044466019,0.06317462772130966,-0.07532023638486862,0.10161204636096954,0.08381694555282593,-0.03013317845761776,0.18748515844345093,0.03522760048508644,0.08656144142150879,0.15171577036380768,-0.09578411281108856,-0.06919051706790924,-0.036789726465940475,0.12797752022743225,0.035017166286706924,0.07075183093547821,-0.025734147056937218,0.06145886704325676,0.01615883782505989,-0.025826778262853622,-0.056154534220695496,0.14257878065109253,-0.053482700139284134,-0.14690275490283966,-0.09383722394704819,0.06809373199939728,0.044444188475608826,-0.1620028018951416,-0.08789036422967911,-0.11399243772029877,0.05482592061161995,0.23906807601451874,-0.1829712688922882,0.009942322038114071,-0.018755076453089714,0.04680374637246132,0.09013824164867401,0.049026429653167725,0.13107769191265106,-0.06865471601486206,-0.012973200529813766,0.031310949474573135,0.0013198122614994645,-0.014701331034302711,0.010208053514361382,-0.1354610025882721,0.04538414999842644,-0.06594395637512207,0.0035798014141619205,0.0272054485976696,-0.0974125936627388,-0.01804312877357006,0.15966585278511047,-0.11224240064620972,0.05656267702579498
images/PRE_F240458_23_21_R.jpg,-0.08726184815168381,-0.076854407787323,-0.07099886983633041,-0.09427467733621597,-0.08265649527311325,-0.023027509450912476,0.016758453100919724,0.18993496894836426,0.03006806969642639,0.1091148778796196,-0.062442634254693985,0.008846675977110863,0.061816468834877014,-0.11497809737920761,0.0002786417899187654,0.08748838305473328,-0.04302592948079109,0.02330619841814041,-0.04337751120328903,0.07492157816886902,0.039809003472328186,0.16227789223194122,0.03640158474445343,0.09560492634773254,0.018633630126714706,-0.024116048589348793,-0.08351106196641922,-0.030497994273900986,0.1505448967218399,-0.11708008497953415,0.010784019716084003,0.05131886154413223,-0.07806143909692764,-0.13635356724262238,0.08112899959087372,-0.009634384885430336,-0.04860490933060646,0.004499882459640503,0.04227287694811821,0.1190439909696579,0.10392170399427414,0.1245105117559433,-0.05853220447897911,0.018026839941740036,-0.06350579112768173,0.07238927483558655,0.1018323227763176,-0.004308316390961409,0.030176589265465736,0.060529109090566635,0.09063534438610077,0.05543104559183121,0.09235841035842896,-0.13809049129486084,-0.009253430180251598,0.01637852005660534,0.023578673601150513,-0.07969621568918228,-0.039843011647462845,-0.05779276788234711,-0.053182076662778854,0.2543491721153259,0.13125841319561005,-0.004973567556589842,-0.11184591054916382,-0.12589532136917114,-0.09523619711399078,0.15345317125320435,0.037363748997449875,0.017544807866215706,-0.16627620160579681,-0.08332454413175583,-0.03022965043783188,-0.11579600721597672,0.11117333173751831,-0.04975409060716629,0.05809967964887619,0.07418207079172134,-0.0751747190952301,0.19926534593105316,-0.08827169239521027,-0.12649710476398468,0.07428881525993347,-0.21953201293945312,-0.06347683817148209,0.04275372996926308,-0.042388901114463806,0.008456487208604813,0.012426069937646389,0.01782679371535778,0.06057823821902275,0.07626284658908844,0.0034857322461903095,-0.10529308021068573,-0.08319740742444992,-0.08266393095254898,-0.022757353261113167,-0.1405448317527771,0.05216982588171959,0.24407559633255005,-0.13039875030517578,-0.02458067238330841,0.010682321153581142,-0.005048474296927452,-0.011723020114004612,-0.1015176773071289,-0.07604803144931793,-0.011938469484448433,0.03473284840583801,0.011147565208375454,0.008543284609913826,0.04885069280862808,-0.05091109499335289,0.005654411390423775,0.017539067193865776,-0.06453806906938553,0.023325299844145775,-0.016049163416028023,-0.09540316462516785,0.0998188778758049,-0.13229995965957642,0.055918142199516296,-0.03852352127432823,-0.21673110127449036,-0.06248762086033821,0.14199502766132355,-0.09666789323091507,-0.025192495435476303
images/PRE_F240459_23_21_L.jpg,0.05710773542523384,-0.0006291152094490826,-0.13573072850704193,0.030279090628027916,-0.1307014673948288,0.075938381254673,0.012457809410989285,0.19242635369300842,-0.1497671902179718,-0.010911515913903713,0.12244748324155807,0.03884187713265419,-0.015008731745183468,-0.04539976641535759,0.11590761691331863,0.026139669120311737,0.02727952040731907,-0.01281562726944685,-0.033691782504320145,0.03077416494488716,0.14777050912380219,0.12571865320205688,-0.03970812261104584,0.1408102661371231,0.06268041580915451,-0.032762642949819565,0.05807178094983101,0.14130418002605438,0.11389090865850449,0.11430274695158005,-0.06895621865987778,0.10906971246004105,-0.08910886198282242,0.002127726562321186,0.14730648696422577,0.04614162817597389,0.08070546388626099,-0.017816871404647827,0.011095618829131126,-0.13336925208568573,0.014723978005349636,-0.03925943002104759,0.005424258299171925,-0.00890924222767353,-0.007367231883108616,0.0867498368024826,0.04470469802618027,0.042898029088974,0.0718647837638855,-0.227192223072052,0.18389372527599335,-0.08209889382123947,0.12288110703229904,-0.012473959475755692,-0.12892283499240875,0.0655914694070816,-0.06802882254123688,0.03062002919614315,-0.09344352036714554,-0.015401064418256283,-0.054362550377845764,0.024999435991048813,-0.0951244905591011,0.09635868668556213,-0.12762433290481567,0.0307034719735384,0.004916757345199585,0.1599213182926178,-0.008601909503340721,-0.10361616313457489,-0.05809459462761879,-0.05622996389865875,-0.12867191433906555,-0.11693544685840607,0.061265528202056885,0.01917443983256817,0.10936319828033447,0.13386955857276917,-0.16407537460327148,0.16583998501300812,0.0248260460793972,0.047731801867485046,0.11149835586547852,-0.014907515607774258,0.032333552837371826,0.06909822672605515,0.03180538862943649,-0.1263953149318695,-0.02591755799949169,-0.05202614516019821,0.026637708768248558,0.006147461943328381,-0.1435125172138214,-0.009169059805572033,0.07030648738145828,0.048226695507764816,-0.06037947162985802,-0.03152379393577576,0.1044793650507927,0.12920132279396057,0.04983528330922127,-0.014850156381726265,-0.02751578390598297,-0.0117092439904809,0.14295999705791473,-0.0017986344173550606,-0.09852443635463715,0.044341154396533966,0.019534919410943985,-0.01412932202219963,-0.1157580018043518,-0.042855288833379745,0.010761121287941933,0.005271961446851492,0.14192742109298706,0.16817927360534668,-0.02643878571689129,-0.009128985926508904,-0.12160594761371613,-0.02765035815536976,0.04685841128230095,0.16078799962997437,-0.07778597623109818,-0.09668663889169693,0.10272666811943054,0.1383340060710907,-0.11997433006763458,-0.06001404672861099
images/PRE_F240460_23_21_R.jpg,0.0114534767344594,-0.03482327237725258,-0.18661938607692719,-0.100612111389637,0.0450773760676384,0.10298611968755722,0.06498448550701141,0.18309670686721802,-0.05267179012298584,-0.012620092369616032,0.08437968045473099,0.04110431671142578,0.11181630939245224,-0.0012834860244765878,0.10465625673532486,-0.12258439511060715,0.001971474615857005,0.03737538680434227,-0.08159376680850983,0.11710646003484726,0.041314952075481415,0.15071024000644684,-0.028305387124419212,0.0886557325720787,-0.11869508028030396,-0.005232588853687048,0.06856346130371094,0.01821226067841053,0.1664351522922516,0.06569284945726395,0.09018582105636597,0.09062887728214264,0.06520458310842514,-0.10714709013700485,0.15766926109790802,-0.002095066709443927,-0.083733931183815,-0.026147987693548203,0.09946636110544205,-0.013351296074688435,-0.11276515573263168,0.03403007611632347,0.014198632910847664,0.053875233978033066,-0.0981161817908287,0.07607283443212509,0.020808443427085876,-0.04265206307172775,-0.0038241150323301554,-0.19773438572883606,0.09815941005945206,0.03827344626188278,-0.007338267285376787,0.101448193192482,0.018066175282001495,-0.0028777942061424255,-0.008860993199050426,0.03621721267700195,-0.012071575969457626,0.07288511842489243,-0.06529474258422852,0.14658603072166443,-0.09966766089200974,0.057435546070337296,-0.1450430303812027,-0.028518911451101303,-0.02347526140511036,0.10064540058374405,0.010003197006881237,-0.13484874367713928,-0.17486901581287384,-0.10721120983362198,-0.16191594302654266,-0.09004054963588715,0.09246744960546494,0.07218389213085175,0.13109660148620605,0.21454961597919464,-0.07611721009016037,0.2971775531768799,-0.03576582670211792,-0.006494549103081226,0.1371069997549057,-0.029530871659517288,-0.14602838456630707,0.06710783392190933,-0.0606868714094162,0.020423568785190582,-0.036757614463567734,-0.042340390384197235,-0.014654834754765034,-0.013360983692109585,-0.05497157201170921,-0.042873453348875046,0.06399338692426682,-0.12932656705379486,-0.10958991199731827,-0.1353711634874344,0.0003012236556969583,0.10640624165534973,-0.02863108180463314,-0.030368801206350327,-0.08810021728277206,0.07885189354419708,-0.012775094248354435,0.007123039104044437,-0.07935193181037903,0.04143913462758064,-0.13309282064437866,-0.011583775281906128,-0.05306101590394974,-0.07931200414896011,0.026064209640026093,0.002130533568561077,0.08326742798089981,0.07466688752174377,0.07454857230186462,-0.06396716833114624,-0.0636812299489975,0.032591305673122406,0.008459784090518951,0.06959954649209976,0.062341030687093735,-0.04541078582406044,-0.0011688773520290852,0.13890084624290466,-0.033644672483205795,0.02733214944601059
images/PRE_F240461_23_21_R.jpg,-0.08372321724891663,-0.03948594629764557,0.056477680802345276,0.06061449274420738,0.0765780359506607,0.10050994157791138,0.08517888188362122,0.11218558251857758,0.02600781060755253,-0.0713205635547638,0.16316886246204376,-0.05784209445118904,0.07166901975870132,-0.025681812316179276,0.1352393627166748,0.009730294346809387,0.025995032861828804,0.059531696140766144,-0.14741195738315582,0.029632605612277985,0.1084979996085167,0.12749136984348297,0.13442572951316833,0.15275433659553528,0.021814003586769104,0.13883598148822784,0.057889342308044434,0.016895990818738937,0.05032140016555786,-0.04166017845273018,0.08672615140676498,0.029890181496739388,0.02483140118420124,0.008664637804031372,0.16904233396053314,-0.05620749667286873,0.12945415079593658,0.0018567291554063559,-0.10066638141870499,-0.09631393849849701,-0.026343489065766335,-0.021595284342765808,0.0134485037997365,-0.008763202466070652,-0.21554380655288696,-0.06811781227588654,0.10863743722438812,0.029456857591867447,0.020812921226024628,-0.09587214142084122,0.1194099709391594,-0.06748822331428528,-0.03393499553203583,-0.03548414632678032,-0.010192063637077808,0.18798382580280304,-0.09938908368349075,-0.08603321760892868,-0.026017872616648674,-0.05969813093543053,-0.009432964026927948,0.0678025633096695,0.023918945342302322,-0.06845114380121231,0.021999645978212357,-0.01490767952054739,-0.02663874812424183,0.15045960247516632,-0.07791188359260559,0.040410470217466354,-0.018862571567296982,-0.11670973896980286,-0.019796404987573624,-0.06983963400125504,0.023644166067242622,0.034211549907922745,0.06527181714773178,0.1359538733959198,-0.17857784032821655,0.23283810913562775,-0.094378262758255,0.04413525387644768,-0.025563394650816917,-0.07736746221780777,-0.09527648240327835,0.07154147326946259,0.008839829824864864,0.018673041835427284,-0.032734960317611694,-0.14858412742614746,0.031052758917212486,0.06497512012720108,-0.08457760512828827,-0.10338982194662094,0.06414637714624405,-0.0872950479388237,-0.11141408979892731,-0.11317615956068039,-0.003074251115322113,0.07961127161979675,-0.10103976726531982,-0.09753699600696564,-0.13342949748039246,-0.04078472778201103,0.091469407081604,0.05668693780899048,-0.0731879249215126,0.20659828186035156,-0.0007947252015583217,0.19964753091335297,-0.05264518782496452,-0.01353366021066904,0.053964290767908096,0.15072597563266754,0.005868252832442522,0.05900736525654793,0.031971435993909836,-0.056709736585617065,-0.18304160237312317,-0.037608418613672256,-0.011402267962694168,-0.04897641763091087,0.03569592535495758,0.023487471044063568,0.03151516988873482,0.10549233853816986,-0.11455187946557999,-0.047672152519226074
images/PRE_F240462_23_21_L.jpg,-0.04960700869560242,-0.05060261860489845,-0.11060810089111328,0.03671947494149208,-0.011822453700006008,0.2449696660041809,-0.00506584532558918,0.12396392971277237,-0.007887879386544228,-0.10350882261991501,0.13322262465953827,0.013893420808017254,0.1412099003791809,0.030542006716132164,-0.04629335552453995,0.01195953506976366,-0.033516138792037964,0.010013218969106674,-0.033967651426792145,0.06577005237340927,0.1662554144859314,0.10420127958059311,0.04566948488354683,0.1279614418745041,-0.024484410881996155,-0.028785640373826027,-0.0010413355194032192,0.09660077840089798,0.20398232340812683,-0.10029278695583344,-0.0029105290304869413,0.15227344632148743,-0.09823565185070038,0.04620760306715965,0.19090919196605682,-0.06359971314668655,0.01773429848253727,0.058084968477487564,-0.010865220800042152,-0.050093941390514374,-0.091654933989048,-0.04217299446463585,-0.05055641382932663,0.043204739689826965,-0.0970572680234909,0.015264472924172878,0.06860094517469406,0.03326607868075371,0.032860513776540756,-0.10487456619739532,0.13377432525157928,0.021778596565127373,0.09259352833032608,0.09453263133764267,-0.05267111584544182,0.08642209321260452,-0.11591219156980515,0.050195224583148956,0.033881738781929016,-0.05392793193459511,-0.09669193625450134,0.1646147072315216,-0.049064651131629944,-0.014816799201071262,-0.026328904554247856,0.06497951596975327,-0.10474997758865356,0.17329983413219452,0.17479954659938812,-0.02079877257347107,-0.024648470804095268,-0.05311739817261696,-0.0012491174275055528,-0.10229334980249405,0.03460514545440674,0.03606670722365379,-0.021542837843298912,0.21754127740859985,-0.04846630245447159,0.1935492902994156,-0.03792080655694008,0.05389859154820442,0.03291885554790497,-0.07261968404054642,-0.12756672501564026,0.09129635989665985,-0.05962475761771202,0.04902894049882889,-0.11883542686700821,-0.09642519056797028,0.06691355258226395,-0.09445540606975555,-0.12320975959300995,0.04190352186560631,-0.04211713746190071,-0.17757301032543182,0.04742475599050522,-0.1359679251909256,-0.03325800970196724,0.09005679935216904,-0.18662935495376587,0.004242931958287954,0.043825116008520126,0.01827782206237316,0.04873484745621681,-0.0020194612443447113,0.016912981867790222,0.13622044026851654,0.0200588908046484,0.1212356686592102,0.0631723403930664,-0.08591418713331223,0.09391680359840393,-0.009880979545414448,0.07971671968698502,-0.005433174781501293,0.13028419017791748,-0.0433809719979763,-0.10113801062107086,0.017324436455965042,-0.01184183917939663,-0.03545599803328514,0.0034552637953311205,0.0049138362519443035,0.008829453028738499,0.0904368907213211,-0.13574093580245972,0.044300053268671036
images/PRE_F240463_23_21_L.jpg,-0.006312020123004913,0.028947392478585243,-0.03906118869781494,-0.037365417927503586,-0.029339175671339035,0.0031540333293378353,-0.039795976132154465,0.128673255443573,-0.1299307495355606,-0.0013850413961336017,0.028197724372148514,-0.01843198761343956,-0.019235940650105476,-0.10247927159070969,0.16721323132514954,0.15264226496219635,-0.028625044971704483,0.19055765867233276,-0.12359269708395004,-0.10821282118558884,-0.026521872729063034,0.06227699667215347,0.12189073860645294,0.16650661826133728,0.04500328004360199,0.009855384938418865,0.08819861710071564,-0.021907610818743706,-0.0011297070886939764,0.1517360657453537,0.2065751999616623,-0.015248432755470276,-0.009547443129122257,0.07714583724737167,0.127900168299675,-0.11063476651906967,-0.008975518867373466,-0.14519861340522766,-0.09267771989107132,-0.0681362971663475,0.031244123354554176,0.026880696415901184,0.03891029953956604,-0.13168904185295105,-0.09352250397205353,0.09393532574176788,0.10386984795331955,-0.10713125020265579,0.13262733817100525,0.004242973867803812,0.14010697603225708,0.0713193491101265,-0.04019629955291748,-0.21717728674411774,-0.034242935478687286,0.06485635042190552,-0.027038896456360817,-0.11718807369470596,-0.0916532352566719,-0.028194842860102654,0.024683160707354546,-0.05271025374531746,-0.005001470446586609,-0.10264191031455994,-0.1625022143125534,0.10484252870082855,0.06397239118814468,0.09057818353176117,0.05220918357372284,-0.18032780289649963,-0.08096935600042343,0.014480050653219223,-0.026410823687911034,-0.12999659776687622,-0.09050241857767105,0.026035912334918976,-0.03152257949113846,0.12126457691192627,-0.12603740394115448,-0.041301071643829346,0.012887038290500641,0.06484416872262955,0.06134924665093422,0.032314687967300415,0.05403616651892662,0.034741029143333435,0.0192097295075655,-0.029934395104646683,0.030549021437764168,-0.10652070492506027,-0.042921919375658035,-0.01948300376534462,-0.10156649351119995,-0.0204795952886343,0.21014927327632904,0.015507957898080349,0.015284214168787003,0.00410862872377038,0.02129792608320713,0.032043516635894775,0.015222590416669846,-0.09152466803789139,0.009203096851706505,0.08588569611310959,0.03603372722864151,-0.13343830406665802,-0.006158726755529642,-0.005307680461555719,-0.019195280969142914,0.06401383131742477,-0.023425551131367683,-0.08414312452077866,-0.13568106293678284,-0.0836624726653099,0.09932282567024231,0.028792807832360268,-0.15687981247901917,0.07784568518400192,-0.19113044440746307,-0.1421000212430954,0.018016556277871132,-0.025165168568491936,0.0179532952606678,0.11973933130502701,0.03130048140883446,0.03171171993017197,-0.12635590136051178,0.06420552730560303
images/PRE_F240464_23_21_L.jpg,0.08913474529981613,-0.06263735890388489,-0.14987695217132568,0.08761407434940338,0.025941086933016777,0.046489253640174866,0.02701144851744175,0.050597529858350754,-0.05590106174349785,0.033403217792510986,-0.051856160163879395,-0.004159710370004177,0.09769250452518463,-0.14541222155094147,0.09240643680095673,0.0027581960894167423,-0.054366227239370346,0.08014903217554092,-0.13510696589946747,0.029295286163687706,0.04733019322156906,0.13126373291015625,0.052888136357069016,0.12945754826068878,-0.008632093667984009,0.015384560450911522,0.0330691896378994,-0.0020616573747247458,0.016782205551862717,0.15719635784626007,0.13001467287540436,0.11135292798280716,0.046652957797050476,0.0077789947390556335,0.1700814962387085,-0.06636859476566315,0.04067742079496384,0.0608527809381485,-0.0114060053601861,0.007558609824627638,-0.02241736464202404,-0.0426800362765789,-0.0033977017737925053,-0.11026555299758911,-0.20416495203971863,0.03891977667808533,0.0988263338804245,-0.06540929526090622,0.018734561279416084,-0.034901756793260574,0.12547653913497925,0.003626269521191716,0.02510891482234001,-0.041087135672569275,0.1582287698984146,-0.09731119126081467,9.616649185772985e-05,-0.005387233570218086,0.030509203672409058,0.04250045865774155,-0.024285707622766495,0.004691251553595066,0.03628264367580414,-0.07632938027381897,-0.03687889873981476,-0.05461397394537926,0.09198768436908722,0.12361164391040802,-0.005977002903819084,-0.1300462931394577,-0.062135785818099976,0.038424164056777954,-0.028754211962223053,-0.1862138956785202,0.020211273804306984,-0.01570095308125019,-0.059867676347494125,0.17317625880241394,-0.27060115337371826,0.016376033425331116,0.005159956403076649,0.10313843935728073,0.08428897708654404,0.05512824282050133,0.07927088439464569,-0.06728203594684601,0.050168007612228394,-0.0955725908279419,0.00444433931261301,-0.1928081065416336,-0.02588716149330139,-0.009130335412919521,-0.051971882581710815,0.02185169607400894,0.1741781085729599,0.023187175393104553,0.08693934977054596,0.0024521222803741693,0.09176164865493774,-0.04491978883743286,-0.1019500121474266,-0.10163535922765732,-0.23757676780223846,0.05268370732665062,-0.07156197726726532,-0.06392793357372284,-0.05053235962986946,0.06092695891857147,-0.11934197694063187,0.016159847378730774,-0.12782146036624908,-0.13208255171775818,-0.0233782771974802,-0.01602672040462494,0.15194351971149445,0.1133456602692604,-0.05936332792043686,0.00911959633231163,-0.01961049623787403,-0.09954484552145004,0.07883850485086441,-0.06611082702875137,0.09528100490570068,0.1317470222711563,0.036376286298036575,0.11002708226442337,-0.14561165869235992,-0.10989028215408325
images/PRE_F240465_23_21_L.jpg,0.06166372448205948,-0.02638067491352558,-0.10706472396850586,-0.10562431812286377,-0.10001087933778763,0.018161511048674583,-0.04087353125214577,0.21502214670181274,0.018867330625653267,-0.09310082346200943,0.0016360717127099633,-0.05501202121376991,0.047036901116371155,-0.12139280140399933,0.07057350128889084,-0.08161464333534241,-0.012571558356285095,0.09614769369363785,-0.06600552797317505,-0.04338928684592247,0.014540562406182289,0.18389181792736053,0.09424272179603577,0.23261122405529022,-0.010121137835085392,-0.12615866959095,0.14547356963157654,-0.01490720734000206,0.0636431872844696,0.10342731326818466,0.14649295806884766,0.006022837944328785,-0.04552173614501953,0.04604817181825638,0.10933604836463928,0.04456011578440666,0.05461939796805382,0.056937191635370255,0.04334314912557602,-0.1606850028038025,0.02743466943502426,-0.013621160760521889,-0.04107055813074112,-0.08315187692642212,-0.18620750308036804,-0.06093103066086769,0.06695687025785446,-0.11910401284694672,0.08802735805511475,-0.03818944841623306,0.18748097121715546,-0.005624217912554741,0.17704614996910095,0.05879578739404678,-0.014560556039214134,-0.0034255508799105883,-0.09539767354726791,-0.008520843461155891,0.014413867145776749,0.013968088664114475,0.04547842964529991,0.011153953149914742,0.02997090108692646,0.015450898557901382,-0.04249383509159088,0.07426245510578156,-0.037552833557128906,0.13175436854362488,-0.033021170645952225,-0.04002416506409645,-0.1489614099264145,-0.03175096586346626,-0.036884237080812454,-0.09995192289352417,0.0826864168047905,-0.04939849302172661,-0.017100760713219643,0.050107233226299286,-0.15975694358348846,0.05085591599345207,-0.037523265928030014,0.08962377160787582,0.11196821182966232,0.057014886289834976,-0.024981243535876274,-0.05718856304883957,0.0034954966977238655,-0.061182375997304916,0.06884822249412537,-0.08356835693120956,0.045472726225852966,0.06210692226886749,-0.04216345027089119,0.021955842152237892,0.002984966617077589,-0.050540193915367126,-0.11703293025493622,-0.08427200466394424,0.14542566239833832,0.0202985480427742,-0.11852400004863739,-0.07125096023082733,-0.01575811579823494,-0.04453880712389946,0.025261998176574707,-0.15504050254821777,0.015178004279732704,0.14848843216896057,0.006334318779408932,0.06914559006690979,-0.053232815116643906,-0.06544381380081177,0.11563712358474731,-0.043848201632499695,0.21679647266864777,0.021085739135742188,-0.08404874801635742,0.000663595914375037,-0.17813093960285187,0.010480920784175396,-0.04000736027956009,0.029740219935774803,0.10173734277486801,0.10550659149885178,0.039665497839450836,0.1602427065372467,-0.11021048575639725,-0.17388978600502014
images/PRE_F240466_23_21_L.jpg,0.11833079159259796,0.015520663931965828,-0.11174200475215912,0.01566619984805584,-0.0028571246657520533,0.11988691240549088,-0.06010908633470535,0.11585497856140137,0.049883726984262466,-0.05864281579852104,0.03843705356121063,-0.02366511896252632,0.11745483428239822,-0.12224819511175156,0.05509250983595848,0.0950336679816246,0.03807881474494934,0.16703245043754578,-0.05125925689935684,0.08473070710897446,0.11787188053131104,0.09481751918792725,0.08871177583932877,0.154962956905365,-0.008677040226757526,0.0026101272087544203,-0.04096594080328941,0.056370388716459274,0.05993463099002838,0.060849931091070175,-0.03393970802426338,-0.038303930312395096,-0.03911174088716507,0.1200258806347847,0.19867093861103058,-0.04752394184470177,0.012981216423213482,0.12505227327346802,0.039580781012773514,-0.0772324651479721,0.0058613307774066925,0.08556196093559265,0.09047126024961472,-0.05083111673593521,-0.18383775651454926,0.06257691234350204,0.20562347769737244,-0.09772256761789322,0.045172207057476044,-0.15519167482852936,0.10889365524053574,0.05218229070305824,0.17136093974113464,0.053944021463394165,0.00572076253592968,0.11566931009292603,-0.012090633623301983,-0.029499245807528496,0.017992334440350533,-0.005215562414377928,0.003617813577875495,0.053065236657857895,0.03627157211303711,0.020715860649943352,0.05245346575975418,-0.09633507579565048,-0.108547642827034,0.05783025547862053,-0.03725174069404602,-0.03727152571082115,-0.011949297972023487,-0.050204917788505554,-0.11478158831596375,-0.048360954970121384,-0.008360187523066998,0.060467224568128586,-0.08485671877861023,0.23629119992256165,-0.1563103049993515,0.10975032299757004,-0.020132746547460556,0.1147274449467659,0.1629599630832672,-0.07295277714729309,-0.03195083886384964,0.05356551706790924,0.11513930559158325,-0.1063348799943924,0.017381027340888977,-0.20700062811374664,0.004370131995528936,-0.015988372266292572,-0.05116880312561989,-0.00945950485765934,0.07841607928276062,-0.06087243929505348,-0.04652944952249527,-0.019688518717885017,-0.01002803910523653,0.06907244026660919,-0.08733616769313812,-0.07157499343156815,-0.09273780882358551,-0.05469894036650658,0.0941261425614357,-0.00918481033295393,-0.07985080778598785,0.23387141525745392,-0.06201231852173805,0.04127228632569313,-0.09474778920412064,0.04156971350312233,0.05707833543419838,-0.0390484444797039,0.08216318488121033,0.05751210078597069,-0.002834246028214693,0.11986242234706879,-0.119225412607193,-0.10189973562955856,0.09278145432472229,0.07084833830595016,0.04237833246588707,0.1285042017698288,-0.03036053478717804,0.12259037047624588,-0.029620854184031487,-0.03467006981372833
images/PRE_F240467_23_21_R.jpg,-0.0835072323679924,0.10898210108280182,-0.04476676881313324,0.08279994130134583,0.12341336160898209,0.24585318565368652,-0.05828746780753136,0.11992916464805603,0.06367143243551254,0.02780904434621334,-0.011900068260729313,0.059184394776821136,0.1285231113433838,-0.0308715607970953,0.06661947816610336,0.05927591398358345,-0.03691418468952179,0.13245385885238647,0.016761919483542442,-0.041579291224479675,0.03657212108373642,0.0021160857286304235,0.06859017163515091,0.09567080438137054,-0.0766010656952858,0.08890502154827118,0.018239907920360565,0.035589542239904404,0.1569630652666092,-0.11914614588022232,0.076077900826931,0.1793312281370163,-0.039559051394462585,0.07702907174825668,0.18718859553337097,0.05344361439347267,-0.011537422426044941,0.03481970727443695,-0.05764550715684891,-0.02138863131403923,0.018959185108542442,-0.04981670528650284,-0.04951878637075424,-0.037966761738061905,-0.14368502795696259,0.002732328837737441,0.16887915134429932,-0.08450917154550552,0.10421917587518692,-0.064971424639225,0.01699330471456051,0.09078139066696167,0.10489214956760406,-0.03541479632258415,0.0092041390016675,0.022488553076982498,-0.03544764965772629,-0.010721227154135704,-0.05591827258467674,-0.019824041053652763,0.013908528722822666,-0.04918413236737251,-0.08076825737953186,-0.12089480459690094,-0.08486395329236984,0.001194835058413446,-0.07742304354906082,-0.047378912568092346,0.17159172892570496,-0.1282387375831604,0.03990579769015312,-0.06605203449726105,-0.0999884158372879,-0.032246239483356476,0.015681646764278412,-0.016037335619330406,-0.0787518247961998,0.14782704412937164,-0.06595952063798904,0.22968794405460358,0.06373367458581924,0.04341243579983711,0.013721308670938015,-0.14117442071437836,-0.1620502769947052,0.030367501080036163,0.027000976726412773,-0.008386321365833282,-0.042981959879398346,-0.04866166040301323,-0.03309372439980507,0.05572426691651344,-0.14133934676647186,-0.0031913165003061295,0.04920252412557602,-0.06332305818796158,0.015359951183199883,-0.06022435054183006,0.031660981476306915,-0.0636071190237999,-0.14391662180423737,-0.052503958344459534,-0.06613145023584366,-0.0011592842638492584,-0.10805393755435944,-0.09708064794540405,0.03703667223453522,0.17063133418560028,0.036251164972782135,0.14013250172138214,0.13033045828342438,-0.11330422759056091,0.045646313577890396,0.04670935496687889,0.14975297451019287,0.017402788624167442,0.038826048374176025,-0.08004114776849747,0.0657539963722229,-0.10622406750917435,0.06581128388643265,0.07942385226488113,0.06663448363542557,0.02034873515367508,-0.08833528310060501,0.25179654359817505,0.019179662689566612,0.09182358533143997
images/PRE_F240468_23_21_L.jpg,-0.12380272150039673,0.04200052097439766,0.03633372113108635,-0.044814083725214005,-0.0005988252232782543,0.05789078772068024,0.004362240433692932,0.08630048483610153,0.03810994327068329,-0.00706368125975132,0.06285910308361053,-0.047784216701984406,-0.014285482466220856,-0.06744283437728882,0.05364738404750824,0.0028894722927361727,-0.07829166948795319,-0.0704188346862793,0.011046799831092358,0.0023125719744712114,0.040776174515485764,0.06415094435214996,0.12349283695220947,0.09964859485626221,-0.1975618600845337,0.12639807164669037,0.041800085455179214,-0.017601460218429565,0.1184406578540802,-0.010068554431200027,-0.06753526628017426,0.10438024252653122,-0.01584862917661667,-0.037975724786520004,0.12286273390054703,0.048715442419052124,0.011078591458499432,0.11927161365747452,0.06565199047327042,-0.01852988451719284,0.02388567104935646,-0.03437715396285057,-0.0681268647313118,-0.04095110669732094,-0.11710822582244873,0.05858670175075531,0.18563099205493927,0.02546473778784275,-0.04945981875061989,-0.12619648873806,0.01825116015970707,0.011758615262806416,0.09807839244604111,-0.05421715974807739,-0.0936988815665245,0.05439681559801102,-0.07265613228082657,-0.04434433951973915,0.04772666096687317,-0.06412490457296371,-0.12388330698013306,0.055200498551130295,-0.16873767971992493,0.13563422858715057,-0.1408923715353012,-0.07862639427185059,0.01594327948987484,0.07860957086086273,0.22497282922267914,0.034382306039333344,0.021364251151680946,-0.1866944432258606,-0.006270613055676222,-0.0855129137635231,0.013444675132632256,0.10725702345371246,0.0007705850875936449,0.195985347032547,-0.18477146327495575,0.32446804642677307,-0.06898730993270874,0.026100026443600655,0.032492589205503464,-0.18393556773662567,-0.13801392912864685,0.016827929764986038,-0.023524528369307518,0.014920777641236782,-0.04870452359318733,-0.0859844908118248,-0.012837903574109077,-0.023912716656923294,-0.13267797231674194,0.004452109336853027,-0.016929905861616135,-0.012809505686163902,0.02396688237786293,0.00529963755980134,-0.09102658927440643,0.1610371172428131,-0.042105939239263535,-0.12340337038040161,0.03185640275478363,-0.1374981701374054,-0.07393699139356613,0.0578249953687191,-0.0465313121676445,0.11403201520442963,-0.015177168883383274,0.07203267514705658,-0.01451836246997118,-0.002210075268521905,0.14369426667690277,-0.013438098132610321,0.1260356307029724,-0.015671690925955772,0.0018564010970294476,-0.07964027673006058,0.011182084679603577,-0.06639266014099121,0.060522712767124176,0.06484636664390564,0.0025702849961817265,-0.03112727403640747,0.003498151432722807,0.1902381181716919,-0.0655149295926094,0.0070042177103459835
images/PRE_F240471_23_21_L.jpg,0.053664080798625946,0.010656030848622322,-0.03196059912443161,-0.021901803091168404,-0.02268751710653305,0.09742392599582672,-0.06764306128025055,0.152100071310997,0.02785126492381096,0.04124440252780914,-0.023992031812667847,0.04768520966172218,-0.017014525830745697,-0.02237882651388645,0.0989985316991806,0.13166183233261108,-0.13588562607765198,0.16991248726844788,-0.12926249206066132,-0.04538087919354439,0.14379674196243286,0.06534017622470856,0.0989958867430687,0.06690186262130737,0.16198617219924927,-0.020928923040628433,0.005431661382317543,0.0946066677570343,0.053979676216840744,-0.060193561017513275,0.1264774203300476,0.06117589399218559,-0.09026754647493362,0.12576258182525635,0.19137731194496155,-0.12460554391145706,0.09407857060432434,-0.009881550446152687,-0.060333799570798874,0.04260876774787903,0.008268685080111027,-0.07573391497135162,-0.024571165442466736,-0.0516519695520401,-0.13875053822994232,0.1284445971250534,0.25578415393829346,-0.09889113903045654,0.1194397434592247,0.05199652537703514,0.14324167370796204,0.0774330198764801,0.21033212542533875,-0.004891355521976948,0.026598326861858368,0.03667072951793671,0.041361548006534576,-0.19210168719291687,-0.020879922434687614,-0.02876272425055504,0.056046608835458755,0.16297289729118347,0.08126942068338394,0.007115060929208994,0.003791477996855974,0.04595854505896568,-0.01234630960971117,-0.019696829840540886,0.06995628774166107,-0.11839765310287476,0.008724505081772804,-0.04952137917280197,-0.11014384776353836,-0.04321993142366409,-0.026357972994446754,0.08901548385620117,-0.14183753728866577,0.14919112622737885,-0.1293780505657196,-0.03805346414446831,0.05619608610868454,0.07160113006830215,-0.022143401205539703,-0.13724541664123535,-0.02612360380589962,0.03256269544363022,0.02437824010848999,0.030018724501132965,-0.018036682158708572,-0.1233016774058342,0.051416728645563126,0.08198142051696777,-0.0937061607837677,-0.05041096359491348,0.007353773806244135,-0.03826085478067398,-0.01989072933793068,0.04241272062063217,-0.016341449692845345,0.025958750396966934,-0.12343604117631912,-0.046888917684555054,0.05940036103129387,-0.13385002315044403,0.09641040116548538,-0.17841510474681854,-0.03954983502626419,0.10916337370872498,-0.0016303766751661897,0.03463275358080864,0.027816075831651688,0.01344536617398262,-0.08639770746231079,-0.13729391992092133,0.11634433269500732,0.1243959441781044,-0.016060415655374527,0.11536132544279099,-0.0966462790966034,-0.057087212800979614,0.005802893079817295,0.02937697246670723,-0.0796525776386261,0.04863331466913223,-0.040847666561603546,0.062417980283498764,-0.0964728519320488,0.008671502582728863
images/PRE_F240472_23_21_R.jpg,-0.03674018010497093,-0.021519199013710022,-0.02095937170088291,0.008740776218473911,-0.04288976266980171,0.05811801925301552,-0.025377241894602776,0.07790958136320114,-0.11658044159412384,-0.11602968722581863,0.07473869621753693,0.007047588471323252,0.1034211739897728,0.09579160064458847,-0.1089383065700531,0.12026537954807281,-0.09445709735155106,0.04854169115424156,-0.13167262077331543,-0.12149026989936829,-0.10448769479990005,0.13295480608940125,-0.0270905252546072,0.21599887311458588,0.10266217589378357,0.005908755119889975,0.08664559572935104,0.018525801599025726,0.00914901215583086,0.07290501147508621,0.11842281371355057,0.01796092465519905,-0.11302196979522705,0.017257018014788628,0.035657793283462524,-0.02610083483159542,-0.07383741438388824,-0.08248624950647354,-0.03206644207239151,-0.0022526474203914404,0.1443210393190384,-0.09495101869106293,0.036462802439928055,0.002163339639082551,0.050864078104496,0.029673872515559196,0.1101389229297638,-0.019775710999965668,0.13478271663188934,-0.10047101974487305,0.10948478430509567,-0.051993563771247864,0.03439253941178322,-0.02658054046332836,0.059121329337358475,0.11377912014722824,-0.12734940648078918,-0.08549772948026657,-0.08727151900529861,-0.10908393561840057,0.09467122703790665,0.019318461418151855,0.15034082531929016,-0.041002944111824036,-0.12902052700519562,0.08317315578460693,0.034139905124902725,0.022844480350613594,-0.016905391588807106,-0.043502386659383774,0.0036561544984579086,-0.03107195906341076,-0.03615398705005646,0.07980793714523315,-0.15941783785820007,-0.0464540496468544,0.03737957030534744,0.025056159123778343,-0.13503395020961761,-0.14137013256549835,0.018699700012803078,0.1341060996055603,0.0047231209464371204,-0.013791520148515701,-0.07110455632209778,0.10142499953508377,0.02658572606742382,0.05728306621313095,0.15758131444454193,-0.15314221382141113,-0.028419509530067444,0.08630505204200745,-0.02860157936811447,-0.056339893490076065,0.14478662610054016,-0.03463779389858246,-0.12267923355102539,-0.11950137466192245,-0.09067856520414352,0.03184981644153595,-0.11659282445907593,-0.05200379341840744,-0.014493817463517189,-0.05598103255033493,-0.03931466490030289,-0.1436917632818222,0.001611389685422182,0.21213799715042114,-0.0006022814777679741,0.07792513072490692,-0.09817415475845337,0.05237249284982681,0.0022215903736650944,-0.19697533547878265,0.20670653879642487,0.045504845678806305,-0.08305038511753082,0.11622919887304306,-0.10562888532876968,-0.020104166120290756,0.08194273710250854,0.06574729084968567,0.09482333064079285,0.1273207813501358,-0.01912611350417137,0.07531122863292694,0.0018285297555848956,-0.09850373864173889
images/PRE_F240473_23_21_L.jpg,0.02684142254292965,-0.014660224318504333,-0.08055374771356583,-0.03822076693177223,-0.08838706463575363,0.002154418732970953,0.09666866809129715,0.15204869210720062,0.0890124961733818,0.007336484733968973,-0.01761462353169918,-0.12246554344892502,0.13897724449634552,-0.08678563684225082,0.16622227430343628,-0.004957917146384716,-0.10117526352405548,0.10835980623960495,-0.05913981422781944,0.1090780571103096,0.0951710194349289,0.07073193043470383,0.048639338463544846,0.06939059495925903,0.022234633564949036,-0.04598802700638771,0.02051183208823204,0.0038330352399498224,-0.0019461044576019049,0.1323743313550949,0.10398843884468079,0.051254838705062866,-0.06358575075864792,0.05310458689928055,0.11972618103027344,0.005781989544630051,0.07858382910490036,0.029147977009415627,-0.050352923572063446,-0.07587465643882751,-0.03684129938483238,-0.09907501190900803,0.023394588381052017,0.014216210693120956,-0.0874282494187355,0.13543659448623657,0.13943548500537872,-0.08156004548072815,0.021412702277302742,0.03459416702389717,0.14338085055351257,0.09221227467060089,0.1024388000369072,-0.01285094115883112,0.039890777319669724,-0.07409901171922684,-0.004161366261541843,-0.10475454479455948,-0.11925894767045975,-0.14188262820243835,0.0938485860824585,0.05884576588869095,-0.03931703418493271,-0.08626484870910645,-0.10079950839281082,-0.005738185718655586,0.030047455802559853,0.08858619630336761,-0.05327655002474785,-0.11598148941993713,-0.10823114961385727,0.028703639283776283,-0.006045639514923096,-0.16149617731571198,0.027097906917333603,0.058735206723213196,-0.02645731158554554,0.13328967988491058,-0.23185624182224274,0.066120445728302,0.003765190253034234,0.10922718048095703,0.13547460734844208,-0.11386575549840927,0.09014278650283813,-0.020909149199724197,0.1787720024585724,-0.07184608280658722,0.018198924139142036,-0.14412274956703186,0.027657823637127876,-0.08224228024482727,-0.12149017304182053,-0.13075055181980133,0.03174276649951935,0.032701633870601654,0.027247020974755287,-0.000603621534537524,0.14225523173809052,0.10919961333274841,-0.12919285893440247,-0.09470021724700928,-0.15258878469467163,-0.0823107585310936,0.039889391511678696,-0.1168375313282013,-0.05711136385798454,0.16196797788143158,0.06113312393426895,-0.03685787320137024,-0.15418513119220734,-0.03149266168475151,-0.04523734748363495,-0.07432857155799866,0.1352890580892563,0.04084070399403572,-0.09483186900615692,-0.041026417165994644,-0.13025011122226715,-0.10149494558572769,0.0536988265812397,0.019735271111130714,0.06278950721025467,0.06823401898145676,0.014096401631832123,0.11869128048419952,-0.06021329015493393,0.011900690384209156
images/PRE_F240474_23_21_R.jpg,-0.14988496899604797,-0.0002723036741372198,-0.04407850280404091,-0.22503137588500977,-0.028334790840744972,-0.011791224591434002,0.1850842535495758,0.07220879942178726,0.022191783413290977,-0.02330556884407997,0.08977171778678894,-0.2054513841867447,0.15841196477413177,-0.03387211263179779,0.01765023171901703,0.008915359154343605,-0.12323314696550369,-0.01100543700158596,-0.14157888293266296,-0.1180664598941803,-0.06317341327667236,0.18876226246356964,0.1480673998594284,0.07269638776779175,0.0024813644122332335,-0.0017143427394330502,0.12547628581523895,0.009159215725958347,-0.03780708834528923,0.08305106312036514,0.11261176317930222,-0.008001728914678097,0.013102004304528236,0.09171312302350998,0.158720925450325,-0.041500385850667953,0.05329780653119087,0.08875786513090134,-0.036773305386304855,-0.14316318929195404,0.03952658921480179,0.020844444632530212,0.04397755488753319,0.014509887434542179,-0.1430073380470276,0.017098773270845413,0.03785933181643486,-0.0868242010474205,0.13865715265274048,0.016810182482004166,0.05765106528997421,-0.07996463030576706,-0.06912004947662354,0.03094589151442051,-0.06606215238571167,0.09538935124874115,-0.0723845511674881,-0.07463542371988297,-0.019907573238015175,-0.011137155815958977,0.0027070220094174147,-0.048110585659742355,-2.540327659517061e-05,0.06280038505792618,-0.13610975444316864,-0.043362174183130264,0.14831705391407013,0.04095254838466644,-0.06743860244750977,-0.09689534455537796,-0.08032259345054626,-0.059180401265621185,0.052409470081329346,-0.014009897597134113,-0.08703678101301193,0.03645969554781914,-0.062449268996715546,0.16705845296382904,-0.1223953515291214,0.07268870621919632,0.001893346314318478,0.041156452149152756,0.035135671496391296,-0.003573913825675845,0.03226508945226669,-0.03378836065530777,0.020820749923586845,0.021012136712670326,0.06540951132774353,-0.25360095500946045,0.01335617620497942,-0.006305614951997995,-0.026521947234869003,-0.16887490451335907,-0.009541461244225502,-0.04109039157629013,-0.061742402613162994,-0.007064377423375845,0.12248077988624573,0.062297314405441284,-0.07872216403484344,-0.07895540446043015,0.008135928772389889,-0.09991399943828583,0.04270501434803009,0.01177168171852827,-0.13637033104896545,0.1221790537238121,0.021487990394234657,-0.0531475730240345,-0.16434848308563232,-0.05598009005188942,-0.07222457230091095,-0.05370903015136719,0.12706170976161957,0.07000293582677841,0.009356395341455936,-0.07440225034952164,-0.10231969505548477,-0.053141556680202484,0.14005598425865173,0.09968408197164536,0.07290414720773697,0.15317583084106445,-0.038166698068380356,0.07444938272237778,0.012308497913181782,0.1422533541917801
images/PRE_F240475_23_21_L.jpg,0.024895155802369118,-0.027914946898818016,-0.04731813445687294,-0.038078319281339645,-0.08830370754003525,0.05579730123281479,-0.015934612601995468,0.19423450529575348,-0.09419425576925278,0.05173463746905327,0.0018460911232978106,0.020950745791196823,0.10377185791730881,-0.11149965226650238,-0.01997164450585842,0.05378447473049164,-0.08564037829637527,0.06292174756526947,-0.07318747788667679,0.1209769994020462,0.05374680086970329,0.19335786998271942,0.07483593374490738,0.21185274422168732,0.012807807885110378,-0.14163810014724731,0.04135454446077347,0.11601676046848297,0.03936021402478218,0.08036322146654129,0.005428573582321405,-0.010271307080984116,-0.07666338235139847,0.05851731076836586,0.06926899403333664,-0.04819149896502495,0.06113363429903984,-0.08430299907922745,0.10138266533613205,-0.0588793009519577,0.08318445086479187,0.07432838529348373,0.04190736636519432,-0.0851331427693367,-0.09004972130060196,-0.03184842690825462,0.024706965312361717,-0.03190423175692558,0.11443572491407394,-0.06830388307571411,0.18073080480098724,0.10658182948827744,0.14594541490077972,-0.12378796190023422,-0.20145706832408905,-0.006486824247986078,-0.03879968076944351,0.0008351209689863026,-0.050885699689388275,0.017200272530317307,-0.09093718230724335,0.10261021554470062,0.061226800084114075,0.017606226727366447,-0.07746285945177078,-0.03595495596528053,-0.020234478637576103,0.04761219769716263,0.0013487132964655757,-0.09971863776445389,-0.1273631751537323,0.005078968126326799,-0.046655621379613876,-0.08740832656621933,0.014065910130739212,0.03853587061166763,0.07330459356307983,0.05499112606048584,-0.13711996376514435,0.16720648109912872,0.008876590989530087,0.03661409392952919,0.11243648082017899,-0.048456527292728424,0.17753775417804718,-0.012232610955834389,0.1327461302280426,0.07800216227769852,0.1606960892677307,-0.009970759972929955,-0.1282731592655182,-0.019109390676021576,-0.2182522714138031,-0.15654508769512177,0.04792113974690437,0.09725181013345718,-0.06129712983965874,0.004026548936963081,0.0820244699716568,0.04683901369571686,-0.04238351061940193,-0.02892998419702053,-0.03176514804363251,-0.04655066505074501,0.14713004231452942,-0.028050338849425316,-0.08130993694067001,-0.05837897211313248,0.01496072206646204,-0.15073716640472412,-0.024634215980768204,-0.03141329810023308,-0.10518238693475723,-0.1093323603272438,0.048732154071331024,0.08278913795948029,-0.06541232019662857,0.06995406001806259,-0.17346733808517456,0.04984777793288231,-0.02811177261173725,0.1496979296207428,-0.0073593994602561,-0.08923393487930298,0.03356825187802315,0.10399460047483444,-0.06169937923550606,0.06901539862155914
images/PRE_F240476_23_21_R.jpg,-0.015344683080911636,-0.022121084854006767,-0.0319814570248127,0.08260752260684967,-0.032361600548028946,0.1359773874282837,-0.015576798468828201,0.05869196355342865,-0.1221742182970047,0.2146548628807068,0.10760436207056046,0.14567607641220093,-0.007198508828878403,-0.048397477716207504,0.00046703332918696105,0.03087085857987404,-0.06056743860244751,0.13225306570529938,0.06679438799619675,0.06432072818279266,0.038331538438797,0.20867939293384552,0.10189831256866455,0.08464427292346954,-0.014610243029892445,-0.004980933386832476,0.05157101899385452,-0.05394396558403969,0.10921907424926758,0.07809402048587799,-0.044809259474277496,0.1625746190547943,0.011093550361692905,0.042293403297662735,0.12422433495521545,-0.04672319442033768,0.049993954598903656,-0.04414945840835571,0.004464280791580677,0.04778483510017395,0.06856947392225266,0.013331587426364422,0.12053244560956955,-0.21362052857875824,-0.06213563308119774,-0.009066729806363583,0.13193738460540771,-0.007732985075563192,-0.042071182280778885,-0.12954701483249664,0.07981378585100174,-0.06442650407552719,0.0712100937962532,-0.17215470969676971,-0.18732517957687378,-0.018406370654702187,0.006716536823660135,-0.06920408457517624,0.011207101866602898,0.0548994317650795,0.06525981426239014,0.05208457261323929,-0.057571135461330414,0.058838311582803726,-0.034271176904439926,-0.0025678023230284452,0.04653187841176987,0.10754465311765671,0.1390901803970337,-0.1390911042690277,-0.0886802077293396,-0.08517421782016754,-0.08138322830200195,-0.10054555535316467,0.07287529855966568,-0.09508930891752243,0.04850813001394272,0.02053031325340271,-0.1145653948187828,0.1491381824016571,0.11995653063058853,-0.02218315750360489,0.057527679949998856,-0.08468696475028992,-0.1738845556974411,-0.016684699803590775,0.14764000475406647,0.033870913088321686,0.06971276551485062,0.005732269026339054,-0.017811359837651253,0.009760765358805656,-0.05056605860590935,-0.0017206263728439808,0.07525348663330078,-0.08994638919830322,0.020255036652088165,0.09020838141441345,0.03616048023104668,-0.11544543504714966,-0.01689446158707142,-0.07962100207805634,-0.08586281538009644,-0.009426629170775414,0.16951262950897217,-0.11020027846097946,-0.13374777138233185,-0.021483594551682472,-0.021456608548760414,0.14042316377162933,-0.07988324016332626,-0.0011866181157529354,0.05526800453662872,0.026293136179447174,0.16649845242500305,0.062318846583366394,-0.029958391562104225,0.011977773159742355,-0.043246667832136154,0.07108842581510544,0.03314370661973953,-0.11802397668361664,0.025543756783008575,0.03060844913125038,0.03805718198418617,0.24989385902881622,-0.06597671657800674,0.05622662976384163
images/PRE_F240477_23_21_L.jpg,-0.13116955757141113,0.058460213243961334,-0.08328995108604431,-0.04959902539849281,0.021362463012337685,0.06095210835337639,0.008067507296800613,0.13306164741516113,0.01188062597066164,0.02404160052537918,0.09704558551311493,0.03044172003865242,0.05136764422059059,-0.11291250586509705,0.11568821966648102,0.03273177146911621,-0.12306930124759674,0.011457150802016258,0.07076431065797806,0.15628516674041748,0.07315712422132492,0.08535094559192657,0.06835392862558365,0.12837845087051392,-0.20342287421226501,-0.01105839665979147,0.15241551399230957,-0.07843691855669022,0.14471876621246338,-0.10865946114063263,0.014123210683465004,0.07791545242071152,0.03352124243974686,0.0012217266485095024,0.11304672062397003,0.12010801583528519,-0.0730133205652237,0.023030772805213928,0.08697333186864853,0.05076942965388298,-0.06352757662534714,0.04343117028474808,0.03514644876122475,-0.06540502607822418,-0.059829890727996826,0.007156360428780317,0.14896990358829498,-0.0829491913318634,-0.11813051253557205,-0.1773352175951004,0.0638011172413826,-0.026525801047682762,0.015178800560534,-0.04087198153138161,0.07180928438901901,-0.061292167752981186,-0.04155241325497627,-0.05073510855436325,-0.070660799741745,0.06831962615251541,-0.0885050892829895,0.10104227811098099,-0.1531492918729782,0.04400913417339325,-0.14745314419269562,0.000578494684305042,-0.011708010919392109,0.01795676350593567,0.16303607821464539,-0.04809321463108063,-0.0959918275475502,-0.164093017578125,-0.10562276840209961,-0.0863441452383995,-0.005224470980465412,-0.0017833438469097018,0.03838808462023735,0.13201521337032318,-0.06292203813791275,0.35453736782073975,0.0882154107093811,0.022889619693160057,0.03571944311261177,-0.10334845632314682,-0.10986723750829697,0.02221939153969288,0.055667199194431305,-0.036922745406627655,-0.035032257437705994,0.05731979012489319,-0.05077278986573219,0.014609974808990955,-0.10090724378824234,0.07256970554590225,0.07293938100337982,0.015966899693012238,-0.09607762098312378,-0.02125435322523117,-0.027475832030177116,0.009366941638290882,-0.06636777520179749,-0.11308708041906357,-0.1809958666563034,0.02349872887134552,0.018231641501188278,0.03665681183338165,-0.09674239158630371,0.03740420937538147,-0.04549851268529892,0.08218453824520111,0.015972299501299858,-0.06883827596902847,0.07783177495002747,0.0674593523144722,0.1377304047346115,0.01395884808152914,0.07191367447376251,-0.08174094557762146,0.008369307965040207,-0.013182117603719234,0.01745244301855564,0.05628903955221176,0.07068607211112976,-0.025915807113051414,0.021771972998976707,0.2070522904396057,-0.10063692182302475,0.006704809609800577
images/PRE_F240478_23_21_R.jpg,0.07477563619613647,-0.0906793549656868,-0.10808852314949036,-0.03807329013943672,0.02955595776438713,-0.016576236113905907,0.07005820423364639,0.10727664828300476,-0.07695598155260086,0.07387042790651321,0.09479615837335587,-0.053031448274850845,0.013351526111364365,-0.06577321141958237,0.08494526892900467,0.02827104926109314,0.08074415475130081,0.06412950903177261,-0.07813281565904617,-0.0445057637989521,0.10083362460136414,0.10961876064538956,0.09134216606616974,0.10902159661054611,-0.01199377328157425,0.04619906470179558,0.025885215029120445,0.03786158561706543,0.03153938427567482,0.04051624611020088,0.0017761465860530734,0.07468368858098984,0.016946787014603615,-0.07853259146213531,0.14203044772148132,-0.1661948561668396,0.053896188735961914,-0.09660328179597855,-0.013352538459002972,0.0936926081776619,0.11970806121826172,0.06834685057401657,-0.09517960250377655,0.007687433157116175,-0.07200632244348526,0.05626719444990158,0.15134406089782715,-0.0396798700094223,0.014882059767842293,-0.13058070838451385,0.2002056986093521,-0.023029683157801628,-0.07920196652412415,-0.1480996310710907,-0.0649782195687294,0.0632694736123085,-0.0010141672100871801,0.008577429689466953,-0.03602311760187149,-0.08264981955289841,0.08764361590147018,0.15243734419345856,0.05163310095667839,0.013826392590999603,-0.034996673464775085,-0.02074814960360527,-0.04565875604748726,0.22364632785320282,-0.0814804658293724,-0.03884993866086006,-0.09775081276893616,0.007831376045942307,-0.06370550394058228,-0.2078123241662979,0.053721826523542404,0.018289638683199883,0.09791171550750732,0.08247959613800049,-0.07107909023761749,0.29796597361564636,-0.10502268373966217,0.020890993997454643,0.0936739444732666,-0.11194822937250137,0.03625936433672905,0.0733175277709961,0.06239742040634155,-0.04976695775985718,0.06257025897502899,-0.09669860452413559,-0.02353476919233799,0.029308686032891273,-0.0004272764490451664,-0.015068670734763145,0.12142474949359894,-0.08986666053533554,-0.1504231095314026,-0.11619283258914948,0.06362785398960114,0.08935590833425522,-0.05607948824763298,-0.14337000250816345,-0.10481531918048859,0.06686976552009583,0.07561464607715607,0.03651632368564606,-0.14373593032360077,0.08065134286880493,-0.03804663196206093,0.12635812163352966,0.0022153067402541637,0.044906239956617355,-0.017746690660715103,0.04696367308497429,0.0549250990152359,0.07567247003316879,-0.07863759994506836,-0.16782881319522858,-0.17445732653141022,-0.005105250049382448,-0.06022445484995842,-0.019969074055552483,0.03248424828052521,-0.051250770688056946,-0.005327274091541767,0.10653925687074661,-0.14644066989421844,-0.005018183961510658
images/PRE_F240479_23_21_L.jpg,-0.024623945355415344,0.023936083540320396,-0.07646005600690842,0.047057971358299255,-0.0030858428217470646,0.06596509367227554,-0.05246599391102791,0.21956607699394226,-0.05316054821014404,0.032302603125572205,0.018683936446905136,0.12814797461032867,-0.0374748669564724,-0.10581723600625992,0.04879283159971237,0.08322828263044357,-0.126636803150177,-0.04294900968670845,-0.1518113613128662,-0.033660151064395905,0.02756338007748127,0.17786768078804016,0.03443140164017677,0.06386591494083405,0.09248536080121994,-0.011099344119429588,0.11606450378894806,0.12981264293193817,0.14963442087173462,0.012880455702543259,0.0701349750161171,0.17127864062786102,-0.17276066541671753,0.032716140151023865,0.2509690523147583,-0.009857593104243279,0.08081662654876709,-0.05966675281524658,-0.03251434117555618,0.005352914799004793,0.004963148385286331,0.046328265219926834,-0.012965559028089046,-0.022950327023863792,-0.03270203620195389,-0.021014081314206123,0.05727407708764076,0.009287954308092594,0.11009935289621353,-0.11502733081579208,0.09618304669857025,0.09039179235696793,0.05824977904558182,-0.06417684257030487,-0.014930233359336853,0.005107225384563208,-0.032083380967378616,-0.07527823001146317,-0.06537727266550064,0.02679101563990116,-0.09497775137424469,0.08563771843910217,0.001013341243378818,-0.08356335014104843,-0.1229012981057167,-0.04289048910140991,0.00017186808690894395,0.06224122270941734,0.013881230726838112,-0.21890099346637726,-0.08636033535003662,0.13990439474582672,-0.00773978466168046,-0.12710274755954742,0.07089971750974655,-0.03127767890691757,0.04120701551437378,0.14500997960567474,-0.1673092097043991,0.04967663064599037,0.10368897765874863,0.01617836207151413,0.07106876373291016,0.006100512109696865,0.06324753910303116,-0.055198777467012405,0.07541082054376602,-0.03416956588625908,0.046907711774110794,-0.08953674137592316,-0.028265055269002914,0.0680103600025177,-0.17741583287715912,-0.1482848972082138,0.059976089745759964,0.05984107032418251,0.008554869331419468,0.030088739469647408,0.11889823526144028,-0.07049520313739777,-0.04536876827478409,-0.008939424529671669,-0.13946481049060822,-0.008521131239831448,0.06504349410533905,-0.1261933147907257,-0.057357996702194214,-0.09523039311170578,0.00839602667838335,-0.08759947121143341,-0.11161873489618301,-0.09955223649740219,-0.2209055870771408,0.020678840577602386,0.11835174262523651,0.08604593575000763,0.012687607668340206,0.02952646277844906,-0.06143028289079666,0.017033394426107407,0.043779581785202026,0.16128915548324585,-0.01535476092249155,-0.09588875621557236,0.13720941543579102,0.05456726253032684,-0.033381570130586624,-0.02883158065378666
images/PRE_F240480_23_21_R.jpg,0.12126631289720535,-0.004536454565823078,-0.04609999805688858,0.016832716763019562,-0.06986769288778305,-0.007450707722455263,-0.010522877797484398,0.26906663179397583,-0.005385908763855696,0.004338078200817108,0.05759763345122337,0.04294827952980995,0.029303960502147675,-0.008113809861242771,0.055248551070690155,-0.022499684244394302,-0.049424901604652405,0.022073209285736084,-0.1141715869307518,0.051441919058561325,0.055534981191158295,0.09730986505746841,0.020308787003159523,0.11587551236152649,-0.00373871810734272,0.00859245378524065,0.16156432032585144,0.02820546366274357,0.17106175422668457,0.07178762555122375,0.024542851373553276,-0.005832168739289045,-0.19304725527763367,0.10014621913433075,0.1286807656288147,-0.0707559585571289,0.12432264536619186,-0.10198026150465012,0.056362275034189224,-0.020698662847280502,-0.015834283083677292,0.021669898182153702,-0.09346014261245728,-0.06609714031219482,-0.04678870365023613,0.08083552122116089,0.15528759360313416,-0.08831599354743958,0.08089049905538559,-0.06443528085947037,0.1538935750722885,0.19106926023960114,0.01614602655172348,0.007965988479554653,-0.12237656861543655,0.11585989594459534,-0.02299930341541767,-0.14164148271083832,-0.05133247375488281,0.09034951776266098,0.02200278453528881,0.15023379027843475,-0.08113830536603928,0.05913348123431206,-0.02490178495645523,0.032074492424726486,0.0020990760531276464,-0.0013400377938523889,0.02986828051507473,-0.055812545120716095,-0.0051038204692304134,-0.05507262051105499,-0.022537702694535255,-0.13514728844165802,-0.001578227849677205,0.19050274789333344,0.08603950589895248,0.14488157629966736,-0.17273516952991486,0.10557710379362106,0.06259523332118988,0.03097975067794323,0.09941430389881134,0.008738800883293152,-0.052579402923583984,-0.05081019550561905,0.05111007019877434,-0.03334733471274376,0.015356111340224743,-0.11800606548786163,-0.07959184795618057,-0.016203105449676514,-0.19503632187843323,-0.11222370713949203,0.06688521802425385,0.008271025493741035,-0.12465263903141022,0.10156374424695969,-0.038142088800668716,-0.007769196759909391,0.006215747911483049,0.020631961524486542,-0.03583873435854912,-0.02768653631210327,0.07895417511463165,-0.05643570423126221,-0.09773614257574081,0.035189189016819,-0.061186060309410095,-0.11062178760766983,-0.10528615117073059,-0.028326284140348434,-0.09235720336437225,-0.12222153693437576,0.20359331369400024,0.03145068138837814,-0.19707991182804108,0.004055690485984087,-0.047302648425102234,-0.041446536779403687,-0.004779717419296503,0.17549583315849304,0.0886140912771225,-0.020807763561606407,0.047393862158060074,0.03971925005316734,-0.008776558563113213,-0.09523990005254745
images/PRE_F240481_23_21_L.jpg,0.04010691121220589,0.04037215933203697,-0.022937679663300514,-0.046112723648548126,-0.11263246089220047,-0.05449473112821579,0.04031660780310631,0.11889070272445679,-0.005549457855522633,-0.010747265070676804,0.12479425221681595,-0.0011832296149805188,-0.011677191592752934,-0.05686168372631073,0.12152966111898422,0.09394527971744537,-0.03911357745528221,-0.013809836469590664,-0.07603371143341064,-0.1213761642575264,0.052847106009721756,0.0880805104970932,0.02309940569102764,0.15447667241096497,0.06535279005765915,0.007095474749803543,0.0812334418296814,0.14417020976543427,0.060630809515714645,0.11864089965820312,0.10560901463031769,-0.054857153445482254,-0.0725787952542305,0.1068911999464035,0.15954655408859253,-0.02175176702439785,0.011946259997785091,-0.1555260866880417,0.005630282685160637,-0.09820103645324707,0.04791155457496643,-0.06308700144290924,0.05361023172736168,-0.051765259355306625,-0.024397652596235275,0.08162128180265427,0.0017241894965991378,0.006509819533675909,0.05863167345523834,-0.060694366693496704,0.24254481494426727,-0.06270074844360352,0.07221535593271255,-0.03236963599920273,-0.03470544144511223,0.06309281289577484,-0.07124625891447067,-0.07174243777990341,-0.042251139879226685,-0.028009720146656036,0.05450667813420296,0.04146990925073624,0.0748489573597908,0.04213014617562294,-0.12164510786533356,0.08213558048009872,0.07781356573104858,0.14513370394706726,-0.13935774564743042,-0.14958158135414124,-0.05581347644329071,-0.04956700652837753,-0.08935781568288803,-0.04816784709692001,-0.013649405911564827,-0.042718302458524704,0.07581111043691635,0.0974573940038681,-0.12972472608089447,-0.04786019027233124,0.006400605663657188,0.2667487859725952,0.013004397973418236,0.03335828334093094,-0.032924700528383255,0.04922342672944069,0.052106186747550964,-0.07571160048246384,0.10327780246734619,-0.2033524066209793,0.0004188797902315855,0.028432803228497505,-0.04060406982898712,0.0410861074924469,0.16613566875457764,0.08129508793354034,-0.14993299543857574,-0.07849649339914322,0.020602121949195862,-0.00030581996543332934,-0.12472587078809738,-0.01988223008811474,-0.07420006394386292,-0.07214660942554474,0.17284633219242096,-0.11133216321468353,0.014497905969619751,0.19064725935459137,0.09869354963302612,0.07467801868915558,-0.11738573759794235,0.04463859274983406,-0.06384910643100739,-0.0021749287843704224,0.17091090977191925,0.1268603652715683,-0.09057972580194473,0.05397931858897209,-0.11734536290168762,-0.0731293186545372,-0.003927563317120075,-0.003204345703125,0.04673444479703903,0.11274710297584534,0.08661479502916336,0.09001082181930542,-0.031145356595516205,-0.05456240475177765
images/PRE_F240482_23_21_L.jpg,-0.01812754012644291,0.0931444764137268,-0.01755513995885849,-0.028443722054362297,-0.15320803225040436,0.007838312536478043,-0.04568145051598549,0.2292521893978119,-0.0109760332852602,-0.13579025864601135,0.003528342815116048,0.060612600296735764,-0.020674915984272957,-0.10118138045072556,0.15046319365501404,0.025834131985902786,-0.0305962972342968,-0.026547236368060112,-0.11884071677923203,-0.04287567362189293,0.0898904949426651,0.032826025038957596,0.06509769707918167,0.20267155766487122,-0.06254386156797409,0.03786351904273033,0.13550621271133423,-0.014853917993605137,0.13256582617759705,0.038100000470876694,0.13584549725055695,0.0900915116071701,-0.12987849116325378,-0.029039639979600906,0.18466512858867645,0.11086003482341766,-0.03925587236881256,0.0072539872489869595,0.05418386682868004,-0.09521573781967163,0.030427338555455208,-0.02382773719727993,-0.11582394689321518,-0.027484742924571037,-0.08399861305952072,-0.02248450741171837,0.09150375425815582,-0.0482025071978569,0.055368419736623764,-0.14266547560691833,0.1834336221218109,0.06839451193809509,0.14431051909923553,-0.00426093302667141,-0.010403063148260117,0.004663247149437666,0.0036004441790282726,-0.04167988523840904,0.03829757869243622,-0.043802034109830856,-0.07859069854021072,0.08855277299880981,-0.10751258581876755,0.126204252243042,-0.18751010298728943,0.04895297810435295,-0.05910072475671768,0.11991459876298904,0.010292207822203636,-0.08429884165525436,-0.02046428807079792,-0.03147115558385849,-0.03740909323096275,-0.1583057940006256,-0.015822995454072952,0.07903072237968445,0.036280129104852676,0.22290359437465668,-0.17896053194999695,0.18011541664600372,-0.06739767640829086,0.11201043426990509,0.07440663874149323,-0.048262350261211395,-0.07717205584049225,0.03615933656692505,-0.05324263498187065,-0.013547169044613838,-0.024983175098896027,-0.11438359320163727,0.01865497976541519,0.053946949541568756,-0.1666407436132431,-0.021259574219584465,0.04449232667684555,-0.033816806972026825,-0.1267227828502655,-0.046835847198963165,0.012954683974385262,0.15843597054481506,-0.05623795464634895,-0.06012368202209473,-0.08529505878686905,-0.0834529921412468,-0.016444114968180656,0.0035446141846477985,0.05468909069895744,0.07641898095607758,-0.04566758871078491,-0.008340035565197468,0.01633364148437977,-0.07577155530452728,0.022915799170732498,-0.04734701290726662,0.17214368283748627,-0.019688600674271584,-0.006720384117215872,-0.06295758485794067,-0.01785946451127529,-0.0018228194676339626,0.03619031608104706,0.13899941742420197,0.009161252528429031,-0.030039845034480095,0.07371049374341965,0.0798855721950531,-0.0748809352517128,-0.1375114768743515
images/PRE_F240483_23_21_R.jpg,0.0022468091920018196,-0.05442603677511215,-0.22212393581867218,-0.09688267856836319,-0.12847882509231567,0.07189463078975677,0.09292725473642349,0.14794006943702698,-0.04092094674706459,-0.03034677356481552,-0.0981704518198967,0.03101726435124874,0.1428503394126892,-0.017492959275841713,0.06295850872993469,-0.009783937595784664,-0.0036048749461770058,0.12461668252944946,-0.2353316992521286,0.03947528824210167,0.06393655389547348,0.11706016957759857,-0.08494668453931808,0.00238930550403893,0.019937794655561447,-0.027358289808034897,-0.1423223316669464,-0.038280025124549866,0.1045730710029602,0.03890203684568405,0.08306968212127686,0.04078079015016556,-0.02752014249563217,0.046729959547519684,0.14530813694000244,0.008668351918458939,-0.062263794243335724,0.06995595991611481,-0.042838241904973984,0.049098290503025055,-0.04853492230176926,0.017102690413594246,-0.011999890208244324,0.05728195607662201,-0.07168972492218018,0.18050070106983185,0.2035253494977951,-0.052055906504392624,0.14682939648628235,0.012817046605050564,-0.020752714946866035,-0.011197115294635296,0.04703647643327713,0.009225944057106972,0.13641560077667236,0.03266718611121178,0.11993622034788132,-0.09262406080961227,0.0074854642152786255,-0.011602542363107204,0.06745617091655731,0.12978360056877136,-0.052761197090148926,0.10368064045906067,-0.09585067629814148,0.040711093693971634,-0.05097702518105507,0.086912602186203,0.05383707955479622,-0.21238195896148682,-0.03728275001049042,-0.10674940794706345,-0.04057031497359276,-0.15102581679821014,-0.007828488014638424,0.13229157030582428,-0.08216363936662674,0.2663998603820801,-0.1231251209974289,0.0010827559744939208,0.016518529504537582,0.04150058701634407,0.1662231683731079,-0.09798227250576019,-0.08806075155735016,0.03160761669278145,0.06874246150255203,-0.04952956736087799,0.03325081616640091,-0.09207221865653992,0.11607778817415237,0.03534720465540886,-0.08776428550481796,0.05568549782037735,0.07755618542432785,-0.08286337554454803,-0.003045909572392702,-0.07390478253364563,-0.011511506512761116,0.09470073878765106,-0.033528175204992294,-0.0037899974267929792,-0.07236254215240479,0.06808100640773773,-0.0030111621599644423,-0.08424007147550583,-0.008641764521598816,0.13825099170207977,-0.1033640131354332,0.07394126802682877,-0.07949110120534897,0.03048357553780079,-0.12925155460834503,-0.06563027203083038,0.11820822954177856,0.09046761691570282,0.016855785623192787,-0.014631104655563831,-0.07115287333726883,-0.13238009810447693,0.08262573182582855,0.008489464409649372,0.03703485056757927,0.01850014179944992,0.012662862427532673,0.0028981135692447424,-0.0857359915971756,-0.04317168891429901
images/PRE_F240484_23_21_L.jpg,-0.10874976217746735,-0.0011469307355582714,-0.005911471322178841,-0.012744251638650894,0.04887332022190094,0.21251928806304932,0.12982143461704254,0.11651083081960678,0.04702456295490265,0.08015348017215729,-0.03349355235695839,-0.07291548699140549,0.08683279156684875,-0.1603747010231018,-0.031086968258023262,0.04597846046090126,-0.06884188205003738,0.17832458019256592,-0.03655198588967323,0.12655815482139587,0.018802829086780548,0.07779444009065628,0.0722336694598198,0.0639117881655693,-0.056603431701660156,-0.042330335825681686,-0.08732455968856812,-0.06041710823774338,-0.06039368733763695,-0.08318331837654114,0.18640166521072388,0.03267436847090721,0.0865868553519249,-0.014867855235934258,0.1734129935503006,0.15582112967967987,-0.01345804426819086,0.04900965094566345,-0.01317687053233385,-0.010859263129532337,0.04960803687572479,-0.002733918372541666,0.12199614197015762,-0.03045249916613102,-0.15047195553779602,-0.07712089270353317,0.1529681235551834,-0.025209221988916397,0.007105108816176653,-0.10200194269418716,0.07404865324497223,0.01938720792531967,0.14273084700107574,-0.013653037138283253,0.0590224415063858,0.07589699327945709,-0.06369491666555405,-0.07677005976438522,-0.10836628824472427,-0.11576797813177109,-0.0006085456698201597,-0.04792820289731026,0.05539903789758682,-0.012031621299684048,-0.04984281584620476,-0.010242131538689137,-0.15206675231456757,0.024256393313407898,0.06990741193294525,-0.08288609981536865,-0.05563563480973244,-0.06283946335315704,-0.19219253957271576,-0.06028401479125023,-0.07487333565950394,0.016876716166734695,0.033241093158721924,0.07702797651290894,-0.036915287375450134,0.2584254741668701,0.062140852212905884,0.13069875538349152,0.09970095008611679,-0.12030641734600067,-0.03500941023230553,-0.04399570822715759,0.07343031466007233,0.08423111587762833,-0.013448560610413551,-0.07469413429498672,-0.017775142565369606,-0.023168647661805153,-0.04795423895120621,-0.05628679692745209,-0.05005045235157013,-0.18116821348667145,-0.14004625380039215,-0.07931583374738693,0.03035104088485241,0.027167275547981262,-0.08061309158802032,0.02941996604204178,-0.14770002663135529,-0.058459967374801636,0.01794189214706421,-0.04799548164010048,-0.022941796109080315,0.09068036824464798,-0.08072664588689804,0.03885514661669731,0.10525156557559967,0.025400923565030098,0.11286132037639618,-0.010730220004916191,-0.08220012485980988,0.06680111587047577,0.11539965867996216,-0.04994196072220802,-0.04791366681456566,0.04574453458189964,0.11483968049287796,0.015149476937949657,-0.02500844933092594,0.09787954390048981,-0.13424012064933777,0.18847183883190155,-0.010286951437592506,0.12555155158042908
