,0,1,2,3,4,5,6,7,8,9,10,11,12,13,14,15,16,17,18,19,20,21,22,23,24,25,26,27,28,29,30,31,32,33,34,35,36,37,38,39,40,41,42,43,44,45,46,47,48,49,50,51,52,53,54,55,56,57,58,59,60,61,62,63,64,65,66,67,68,69,70,71,72,73,74,75,76,77,78,79,80,81,82,83,84,85,86,87,88,89,90,91,92,93,94,95,96,97,98,99,100,101,102,103,104,105,106,107,108,109,110,111,112,113,114,115,116,117,118,119,120,121,122,123,124,125,126,127
images/POST_F240445_23_21_R.jpg,0.05480966344475746,0.03508942574262619,-0.019360048696398735,-0.12588033080101013,-0.059789009392261505,0.13701678812503815,-0.06917938590049744,0.04333952069282532,0.068533755838871,0.023977231234312057,0.07979267090559006,0.17377160489559174,0.07734537124633789,-0.0797533467411995,-0.03824297711253166,-0.08154325187206268,0.10448310524225235,0.20503775775432587,0.17137062549591064,-0.0046724290587008,0.04828299209475517,0.004888766910880804,0.047970205545425415,8.678917947690934e-05,-0.034144192934036255,0.030177632346749306,-0.12078022211790085,-0.08931777626276016,-0.09484356641769409,-0.06093909963965416,-0.004272338468581438,-0.02890981175005436,0.021882852539420128,-0.07242604345083237,0.103990338742733,-0.028788279742002487,0.09871181845664978,-0.020101072266697884,-0.03835739940404892,-0.036526381969451904,-0.011765512637794018,0.03591691330075264,0.1299089640378952,0.10238756239414215,-0.09240720421075821,-0.025616997852921486,4.871800047112629e-05,-0.17261730134487152,0.13435854017734528,0.05818736180663109,0.01622013933956623,-0.07329792529344559,0.04875829070806503,-0.17878012359142303,0.15878352522850037,0.01625044457614422,-0.031236523762345314,-0.10354141891002655,0.013899723999202251,-0.09332345426082611,0.05307012051343918,0.09878651052713394,0.08305300772190094,-0.07290062308311462,0.05417221412062645,0.1044071614742279,-0.018440036103129387,0.05319751799106598,-0.061324216425418854,0.11591263115406036,0.08913848549127579,0.09760547429323196,0.08416363596916199,-0.1382383108139038,0.10307040065526962,-0.04612822085618973,-0.10484500229358673,-0.0759393647313118,-0.037888914346694946,-0.011055557988584042,0.039514265954494476,-0.022248202934861183,-0.1061469092965126,0.006156643852591515,0.07566434890031815,0.06424690783023834,-0.2520609200000763,0.05213189497590065,0.08714045584201813,0.06304764002561569,0.06437988579273224,0.04389767348766327,-0.161956325173378,0.027036888524889946,-0.0331791453063488,0.04890407994389534,0.07571560144424438,0.06631845980882645,-0.05392029881477356,-0.1299612671136856,0.18504631519317627,-0.08887729048728943,0.08591105043888092,-0.1382942795753479,-0.06743476539850235,0.024700073525309563,0.06062808260321617,-0.022987183183431625,0.05279464274644852,-0.00615875655785203,-0.0399402417242527,0.14961622655391693,0.03623954579234123,0.05318794399499893,0.025171319022774696,-0.13987888395786285,-0.05499778315424919,-0.0764521136879921,0.22524186968803406,0.043634697794914246,-0.05635632202029228,-0.13162142038345337,0.08722799271345139,0.021319959312677383,0.056764569133520126,-0.13642962276935577,0.10865963995456696,-0.05798440799117088
images/POST_F240447_23_21_R.jpg,-0.004496265668421984,0.018105685710906982,0.010362166911363602,-0.046139802783727646,-0.041008029133081436,0.17411351203918457,-0.04431714490056038,-0.20052194595336914,0.007517777383327484,-0.08360549062490463,-0.00917249359190464,0.12845832109451294,0.1922217756509781,-0.1184777244925499,0.12304969131946564,-0.08017314225435257,0.09245441854000092,-0.03619786351919174,-0.009769010357558727,0.01717417687177658,0.09349344670772552,-0.15578226745128632,0.05695026367902756,-0.034453608095645905,0.005897875875234604,-0.10254022479057312,-0.006813868880271912,0.09943416714668274,-0.03242048621177673,-0.03775516152381897,-0.014145120978355408,-0.1142699271440506,-0.025244243443012238,0.07109537720680237,-0.02680693194270134,-0.15506701171398163,-0.036211274564266205,-0.16896051168441772,-0.006554913707077503,-0.1324978619813919,0.0834803506731987,-0.00896984338760376,0.07877151668071747,0.013687433674931526,0.00018617940077092499,-0.11826766282320023,0.035833075642585754,-0.04836902767419815,0.006846118252724409,-0.05547970533370972,0.022726455703377724,-0.06570248305797577,-0.07187387347221375,-0.09158094227313995,0.07098010927438736,0.05825928598642349,0.10351264476776123,-0.11808951944112778,-0.07036980986595154,-0.05384854972362518,0.10149812698364258,0.02060537412762642,0.21108391880989075,0.11102486401796341,-0.15420663356781006,0.050729211419820786,-0.05549614131450653,-0.10482173413038254,-0.09009823203086853,-0.0698685571551323,0.03465498983860016,-0.0014551515923812985,0.05769830197095871,-0.06851936131715775,0.1381361484527588,0.07515763491392136,0.016526034101843834,0.024956651031970978,0.05668802931904793,-0.05673195421695709,-0.07802175730466843,0.14376714825630188,-0.09523149579763412,0.03164069354534149,0.15935152769088745,-0.041852280497550964,0.06926456093788147,-0.06312265992164612,-0.03642590716481209,-0.040361128747463226,-0.030887778848409653,-0.0597190335392952,0.10557068884372711,0.10758617520332336,0.13031497597694397,0.010644527152180672,0.0012198254698887467,0.059698089957237244,-0.1706344187259674,-0.08799292892217636,0.18101802468299866,-0.04080983251333237,0.12142717093229294,0.12783083319664001,0.037274595350027084,0.03848794847726822,-0.11706461012363434,-0.05891168862581253,-0.0815480574965477,-0.01752479188144207,-0.056703489273786545,0.148706316947937,-0.004377079661935568,-0.034667011350393295,-0.09883212298154831,0.0020141692366451025,-0.11830183863639832,0.0897204726934433,-0.04588985815644264,0.007876002229750156,0.0010157114593312144,0.03491923585534096,0.29326608777046204,0.057477690279483795,0.03960273787379265,-0.04717113450169563,0.03055761381983757,0.02522389404475689
images/POST_F240448_23_21_L.jpg,0.024248721078038216,0.0011431416496634483,-0.012640271335840225,-0.20544306933879852,-0.05487439036369324,0.04910782724618912,-0.09511280804872513,-0.027382507920265198,0.02098795212805271,-0.05743180587887764,-0.018861891701817513,0.24912896752357483,0.19260187447071075,-0.06734049320220947,0.1394861340522766,0.028452329337596893,-0.023960791528224945,0.02701456844806671,0.08299247175455093,0.030526481568813324,0.0933205783367157,-0.1575743705034256,0.1958363950252533,0.040863003581762314,0.011476714164018631,-0.10542000085115433,-0.062172725796699524,0.08643124252557755,-0.10896053910255432,-0.003863114630803466,-0.007174531929194927,-0.14008024334907532,0.06149878352880478,0.15844324231147766,-0.06600626558065414,-0.14489008486270905,-0.02571134641766548,-0.01950164884328842,0.09768091887235641,-0.026452982798218727,-0.09130508452653885,0.1053638905286789,0.06888053566217422,-0.03882821276783943,-0.09959840029478073,0.013081394135951996,-0.08477890491485596,-0.061417270451784134,-0.00808204896748066,0.06268110871315002,-0.052802249789237976,0.021351540461182594,-0.024281645193696022,-0.11910371482372284,0.2008809745311737,0.05818944796919823,-0.07074594497680664,0.033496685326099396,0.006016461178660393,0.004684627987444401,0.20691074430942535,0.05168922618031502,0.08238925784826279,0.032898809760808945,-0.06280329078435898,-0.03128953278064728,-0.19191470742225647,-0.06565266102552414,-0.12477362900972366,-0.015178019180893898,0.05237285792827606,0.09389233589172363,0.08299456536769867,-0.0363846980035305,0.08916939795017242,0.002103749429807067,-0.07452398538589478,-0.018090883269906044,0.030062776058912277,-0.10068777203559875,-0.10117207467556,0.05871240049600601,-0.048846691846847534,0.14696478843688965,0.10680690407752991,-0.05237874388694763,0.043592508882284164,-0.08853857219219208,-0.08434991538524628,-0.07983032613992691,-0.027092553675174713,-0.06796061247587204,-0.026423867791891098,0.08072728663682938,0.13616152107715607,-0.008302027359604836,-0.08390478789806366,0.05131613463163376,-0.15447917580604553,-0.15839415788650513,0.18844404816627502,-0.05569503828883171,0.05889236181974411,0.07038191705942154,-0.04061593860387802,-0.04275460168719292,-0.07327565550804138,-0.08927327394485474,-0.13351555168628693,-0.04042994976043701,0.11811411380767822,0.016572047024965286,0.009806378744542599,0.0005308524705469608,0.029728487133979797,0.09260476380586624,-0.029920808970928192,0.05062291398644447,-0.014669135212898254,0.044542718678712845,0.029849180951714516,0.044939592480659485,0.1225951611995697,-0.028780214488506317,-0.11980514973402023,-0.1315581500530243,-0.01906510256230831,-0.06697742640972137
images/POST_F240449_23_21_R.jpg,-0.1460465043783188,-0.12560586631298065,0.09898846596479416,-0.12380139529705048,-0.007858856581151485,-0.02357940748333931,-0.05537574738264084,0.21415968239307404,0.08282967656850815,-0.011206469498574734,0.07323624193668365,0.07628539204597473,0.22456984221935272,-0.1428178995847702,0.11034896969795227,-0.008094439283013344,0.009743575938045979,-0.03929408639669418,0.13254478573799133,0.05451402813196182,-0.11797165870666504,-0.06835617870092392,-0.06231416389346123,0.21205522119998932,-0.14155803620815277,0.01657729409635067,0.11540334671735764,0.06454984843730927,0.010936737060546875,-0.04386570677161217,-0.08983045071363449,-0.003057061228901148,0.02754116803407669,-0.12131296843290329,0.028221745043992996,-0.09026743471622467,0.061848387122154236,-0.026138657703995705,0.06087351217865944,0.05733802914619446,0.06988588720560074,-0.10525120794773102,0.002815971616655588,0.12547627091407776,-0.07283330708742142,0.006249449215829372,0.09376352280378342,-0.14299383759498596,0.03851425647735596,-0.053747888654470444,-0.0476849265396595,0.18026505410671234,0.02349209599196911,0.005872112233191729,-0.07868759334087372,-0.004414245951920748,0.028449788689613342,0.021882258355617523,-0.26680511236190796,0.12569820880889893,0.045918531715869904,0.02644721232354641,-0.08728533238172531,-0.03843653202056885,0.024083726108074188,0.06103134900331497,0.15228724479675293,-0.04654734954237938,0.07153008878231049,-0.07478506863117218,0.040172331035137177,0.049325693398714066,0.0159193966537714,0.11686863750219345,-0.02201109007000923,-0.007923169992864132,-0.1319987177848816,-0.07541989535093307,-0.008623912930488586,0.012492390349507332,-0.008865500800311565,-0.059889309108257294,0.09811095148324966,-0.0940839871764183,0.07286052405834198,-0.13271291553974152,0.03525127097964287,0.041247591376304626,-0.01949905790388584,0.04707127809524536,-0.15519453585147858,-0.08076640218496323,-0.11004429310560226,0.0386931337416172,0.013710126280784607,0.09919334948062897,-0.07638391852378845,0.10494136065244675,-0.09186213463544846,-0.10643766820430756,0.16172219812870026,-0.00842311605811119,0.04733267426490784,0.023517321795225143,-0.050629157572984695,0.15360666811466217,0.021609824150800705,-0.1306253969669342,0.09374217689037323,-0.02499416284263134,-0.02908949740231037,0.06818292289972305,0.08301650732755661,-0.20797497034072876,-0.07146348059177399,-0.025607245042920113,-0.022167980670928955,-0.06031354144215584,0.08852080255746841,-0.05429050698876381,-0.04621311277151108,-0.036284781992435455,-0.04708649218082428,0.08385835587978363,0.03953208774328232,0.05710697919130325,0.024980636313557625,0.028942866250872612
images/POST_F240450_23_21_R.jpg,-0.06546366959810257,-0.043116211891174316,0.041699185967445374,-0.12988173961639404,-0.05350867286324501,0.1649581640958786,-0.0057063112035393715,0.09177076816558838,0.08678953349590302,0.030330676585435867,-0.12781302630901337,0.09984643012285233,0.03759041801095009,0.03727693855762482,0.03453560918569565,-0.015810105949640274,-0.045203253626823425,0.11051031947135925,0.18634340167045593,-0.04491933435201645,-0.10070180892944336,-0.057034511119127274,-0.12751728296279907,-0.016419436782598495,-0.0484154112637043,0.08023335039615631,-0.036180559545755386,0.042633671313524246,-0.13711167871952057,0.006666922010481358,-0.04706369712948799,-0.07807832956314087,0.09615646302700043,-0.05033227801322937,0.03008507750928402,-0.12036900222301483,0.11675355583429337,-0.10964519530534744,0.030143627896904945,-0.08142408728599548,-0.03354925662279129,-0.049159031361341476,0.12897121906280518,0.10844463855028152,-0.015916503965854645,-0.07915417850017548,-0.09030807763338089,-0.10111833363771439,0.06836098432540894,-0.1338399052619934,0.13971398770809174,-0.02078053168952465,-0.05785409361124039,-0.1736118346452713,-0.004921821411699057,0.03490837663412094,0.05197823792695999,-0.01653098315000534,0.017075978219509125,0.07316010445356369,0.053383719176054,0.19976414740085602,0.06293442845344543,0.0974189043045044,0.02899198792874813,0.017261115834116936,-0.04010125622153282,-0.07781507819890976,0.12132219225168228,-0.01652616634964943,0.158575639128685,-0.11155254393815994,0.061592746526002884,-0.06884462386369705,0.13365374505519867,0.018533948808908463,-0.049359194934368134,-0.05491790547966957,0.12540194392204285,0.049117714166641235,0.10594553500413895,0.010920245200395584,-0.04486921802163124,-0.012221311219036579,-0.09723310172557831,-0.15228047966957092,-0.0053551578894257545,0.10550668835639954,-0.025637231767177582,0.08504417538642883,-0.12491251528263092,-0.09327385574579239,-0.17830495536327362,0.0072530657052993774,-0.12117773294448853,0.017454130575060844,-0.0487905889749527,-0.05281344801187515,-0.04582608491182327,0.1378372758626938,0.09388884156942368,-0.06877168267965317,0.006597831379622221,0.021237602457404137,-0.07894723117351532,-0.07248782366514206,-0.07177913188934326,-0.2490788698196411,-0.03856145218014717,0.019064605236053467,0.04797748476266861,-0.011846017092466354,-0.06489914655685425,0.04817793518304825,0.04417230933904648,-0.10442905128002167,0.03308095037937164,0.11084089428186417,0.11457694321870804,0.07020438462495804,0.0174326840788126,-0.06592562049627304,0.02565760165452957,0.2383258044719696,-0.04785015434026718,-0.0025450291577726603,0.17839516699314117,-0.006944659631699324
images/POST_F240453_23_21_R.jpg,0.18203017115592957,0.037670817226171494,0.034458257257938385,-0.18980620801448822,-0.01075327955186367,0.12234171479940414,-0.029652534052729607,-0.08827962726354599,-0.07130264490842819,0.05356769263744354,-0.08656162023544312,0.26589491963386536,0.0396558977663517,0.012894418090581894,0.050022028386592865,-0.030448950827121735,-0.0030922978185117245,0.07216489315032959,0.01287080068141222,0.021507758647203445,0.09682334214448929,-0.0793863981962204,0.0006731707253493369,-0.017347993329167366,0.08831100165843964,-0.06187870725989342,-0.12236511707305908,0.07444832473993301,-0.006038215011358261,-0.06988807767629623,-0.018776679411530495,-0.04561097174882889,-0.1413644552230835,-0.0023514165077358484,-0.026323257014155388,-0.1783430427312851,-0.06447865068912506,0.00926995649933815,-0.0593133307993412,0.0036431674379855394,0.0005445897695608437,0.10345122218132019,0.21314457058906555,0.00495958561077714,-0.08242609351873398,-0.19566568732261658,-0.07192988693714142,0.03677930310368538,0.06166984140872955,0.03599586710333824,-0.05309782922267914,0.031130366027355194,0.14448368549346924,-0.19858545064926147,0.228176549077034,-0.09490784257650375,0.07420382648706436,-0.005754453595727682,0.06679195910692215,-0.011870662681758404,0.06016749516129494,0.07437507063150406,0.09113006293773651,0.17616796493530273,-0.08302409946918488,0.15104371309280396,-0.03425716236233711,0.034711141139268875,-0.034372903406620026,0.02741900458931923,-0.033814702183008194,0.05454709753394127,0.09612983465194702,-0.0692683532834053,0.0602773055434227,-0.037910740822553635,-0.08925334364175797,-0.011700538918375969,0.028661247342824936,-0.08427315950393677,-0.05148107931017876,0.08258568495512009,-0.11278794705867767,0.01258440688252449,0.03911689296364784,0.037889111787080765,-0.10613395273685455,-0.0701700747013092,0.08518002927303314,0.04937288910150528,0.056390684098005295,-0.025064567103981972,0.01282407995313406,0.012518433853983879,0.21821552515029907,-0.009385518729686737,0.022912370041012764,-0.021559596061706543,0.0020795089658349752,-0.06809773296117783,0.17402558028697968,-0.06895756721496582,-0.037857405841350555,-0.009402927942574024,-0.04906665161252022,-0.09705004096031189,-0.020887741819024086,-0.05536622181534767,-0.02705605886876583,0.015891632065176964,0.0034557951148599386,0.17449894547462463,0.08369031548500061,0.061960529536008835,-0.016775138676166534,-0.04507368803024292,-0.12795142829418182,0.14804360270500183,0.10668693482875824,0.027719605714082718,0.044061195105314255,0.005220775958150625,0.1174384206533432,-0.09643957018852234,-0.00701751047745347,-0.07274959236383438,0.1326053887605667,-0.13436266779899597
images/POST_F240454_23_21_L.jpg,-0.07919139415025711,0.0020953938364982605,0.03730577975511551,-0.11268744617700577,-0.10879172384738922,0.04848809167742729,-0.09982572495937347,-0.02708888240158558,0.023839453235268593,0.1173371747136116,-0.05078138783574104,0.07323016226291656,-0.041423454880714417,-0.1191365122795105,-0.06452365219593048,-0.15093067288398743,-0.12136396020650864,-0.011267264373600483,-0.02258259989321232,-0.18189102411270142,0.05217759311199188,-0.19966484606266022,-0.11583154648542404,0.09723585844039917,-0.15839500725269318,-0.042952653020620346,-0.04563233256340027,-0.06251881271600723,-0.09064242243766785,0.04124639183282852,-0.03327110409736633,-0.0072139231488108635,0.07872479408979416,-0.08748549222946167,0.07536124438047409,-0.09926039725542068,0.07039540261030197,-0.1148742213845253,0.17741937935352325,-0.07186968624591827,0.14523296058177948,0.07076241075992584,0.003884138772264123,0.11708211153745651,-0.008987044915556908,-0.003863679710775614,0.07306918501853943,0.0027072224766016006,-0.0349099338054657,-0.12497683614492416,0.02482260949909687,-0.049989353865385056,0.024006396532058716,-0.19824479520320892,0.07862704247236252,0.11352530121803284,0.17120328545570374,-0.0861305445432663,0.0735238566994667,-0.002177799353376031,0.17130419611930847,-0.06642172485589981,-0.031199360266327858,-0.013663491234183311,0.0053752935491502285,0.1267562061548233,-0.07084479182958603,-0.04744178429245949,-0.004489675629884005,-0.08231751620769501,0.009889412671327591,0.0028908676467835903,-0.03198400139808655,-0.07337888330221176,0.20457732677459717,-0.04655059054493904,-0.0486995205283165,0.13401693105697632,0.04136313870549202,-0.014526882208883762,0.012207199819386005,-0.12123041599988937,-0.045257776975631714,-0.031031373888254166,-0.06597498804330826,-0.004382609389722347,-0.09548015147447586,0.0597977489233017,-0.05667221546173096,0.05222804471850395,-0.09723230451345444,-0.004759580362588167,-0.08794625848531723,0.11785697191953659,0.12616895139217377,0.0409630723297596,0.02013751119375229,-0.10081414878368378,-0.1356397122144699,-0.03833223506808281,-0.009532250463962555,-0.06932435184717178,-0.0680137574672699,-0.01923074573278427,-0.04244202375411987,-0.10582877695560455,-0.06808196753263474,-0.0780111774802208,-0.011072886176407337,0.14523664116859436,0.05959475040435791,-0.07552024722099304,-0.056159209460020065,0.056191835552453995,-0.21527230739593506,0.09763886779546738,-0.03282671794295311,-0.05077040195465088,-0.07310811430215836,0.1078825443983078,-0.13472874462604523,-0.14674115180969238,0.05553385615348816,-0.0072428081184625626,-0.09093403816223145,-0.016620691865682602,0.09497779607772827,-0.1267416924238205
images/POST_F240455_23_21_R.jpg,0.07872915267944336,0.048120636492967606,-0.05457417666912079,-0.15205049514770508,-0.12333417683839798,0.21645084023475647,-0.00800163485109806,0.059427887201309204,0.09626652300357819,-0.06409794092178345,-0.056892652064561844,0.20270858705043793,-0.020868908613920212,0.05131056159734726,-0.01053665205836296,-0.015394429676234722,0.01823386363685131,0.11082307249307632,0.10415004193782806,-0.049868661910295486,0.11776300519704819,-0.08627010881900787,0.08721814304590225,-0.028852839022874832,0.12665820121765137,0.10772055387496948,-0.13993437588214874,-0.040097691118717194,0.06484416872262955,-0.04167662188410759,-0.0305018350481987,0.006853171624243259,0.10843700170516968,0.07681769132614136,-0.023878654465079308,-0.1350543349981308,-0.033191125839948654,0.12264765053987503,-0.0036343985702842474,-0.07546854019165039,-0.040692754089832306,0.16897551715373993,0.05146942287683487,-0.10068318247795105,0.003603244200348854,0.09090819954872131,-0.03550131991505623,-0.08432811498641968,0.08016873151063919,-0.003208025125786662,-0.0067949057556688786,-0.03295428305864334,0.07416310906410217,-0.2557215094566345,0.17553620040416718,0.10524294525384903,0.04463917016983032,0.0014422271633520722,0.16773465275764465,0.03428810462355614,0.10142557322978973,0.23903770744800568,-0.031153365969657898,0.071245476603508,0.01965777762234211,0.014161559753119946,-0.05448754504323006,0.02276526764035225,0.09454476833343506,-0.03645523637533188,0.110638827085495,0.035733163356781006,0.005840903148055077,-0.05725929141044617,0.1137397363781929,-0.05932881310582161,-0.07956129312515259,-0.09374697506427765,0.0683167576789856,-0.05914389714598656,0.035185571759939194,-0.09330574423074722,-0.10915510356426239,-0.10099640488624573,0.023842042312026024,0.07421594858169556,0.0029173896182328463,0.07659027725458145,0.025326170027256012,0.03928663209080696,-0.002973624737933278,0.08948810398578644,-0.019925585016608238,-0.01677188090980053,0.06887727230787277,0.07123284041881561,0.01929059997200966,0.022293036803603172,-0.14119061827659607,0.003666250267997384,0.10636919736862183,-0.13985247910022736,-0.018316330388188362,-0.0373552031815052,-0.03182171657681465,-0.05721103027462959,-0.009888553991913795,-0.1566915065050125,-0.051276691257953644,0.09205333143472672,-0.03165328875184059,0.0786161795258522,-0.11325783282518387,0.03385453298687935,0.009342877194285393,-0.03992261365056038,-0.15053072571754456,0.09119616448879242,0.21765615046024323,0.007242383901029825,0.012973177246749401,0.054380808025598526,0.06631968170404434,0.11710225045681,0.03145979717373848,-0.10242583602666855,0.139640212059021,-0.039033714681863785
images/POST_F240457_23_21_R.jpg,0.030603818595409393,0.04282265156507492,0.10275710374116898,-0.030700530856847763,-0.04266810417175293,0.011864676140248775,0.0013658826937898993,0.11784873157739639,0.0648728534579277,0.06327908486127853,-0.05919787287712097,0.1744639277458191,0.09824009239673615,-0.015620543621480465,-0.0873229131102562,-0.0019176300847902894,-0.00536612281575799,-0.045431606471538544,0.05053155869245529,0.017803961411118507,0.030481746420264244,0.009561005979776382,-0.0925314724445343,0.14685793220996857,-0.07262406498193741,-0.0013977091293781996,-0.05063151195645332,-0.05729321390390396,0.0994502529501915,-0.0671691969037056,0.009171562269330025,-0.07383229583501816,-0.043129440397024155,-0.1573512852191925,0.07796161621809006,-0.13305647671222687,0.01745866797864437,-0.10827447474002838,0.0779627338051796,-0.041573040187358856,-0.006384739186614752,0.16213829815387726,0.13175927102565765,0.1317923367023468,-0.021960388869047165,0.13197718560695648,-0.0016684483271092176,-0.1597004532814026,-0.029609447345137596,0.10138330608606339,-0.11391899734735489,0.09257572889328003,0.09748189151287079,-0.21347804367542267,0.03777417540550232,0.044194091111421585,0.1688634157180786,-0.03973912075161934,-0.0019863590132445097,0.09545407444238663,0.07278569787740707,0.1455477774143219,-0.01621677167713642,0.021785713732242584,-0.054458267986774445,0.17934362590312958,0.07217666506767273,-0.03481766954064369,0.034788429737091064,-0.007941734045743942,0.07992774993181229,0.1332271844148636,-0.04118300601840019,0.033479005098342896,0.08419203013181686,-0.03599439933896065,-0.15028409659862518,-0.0005692413542419672,0.08211351931095123,-0.04188349470496178,0.08108245581388474,-0.0693097934126854,0.05425762012600899,-0.1699833869934082,0.10140379518270493,-0.1553674340248108,-0.12309063971042633,0.038325704634189606,-0.040033478289842606,0.024055643007159233,-0.11317665129899979,0.09858453273773193,-0.14910617470741272,0.09896131604909897,0.06220749020576477,0.049334362149238586,-0.04212220385670662,0.06789303570985794,-0.05271606519818306,-0.13887137174606323,0.08541823923587799,-0.056883554905653,-0.05195537209510803,-0.08254457265138626,-0.014672975987195969,-0.04036259278655052,0.04409610480070114,0.01442399900406599,-0.08430704474449158,0.017964310944080353,0.10661341995000839,0.0950985997915268,0.1677454560995102,-0.012335809879004955,-0.14609591662883759,0.07363955676555634,0.05896272137761116,0.03240421041846275,0.040444135665893555,0.02506732940673828,0.10831354558467865,-0.16310285031795502,0.00642831576988101,-0.03521284833550453,0.03085789829492569,-0.13881433010101318,0.02268298529088497,-0.2041088044643402
images/POST_F240459_23_21_L.jpg,0.11446047574281693,0.05429971590638161,-0.002494529588147998,-0.13618861138820648,-0.08935631811618805,0.13497310876846313,-0.032268915325403214,-0.03351873159408569,-0.04414660856127739,-0.08914335072040558,-0.09485505521297455,0.21767684817314148,0.08552387356758118,-0.016773730516433716,-0.06516783684492111,-0.07625750452280045,0.0999777689576149,0.0744488537311554,0.06744063645601273,-0.03652014210820198,0.03539741784334183,-0.07229671627283096,0.026815010234713554,-0.09660996496677399,-0.06040213257074356,-0.10677226632833481,-0.17275433242321014,0.002086713444441557,-0.12404955178499222,-0.14917992055416107,-0.051983244717121124,-0.04985779523849487,0.02898494154214859,-0.003729900810867548,0.020105239003896713,0.017975063994526863,-0.06149556115269661,-0.10744603723287582,-0.029561728239059448,-0.007569483481347561,-0.011633157730102539,0.13848237693309784,0.07010645419359207,0.0800158753991127,-0.005776658188551664,-0.08265126496553421,-0.06521890312433243,-0.03939049318432808,0.10185748338699341,-0.043521735817193985,-0.08139561861753464,-0.13923795521259308,-0.018561208620667458,-0.13296182453632355,0.16661383211612701,0.050198789685964584,-0.027515096589922905,-0.08630189299583435,-0.05246489867568016,-0.01631525717675686,-0.0313640795648098,0.03948574885725975,0.11576095223426819,0.016869183629751205,-0.04253924638032913,0.09898011386394501,-0.027481447905302048,0.01019637193530798,0.08837005496025085,0.06504090875387192,0.02797161228954792,0.20403225719928741,-0.03549208492040634,-0.1299726516008377,0.19308848679065704,-0.06705836206674576,-0.17564117908477783,-0.05913815274834633,0.1194973886013031,-0.030029240995645523,0.14715027809143066,-0.014316940680146217,-0.1082979142665863,-0.09264311194419861,0.06964050233364105,0.0265815369784832,-0.18025459349155426,-0.04300428926944733,0.02337605133652687,0.11848203092813492,0.10936878621578217,0.019741665571928024,-0.10850432515144348,0.01804124005138874,-0.04270115867257118,0.11463580280542374,-0.03261982649564743,-0.004185349680483341,-0.00939981359988451,0.05134573206305504,0.12689274549484253,-0.03750820457935333,-0.00933115929365158,-0.011478082276880741,-0.013532823882997036,-0.1213962510228157,-0.036455608904361725,-0.12290937453508377,-0.17633506655693054,-0.06615165621042252,-0.024806145578622818,0.20620083808898926,-0.04789826273918152,0.08876802027225494,-0.051347676664590836,-0.04353891313076019,-0.0771535336971283,0.05028785392642021,0.14674687385559082,0.024578923359513283,-0.022535495460033417,-0.10680745542049408,0.15735000371932983,-0.013969444669783115,-0.009063562378287315,-0.1357743740081787,0.05988302081823349,-0.06326296180486679
images/POST_F240460_23_21_R.jpg,0.08434093743562698,0.02980785444378853,0.05870135501027107,-0.10512617230415344,0.0353577621281147,0.0840936154127121,-0.05827642232179642,0.10589326173067093,-0.001580556039698422,-0.019540270790457726,-0.024407319724559784,0.1640213131904602,0.03623275086283684,-0.09231748431921005,-0.06352139264345169,-0.1521879881620407,0.09693234413862228,0.15350933372974396,0.17078544199466705,0.08842058479785919,0.0620775930583477,-0.01847478188574314,0.00387119990773499,-0.0985984206199646,-0.0989164486527443,0.00041827905806712806,-0.18684892356395721,-0.00017768130055628717,-0.033487267792224884,-0.09034884721040726,-0.010640137828886509,-0.07192082703113556,0.042456358671188354,-0.14095567166805267,0.05478455871343613,-0.0296946968883276,0.09463165700435638,-0.00686710886657238,-0.026426244527101517,-0.021502332761883736,0.0034310875926166773,0.09922491759061813,0.06994301080703735,0.1362198293209076,-0.05025331676006317,0.02959972620010376,-0.08522205054759979,-0.0620945580303669,0.0036910539492964745,0.02009657770395279,-0.06929893791675568,-0.002341190120205283,0.026922212913632393,-0.13241373002529144,0.07251344621181488,0.09324894100427628,0.0935882180929184,-0.12698519229888916,-0.0008495859219692647,-0.03676161170005798,0.0705944374203682,0.13824816048145294,-0.0011969748884439468,-0.008588194847106934,-0.11300601065158844,0.19815100729465485,0.060615841299295425,-0.051588449627161026,0.02942834049463272,0.10205648839473724,0.029911769554018974,0.07664573937654495,0.002604123903438449,-0.08618739992380142,0.14327366650104523,0.03724716231226921,-0.12575630843639374,-0.09429912269115448,-0.023433148860931396,0.049845434725284576,0.0680563822388649,-0.011679379269480705,-0.06135198101401329,-0.0889858826994896,0.16639932990074158,-0.043206993490457535,-0.1521858423948288,0.07343463599681854,0.13172386586666107,0.17182853817939758,-0.10764075815677643,0.04930169880390167,-0.18029986321926117,0.05397547781467438,-0.07008922100067139,-0.06961547583341599,0.07656169682741165,-0.084307461977005,-0.04160685837268829,-0.09211363643407822,0.16844616830348969,-0.10731922835111618,-0.010689105838537216,-0.0835384726524353,0.05897848680615425,0.038109324872493744,0.1391865760087967,-0.08614595979452133,0.10749100148677826,0.08420886844396591,0.013837644830346107,0.11778773367404938,-0.07413353770971298,0.0951242446899414,-0.04809192568063736,-0.07641754299402237,-0.12766657769680023,-0.032879240810871124,0.19000454246997833,-0.09099049121141434,0.057442694902420044,-0.023271964862942696,-0.06528035551309586,0.018459005281329155,0.06309132277965546,-0.1516464203596115,0.050760604441165924,-0.06258854269981384
images/POST_F240461_23_21_R.jpg,0.022101713344454765,-0.012279868125915527,0.041483230888843536,-0.04943085461854935,-0.21328559517860413,0.1581927090883255,-0.11500037461519241,0.10422003269195557,0.01821945607662201,-0.0746135413646698,-0.03953249752521515,0.14599545300006866,0.13722604513168335,-0.02267703041434288,-0.03988511115312576,-0.08475900441408157,0.09531769901514053,0.05566800385713577,0.1296168863773346,0.058645762503147125,0.030304212123155594,-0.028565989807248116,0.003694048384204507,-0.029324354603886604,-0.12618036568164825,-0.0695284977555275,-0.136799156665802,-0.058594949543476105,0.04067383334040642,-0.014851698651909828,0.011572065763175488,-0.04336840659379959,0.13577108085155487,-0.06496091932058334,0.021086204797029495,-0.1351766735315323,0.0034254479687660933,-0.08285585790872574,-0.010773370042443275,-0.05037955567240715,-0.006353026255965233,0.11088153719902039,0.03318779543042183,0.05472589284181595,0.04499126225709915,0.034459181129932404,0.030082013458013535,-0.08834933489561081,0.10111220180988312,0.022309746593236923,0.005774603225290775,-0.08231913298368454,0.03422598913311958,-0.1783476322889328,0.05551212280988693,0.05224063992500305,0.0804976373910904,-0.08649027347564697,-0.10576438903808594,0.0036462380085140467,0.009782122448086739,0.15427260100841522,0.05868948996067047,0.00023320145555771887,-0.08512960374355316,0.03528490662574768,0.07607380300760269,-0.037634942680597305,0.025514794513583183,-0.05383973941206932,0.05952615290880203,0.06321820616722107,-0.019870061427354813,-0.10823281109333038,0.15736770629882812,-0.013005148619413376,-0.17169512808322906,-0.10054534673690796,0.09017721563577652,-0.0459514744579792,0.14693905413150787,-0.12274414300918579,-0.08628037571907043,-0.1361096054315567,0.1668384075164795,-0.060952477157115936,-0.16540051996707916,0.12460746616125107,-0.016616733744740486,0.02130470797419548,-0.014349075965583324,0.12997771799564362,-0.10762269794940948,0.11106641590595245,-0.030914409086108208,0.1050909161567688,0.023784682154655457,0.08066804707050323,-0.12331943213939667,-0.12041816860437393,0.2090226709842682,-0.07528353482484818,0.0666840448975563,-0.03620726615190506,-0.0009124699863605201,0.0022143712267279625,-0.0012791791232302785,-0.10333887487649918,-0.09423469752073288,0.004790731705725193,-0.061675529927015305,0.14956636726856232,-0.09572552889585495,-0.0348651222884655,-0.14398491382598877,-0.1125277727842331,-0.06718098372220993,-0.05845744162797928,0.10084165632724762,-0.010110187344253063,-0.0478450208902359,-0.1280759572982788,0.06613201647996902,0.09070103615522385,0.1313774734735489,-0.14003054797649384,-0.036483827978372574,0.014038456603884697
images/POST_F240463_23_21_L.jpg,-0.07203536480665207,0.01496795378625393,0.07771875709295273,-0.1291615068912506,-0.07958047091960907,0.2033482789993286,-0.13168759644031525,-0.0560489222407341,0.09119969606399536,-0.039244793355464935,-0.006324038840830326,0.11446955054998398,0.09438565373420715,-0.10041990131139755,0.13142766058444977,-0.012851815670728683,-0.09317252784967422,0.04320096969604492,0.09418866783380508,0.10165371000766754,0.13646762073040009,-0.062111835926771164,0.12442352622747421,0.12715482711791992,0.09421045333147049,-0.08717586100101471,-0.09318041056394577,-0.0033051613718271255,0.05644230172038078,-0.0746283084154129,-0.060293812304735184,-0.1319955736398697,-0.059996943920850754,0.11303173750638962,0.033923204988241196,-0.2132558524608612,0.05268131569027901,-0.10015281289815903,0.09049481898546219,-0.11765306442975998,-0.0008768860716372728,-0.03963099420070648,0.010737426578998566,0.060350846499204636,-0.13726213574409485,0.011714668944478035,-0.02298961952328682,-0.19829177856445312,0.13098756968975067,-0.020653659477829933,0.006083057727664709,-0.06240783631801605,0.06606317311525345,-0.11177279055118561,0.04535122960805893,-0.10776922851800919,-0.006468180567026138,-0.1051129475235939,-0.107445627450943,0.14139677584171295,0.2178805023431778,0.08550089597702026,0.035897161811590195,-0.06580705940723419,-0.10185016691684723,0.053872473537921906,0.02362595498561859,-0.033858247101306915,0.0373997837305069,-0.006055542733520269,0.012551709078252316,-0.00014322897186502814,-0.010031811892986298,-0.10448826104402542,0.12529349327087402,0.03743847832083702,0.027752790600061417,0.058630988001823425,0.08468364179134369,0.08406302332878113,-0.054991215467453,-0.012106058187782764,0.004174014553427696,0.03222901001572609,0.026384351775050163,0.025979116559028625,-0.0011927442392334342,-0.014875256456434727,-0.07010335475206375,-0.09231074899435043,0.1245761290192604,-0.09850746393203735,-0.1394094079732895,0.03702982887625694,0.13287606835365295,0.02789434976875782,-0.07898260653018951,0.05324642360210419,-0.08294372260570526,-0.12107644975185394,0.16502751410007477,-0.045152854174375534,0.03100796788930893,0.16779950261116028,-0.01781603693962097,0.007915998809039593,-0.0549468956887722,-0.1584375500679016,-0.1280815452337265,-0.04313340410590172,-0.0036726377438753843,-0.051234111189842224,0.004658795427531004,-0.1710338145494461,-0.04176703467965126,-0.04517142102122307,-0.07777301967144012,0.06353794783353806,0.00016307369514834136,0.08299334347248077,-0.012952885590493679,-0.059432219713926315,0.13523997366428375,0.05399700626730919,0.015403256751596928,-0.13486957550048828,0.04875704646110535,0.08555492013692856
images/POST_F240464_23_21_L.jpg,0.05309980362653732,-0.01203419640660286,0.022565975785255432,-0.07912243157625198,-0.029569795355200768,0.085323266685009,0.0022883121855556965,-0.02057896926999092,0.0701511800289154,0.09739483147859573,-0.014668134972453117,0.06278938800096512,0.12790833413600922,-0.07948759198188782,0.10418906807899475,-0.02780376560986042,-0.046979065984487534,0.032083120197057724,0.09119123220443726,0.11879424750804901,0.1506127268075943,-0.029543282464146614,0.11315690726041794,0.11595252901315689,-0.03025752492249012,0.07801292836666107,0.010199200361967087,-0.13411760330200195,-0.026782749220728874,-0.03639568015933037,-0.030382854864001274,0.017963983118534088,-0.027069982141256332,-0.020559856668114662,-0.032483913004398346,-0.14889121055603027,0.13153932988643646,0.06546293199062347,0.07091187685728073,0.0010598053922876716,0.09162278473377228,0.017663000151515007,0.13292206823825836,0.03029274381697178,-0.16827590763568878,0.12714843451976776,-0.01980307511985302,-0.15097182989120483,0.018709927797317505,0.038879431784152985,-0.036102622747421265,-0.012372774071991444,0.03482755646109581,-0.11448059976100922,0.07099814713001251,-0.045825738459825516,0.14625591039657593,-0.019918551668524742,0.011096232570707798,0.00018754138727672398,0.10634250193834305,0.10546989738941193,-0.17305096983909607,0.00026981497649103403,-0.010386547073721886,-0.027094297111034393,0.111684150993824,-0.08666764199733734,-0.13469885289669037,0.07852192223072052,0.017648842185735703,0.11313211917877197,0.11280132830142975,-0.06728595495223999,0.10748454928398132,-0.022385800257325172,-0.06514482945203781,-0.07626591622829437,-0.17750103771686554,-0.016734732314944267,-0.09382932633161545,0.0071046738885343075,0.04630756378173828,-0.06028572842478752,0.013436757028102875,0.03390854224562645,-0.1001865416765213,0.06790238618850708,0.042958009988069534,-0.08513449132442474,-0.02014426700770855,-0.07015410810709,-0.0738447979092598,0.012364127673208714,0.17084437608718872,-0.09731000661849976,0.07995299249887466,0.07629366219043732,-0.0962456464767456,-0.250325471162796,0.21359887719154358,-0.19616879522800446,-0.11450865864753723,-0.026772739365696907,-0.006964942440390587,-0.022016463801264763,0.13543814420700073,-0.059380773454904556,0.20785029232501984,0.12513671815395355,-0.03958224877715111,-0.004159498494118452,0.054881539195775986,0.004037074279040098,-0.10893654823303223,-0.13095465302467346,-0.11353401094675064,-0.04021170735359192,0.0941750630736351,0.017898622900247574,0.07788902521133423,-0.05507590249180794,0.0035977696534246206,-0.05472838133573532,0.005542312748730183,-0.1205054372549057,0.10660203546285629,0.050514042377471924
images/POST_F240465_23_21_L.jpg,0.008878667838871479,0.0857970342040062,0.004427692852914333,-0.1849343478679657,-0.15562736988067627,0.1067374050617218,-0.010619178414344788,-0.059618718922138214,-0.05680999159812927,0.008217515423893929,0.021842626854777336,0.24734078347682953,0.0705982893705368,-0.14605756103992462,0.17719054222106934,0.0073692696169018745,-0.11224664747714996,0.11312346905469894,0.012759074568748474,0.025183821097016335,0.08072542399168015,-0.057815071195364,0.039886847138404846,0.10254325717687607,0.05322660505771637,-0.08643663674592972,-0.10813385993242264,0.02701408974826336,0.014858816750347614,-0.11847317218780518,-0.005580943077802658,-0.07758047431707382,-0.003310022410005331,0.13057859241962433,-0.006334252189844847,-0.17410892248153687,-0.005762802436947823,-0.00950038805603981,0.025581955909729004,-0.1381632536649704,-0.0269098449498415,0.11638838797807693,0.08692093938589096,-0.0013599788071587682,-0.11462288349866867,-0.09975157678127289,-0.038624394685029984,-0.12974229454994202,0.019817110151052475,-0.02878694050014019,0.03796761482954025,0.015465552918612957,0.11391081660985947,-0.1380082666873932,0.1748868077993393,0.04379037395119667,-0.051695652306079865,-0.013124324381351471,-0.11967846006155014,-0.0680663138628006,0.1433475911617279,0.13299483060836792,-0.03346753492951393,-0.005271779838949442,-0.02233210578560829,0.0946619063615799,-0.00395445479080081,-0.0065080574713647366,-0.1014324352145195,-0.0001588989980518818,0.12402805685997009,0.002101100282743573,0.07759468257427216,-0.14964625239372253,0.13209287822246552,-0.00498944241553545,-0.16887904703617096,0.028853382915258408,-0.0051047964952886105,-0.010647285729646683,0.05200094357132912,0.03392931446433067,-0.16407912969589233,0.04930805414915085,0.07436514645814896,0.10318593680858612,-0.06830237805843353,0.07261158525943756,0.06780247390270233,-0.06197388842701912,0.025230977684259415,-0.06541094183921814,0.014189536683261395,0.12590068578720093,0.17161647975444794,0.02684864029288292,-0.03748253732919693,-0.042841874063014984,0.03614938631653786,-0.07995433360338211,0.14260482788085938,-0.043177057057619095,-0.002399363787844777,-0.009317085146903992,-0.015366407111287117,-0.05788389965891838,-0.030729936435818672,-0.08765430003404617,-0.03638336434960365,0.09066294133663177,-0.10143975913524628,0.16152817010879517,0.0276224073022604,-0.09578732401132584,-0.08766164630651474,0.03555404767394066,-0.19167844951152802,0.023162275552749634,0.013826707378029823,0.050664469599723816,-0.07086043804883957,-0.04407530277967453,0.20389731228351593,0.016060419380664825,0.07966722548007965,-0.040037643164396286,0.09402399510145187,-0.025656523182988167
images/POST_F240466_23_21_L.jpg,0.02559620328247547,0.07162675261497498,0.0633225291967392,-0.10613028705120087,-0.1484607756137848,0.11509101092815399,-0.022251129150390625,-0.09444444626569748,0.1149577870965004,-0.049648433923721313,-0.021409282460808754,0.1759369969367981,-0.0390859954059124,0.0018277299823239446,0.0015292107127606869,-0.1258620172739029,-0.04178544133901596,0.059729866683483124,-0.00021415449737105519,-0.12770789861679077,-0.04879482090473175,-0.15865349769592285,-0.06523554027080536,0.030744807794690132,0.0006859845016151667,0.039317116141319275,-0.0649752989411354,-0.10021422058343887,-0.0374591201543808,-0.032810792326927185,-0.05108896270394325,0.002648088848218322,0.08084676414728165,-0.06131351739168167,0.05646933987736702,-0.07586023956537247,0.02925480529665947,-0.07220698148012161,0.011165853589773178,-0.04315221309661865,0.0783931314945221,0.03395192325115204,0.06348039209842682,0.12414206564426422,-0.038308706134557724,-0.026571692898869514,0.037440866231918335,-0.1302291303873062,-0.017990104854106903,-0.0985381007194519,0.17726276814937592,-0.1152336373925209,0.021607091650366783,-0.30285805463790894,0.20139771699905396,0.05427104979753494,0.04419524967670441,-0.040176715701818466,0.07436311990022659,0.053717438131570816,0.2105073183774948,0.012945142574608326,0.013561652041971684,-0.11029937863349915,0.0071589332073926926,0.11747486144304276,-0.12423965334892273,0.05550508201122284,0.0423169881105423,-0.032773423939943314,0.0732804387807846,-0.06290971487760544,0.0242164246737957,-0.1534881293773651,0.19004325568675995,0.018125386908650398,-0.0315169133245945,0.018376154825091362,0.08159691840410233,-0.07319173961877823,0.10400013625621796,-0.01850530318915844,-0.1402636170387268,-0.01079227589070797,-0.09820037335157394,-0.030005086213350296,-0.0665740817785263,-0.007336815353482962,0.055000629276037216,-0.015425640158355236,-0.08782171458005905,-0.043699514120817184,-0.021516449749469757,-0.04126937687397003,0.016979416832327843,0.10964914411306381,0.0019541666842997074,0.03992373123764992,-0.15355338156223297,0.007243643514811993,0.055088549852371216,-0.10168785601854324,-0.04680684953927994,-0.06471043825149536,-0.03349103033542633,-0.1520652025938034,-0.03539039194583893,-0.11643727868795395,-0.049590062350034714,0.08509561419487,-0.036330971866846085,0.11924631893634796,0.02219446562230587,-0.09968157857656479,-0.1314564347267151,0.011950350366532803,-0.13123220205307007,0.013185947202146053,0.09475259482860565,0.12549369037151337,-0.11388307064771652,-0.1642528921365738,0.1616353988647461,0.09974280744791031,0.07509524375200272,0.017916999757289886,0.08669374883174896,0.009222530759871006
images/POST_F240467_23_21_R.jpg,-0.09468955546617508,-0.02582104131579399,0.13889318704605103,-0.10008616745471954,-0.10051025450229645,0.08270144462585449,-0.03142484650015831,0.1074351966381073,0.07617227733135223,0.03501085564494133,0.11537159979343414,0.13263556361198425,0.15276625752449036,-0.1544569730758667,0.07407405972480774,-0.012622500769793987,-0.031102582812309265,0.19521892070770264,0.1630910485982895,0.07063345611095428,0.14872579276561737,-0.09540501236915588,-0.03388823941349983,0.009860431775450706,-0.15000513195991516,0.021368954330682755,-0.032166700810194016,0.033513426780700684,-0.14485962688922882,-0.044865310192108154,-0.12158487737178802,0.06779216229915619,-0.011964984238147736,-0.1048068031668663,0.10540635883808136,-0.15510651469230652,0.11721942573785782,-0.17391400039196014,0.05760623514652252,-0.0713004320859909,0.031833574175834656,0.0124269500374794,0.10351147502660751,0.02493361197412014,-0.056455571204423904,-0.009532667696475983,0.07144365459680557,-0.2179090678691864,0.09990978986024857,0.013986015692353249,-0.014859876595437527,-0.010047338902950287,-0.016325252130627632,-0.1345411241054535,0.0880882740020752,0.01096722949296236,0.16883394122123718,0.04275192692875862,0.002334100427106023,0.015445076860487461,0.13599129021167755,0.137272447347641,0.09462187439203262,0.0221761055290699,0.07659265398979187,0.014999148435890675,0.1491227149963379,-0.04352164268493652,-0.08413831889629364,0.06906671822071075,0.026702044531702995,0.026084842160344124,0.09639053046703339,0.022494273260235786,0.09908656030893326,-0.05383444204926491,-0.134403795003891,-0.0307697094976902,-0.09049676358699799,0.022399546578526497,0.03843304514884949,-0.1213662400841713,-0.043823499232530594,-0.10947077721357346,0.020809372887015343,-0.06714329868555069,-0.13440346717834473,0.10571851581335068,-0.05757619068026543,-0.020106816664338112,-0.06142814829945564,0.013629211112856865,-0.1921219527721405,0.017139166593551636,-0.02719941735267639,-0.02046743780374527,-0.03025546297430992,-0.003529555397108197,-0.043198391795158386,-0.1383885145187378,0.08891738951206207,-0.09358897805213928,0.015234612859785557,-0.11984941363334656,0.057554345577955246,0.008518858812749386,0.0273311547935009,-0.05948508158326149,0.11968642473220825,0.13890573382377625,0.011471480131149292,-0.00355391763150692,0.042078666388988495,0.03929315134882927,-0.0673719197511673,-0.06927654892206192,0.0405178964138031,-0.053325358778238297,0.10999514162540436,0.0984569638967514,-0.11026552319526672,-0.10130343586206436,0.07060950994491577,0.08288747817277908,0.06507305800914764,-0.07643602788448334,0.07372020930051804,-0.040643710643053055
images/POST_F240468_23_21_L.jpg,-0.12601150572299957,-0.0630807876586914,0.1641417145729065,-0.07007724046707153,-0.175879567861557,0.02679639495909214,-0.07761064916849136,0.07851128280162811,-0.037141066044569016,0.03650062903761864,0.01609146222472191,0.24706918001174927,0.0564466193318367,-0.03509838506579399,-0.13988906145095825,-0.029789283871650696,0.10814165323972702,0.14577148854732513,0.1560724675655365,-0.11535363644361496,0.007943934760987759,-0.08501889556646347,0.005530623719096184,-0.031091885641217232,-0.06420468538999557,0.0259786918759346,-0.10406579077243805,0.026577292010188103,-0.010148709639906883,-0.11476021260023117,0.013571896590292454,-0.0789782851934433,0.12088974565267563,-0.08082777261734009,0.11559358239173889,-0.05886952579021454,0.1224694550037384,-0.0790194496512413,-0.03613375127315521,-0.056061647832393646,-0.07051952928304672,0.07545018941164017,0.0728883296251297,0.15034295618534088,-0.12543918192386627,0.07649771869182587,0.050696857273578644,-0.09636708348989487,-0.0844879299402237,0.07727120071649551,-0.02566811814904213,-0.026271797716617584,0.042449336498975754,-0.029314503073692322,0.1683783084154129,0.12087224423885345,0.02740737609565258,0.005520076025277376,0.03562106192111969,-0.05424502119421959,0.09321366995573044,0.040940772742033005,0.04736192896962166,-0.011861992999911308,0.07444964349269867,0.12219090759754181,-0.07855299860239029,0.0946534276008606,-0.09900794923305511,0.1024337112903595,0.02730085887014866,0.06073050573468208,0.07459349185228348,-0.0660746619105339,0.13829512894153595,0.04252011701464653,-0.05083932355046272,0.00259307399392128,0.10203671455383301,-0.004391582682728767,0.031868189573287964,-0.11823607236146927,-0.11527733504772186,-0.1036301925778389,0.06618199497461319,-0.04147838056087494,-0.16492176055908203,0.09124259650707245,0.017484787851572037,0.13781572878360748,-0.0644034743309021,0.0033451986964792013,-0.1407325565814972,-0.08455834537744522,0.013503187336027622,0.05394810438156128,0.04815374314785004,0.06058267503976822,0.042006716132164,-0.16469167172908783,0.13379274308681488,0.052933186292648315,0.08518581837415695,-0.06246151775121689,0.024037672206759453,0.06479188799858093,0.009675417095422745,-0.013165728189051151,0.06436991691589355,-0.10242123901844025,0.01256285049021244,0.12031641602516174,0.04048529639840126,0.027878856286406517,-0.05455639585852623,-0.042688965797424316,0.03816662356257439,-0.03829023241996765,0.17444273829460144,-0.02632911689579487,-0.07605791091918945,-0.20110829174518585,0.04044554755091667,0.07993423193693161,0.16038735210895538,-0.08007954061031342,0.14065119624137878,0.0163077674806118
images/POST_F240470_23_21_R.jpg,0.10058428347110748,0.019762644544243813,0.014602340757846832,-0.024760840460658073,-0.1094021424651146,0.15741734206676483,-0.0469127856194973,-0.08650471270084381,-0.09244158864021301,-0.05202342942357063,0.05240337550640106,0.17677569389343262,0.182713583111763,-0.02987615205347538,-0.06811749935150146,-0.03897814080119133,0.018624229356646538,-0.0006064787739887834,0.07304167747497559,0.11516372859477997,0.07699832320213318,-0.03759466111660004,0.0684061050415039,-0.08844516426324844,0.056923650205135345,-0.07000485807657242,-0.13876044750213623,0.10775081068277359,-0.02757628634572029,-0.13186901807785034,-0.08833032846450806,0.03581364080309868,0.06695394963026047,0.013531573116779327,-0.023007836192846298,-0.2296278178691864,0.05139761045575142,-0.032743073999881744,0.00850775558501482,-0.10920464992523193,0.055405400693416595,0.08495505899190903,0.035226915031671524,-0.0026615005917847157,-0.11692080646753311,-0.11377926170825958,0.005341328214854002,-0.06431137025356293,0.1841585785150528,0.01492247823625803,0.0649494156241417,-0.1525326371192932,0.01639147847890854,-0.28986814618110657,0.16339869797229767,0.026514552533626556,0.0897640734910965,-0.01974281296133995,-0.005144490860402584,0.05119411274790764,0.06861326098442078,0.0456644706428051,0.10668747127056122,0.03228938579559326,-0.14239710569381714,0.0405171737074852,0.008837328292429447,-0.004857396706938744,0.14458918571472168,0.029748864471912384,-0.00910540483891964,-0.019311394542455673,-0.10774905234575272,0.06377005577087402,0.11077478528022766,0.02351388894021511,-0.00667059700936079,0.016925981268286705,0.12826959788799286,-0.005732898134738207,0.10407182574272156,-0.05634568631649017,-0.0418800413608551,0.01029106043279171,0.1461656242609024,0.060266003012657166,0.00243812776170671,-0.0031448916997760534,-0.08781017363071442,0.0032605703454464674,0.060964155942201614,-0.050446487963199615,0.025551563128829002,0.03108597733080387,0.09631034731864929,-0.0021740784868597984,0.04340521618723869,0.03625565394759178,-0.1536751240491867,-0.15228025615215302,0.011344371363520622,-0.13761457800865173,0.029901137575507164,-0.0016778376884758472,-0.06343570351600647,-0.07338103652000427,0.08851735293865204,-0.1742844134569168,-0.17413297295570374,0.04463199898600578,-0.03475112095475197,0.18210196495056152,-0.05653872340917587,0.0074944812804460526,-0.045482683926820755,-0.059873808175325394,-0.07795996218919754,0.02666856162250042,0.06784265488386154,0.06515976041555405,-0.011935384012758732,-0.04217981547117233,0.13524356484413147,0.14318609237670898,0.08008725941181183,-0.09996043890714645,-0.03640935570001602,0.09661780297756195
images/POST_F240471_23_21_L.jpg,-0.07242771983146667,-0.032425034791231155,0.10517750680446625,-0.1275394707918167,0.011116454377770424,0.08180423080921173,0.007525190245360136,-0.027295609936118126,0.048661716282367706,-0.08571477979421616,0.051497943699359894,0.12293675541877747,0.10024449229240417,-0.07924723625183105,0.09528481215238571,-0.09877102077007294,-0.08263518661260605,0.050253190100193024,-0.06805882602930069,-0.07106766849756241,0.11201708018779755,-0.219506174325943,0.08981974422931671,0.008818063884973526,-0.03094583936035633,0.044678207486867905,0.06460420787334442,0.042220111936330795,0.01737290993332863,-0.01905030757188797,-0.05027436837553978,-0.02678910829126835,-0.04275517538189888,0.036512549966573715,-0.0178813599050045,-0.2110220044851303,-0.04531725123524666,-0.012516843155026436,0.051928844302892685,-0.08652313798666,0.021479161456227303,-0.010444341227412224,0.10138671845197678,-0.05728624388575554,0.028425289317965508,-0.03357698395848274,0.1738865226507187,-0.1856158822774887,0.08419986069202423,-0.09646853804588318,-0.13582298159599304,0.05576042830944061,0.09447787702083588,-0.22317421436309814,0.12524102628231049,0.026080260053277016,0.14654679596424103,0.06890372931957245,0.09611476212739944,0.12344235181808472,0.17728056013584137,0.12947888672351837,-0.039220329374074936,0.06782432645559311,-0.1115410327911377,0.17180968821048737,0.007267290726304054,-0.03637881577014923,-0.006595794577151537,0.03794015198945999,0.04025937244296074,0.012303468771278858,0.06398185342550278,0.0004613233031705022,0.08871223032474518,0.07061254978179932,-0.05877675861120224,0.00645599327981472,0.014033098705112934,-0.060469333082437515,-0.10329114645719528,0.0083254249766469,-0.0042919740080833435,-0.054465219378471375,0.0921957939863205,0.0767955332994461,0.05394981801509857,-0.019794099032878876,0.0371573232114315,-0.03532116115093231,-0.09216688573360443,0.019826307892799377,-0.05789060518145561,-0.024738464504480362,0.18616336584091187,0.10124143213033676,-0.1794986128807068,0.02519969269633293,-0.12042372673749924,-0.13354337215423584,0.10783149302005768,-0.16637802124023438,0.027792442589998245,0.020411863923072815,0.14537766575813293,0.08071932196617126,0.014352061785757542,-0.036880042403936386,0.006070714443922043,0.12125379592180252,0.01513292733579874,0.06448038667440414,-0.09676939994096756,-0.022294560447335243,-0.10284954309463501,0.1122061163187027,-0.1940700262784958,0.038947172462940216,-0.001829160493798554,0.006657935678958893,0.056911811232566833,0.03538258373737335,0.05336364731192589,0.04629775136709213,-0.01931707002222538,-0.08070598542690277,0.12467725574970245,-0.1234268918633461
images/POST_F240472_23_21_R.jpg,-0.1415606439113617,0.013403280638158321,0.15059325098991394,-0.18004798889160156,0.04053676873445511,0.002826723037287593,-0.09051168709993362,-0.05923307314515114,0.16419397294521332,-0.0571574792265892,-0.02432304061949253,0.18073438107967377,0.2236129194498062,-0.02878608927130699,0.05232568085193634,0.12546215951442719,-0.11542859673500061,-0.05071147903800011,-0.08651135116815567,-0.02270226553082466,0.11364371329545975,-0.006949764210730791,-0.007417608052492142,0.11995473504066467,0.043712317943573,-0.08274952322244644,-0.05920402705669403,0.045776184648275375,0.10916149616241455,-0.013109727762639523,-0.004373933654278517,-0.23711369931697845,0.014703162014484406,0.13345062732696533,-0.0034569737035781145,-0.10361719131469727,-0.08828994631767273,-0.010268529877066612,0.0658913254737854,-0.0707867220044136,0.0258858110755682,-0.008987681940197945,0.01203458197414875,-0.0165241789072752,-0.1676904857158661,-0.04462055861949921,-0.04863622784614563,-0.1300577074289322,-0.08297200500965118,-0.043378960341215134,-0.11833010613918304,0.10718166083097458,-0.03868575766682625,-0.07439615577459335,0.03612009808421135,-0.1055498793721199,0.08049371093511581,-0.16003106534481049,-0.05857652798295021,0.07168960571289062,0.18350447714328766,0.05889866501092911,-0.018357709050178528,-0.013316472060978413,-0.10922259837388992,0.07264400273561478,-0.03991086035966873,-0.11496245861053467,-0.05942991375923157,-0.06254518777132034,0.08937056362628937,-0.007636768743395805,0.03142956644296646,-0.014240529388189316,0.14510107040405273,0.04024219885468483,0.02728912979364395,0.0476982407271862,0.16803348064422607,-0.06313329935073853,-0.017979014664888382,-0.016695359721779823,-0.03762296959757805,0.07457096129655838,0.09647607058286667,0.0660499781370163,0.06596419215202332,-0.007975202985107899,-0.03010631538927555,0.06551794707775116,0.007154262624680996,0.0018020911375060678,0.12578757107257843,0.012967386282980442,0.1338517814874649,0.17855462431907654,-0.12144886702299118,0.1392713487148285,-0.0875525251030922,-0.1796025186777115,0.1354595571756363,-0.0336906835436821,-0.021635841578245163,0.055718544870615005,0.08838873356580734,0.09405337274074554,-0.14769971370697021,-0.045670606195926666,-0.14287994801998138,0.02787102572619915,0.11318165063858032,0.025879545137286186,0.05145779997110367,-0.12661676108837128,-0.003358896356076002,0.030414002016186714,-0.07233940064907074,0.023619968444108963,-0.06744895130395889,-0.02732243202626705,0.027201153337955475,-0.016851317137479782,0.035583917051553726,-0.016425030305981636,0.05468960106372833,-0.021212516352534294,0.016622068360447884,-0.05708501860499382
images/POST_F240473_23_21_L.jpg,0.06972057372331619,0.12941963970661163,0.032019976526498795,-0.12902949750423431,-0.051576171070337296,0.16211555898189545,0.03327801078557968,-0.08969201147556305,0.11589230597019196,-0.024382149800658226,-0.04586845636367798,0.12416983395814896,0.03815746307373047,-0.1185671016573906,0.014363397844135761,0.012493949383497238,-0.165106400847435,0.08756044507026672,0.005132207181304693,0.03383816406130791,0.14928722381591797,-0.0908939316868782,0.09087493270635605,0.09542977064847946,-0.07279399037361145,-0.0024697594344615936,-0.04807652160525322,-0.05330422893166542,-0.023904170840978622,-0.01229819841682911,-0.0822933092713356,-0.05672615021467209,-0.06584785133600235,0.0922108069062233,0.0024588736705482006,-0.16866238415241241,-0.059338949620723724,-0.059034936130046844,0.07047813385725021,-0.017170419916510582,0.06501593440771103,-0.018821027129888535,0.15100619196891785,-0.027998683974146843,-0.053390022367239,0.026220843195915222,0.05091477185487747,-0.20547999441623688,0.0011340011842548847,-0.14783848822116852,-0.15234796702861786,0.03419271856546402,0.10197259485721588,-0.1408555954694748,0.08641715347766876,0.0030957702547311783,0.08411361277103424,0.03178630769252777,0.04874396696686745,0.05125071108341217,0.1412927508354187,0.15007849037647247,-0.0009545204811729491,0.07163631916046143,-0.019615277647972107,0.14654943346977234,0.15719206631183624,0.005506710149347782,0.05788394436240196,0.04554194211959839,0.11438379436731339,0.048628564924001694,0.037931352853775024,-0.028084415942430496,0.10190137475728989,0.026825495064258575,-0.11294407397508621,0.004329423885792494,0.01450047641992569,-0.11876311153173447,0.13671067357063293,-0.04013446718454361,0.007530832197517157,-0.06383911520242691,0.016727881506085396,-0.010066001676023006,-0.11832422763109207,-0.008359276689589024,-0.027567682787775993,-0.07421723008155823,0.0036921161226928234,-0.13675937056541443,-0.041787147521972656,0.030073584988713264,0.07137107104063034,0.03235470503568649,-0.15654060244560242,-0.004114907700568438,-0.07444746047258377,-0.03257368505001068,0.0211955476552248,-0.13515932857990265,-0.08131887018680573,0.10799673944711685,-0.04751555994153023,-0.008211042732000351,-0.04491054639220238,-0.06173049286007881,-0.15575279295444489,0.12538287043571472,0.03469317406415939,0.16750560700893402,-0.011932122521102428,0.020844928920269012,-0.13851356506347656,0.03670619800686836,-0.21228405833244324,-0.030468793585896492,0.025491833686828613,0.07368624955415726,0.06680174171924591,-0.014063194394111633,0.12849076092243195,-0.07569795846939087,-0.0007298210985027254,-0.11628413200378418,0.22020597755908966,-0.08431762456893921
images/POST_F240474_23_21_R.jpg,-0.04146265238523483,-0.06507028639316559,0.14862006902694702,-0.1564542055130005,-0.017658600583672523,0.050216782838106155,-0.08121258020401001,-0.023092249408364296,-0.008381747640669346,0.06439144164323807,0.005463027860969305,0.11811012029647827,0.16773851215839386,-0.08466940373182297,0.03818561136722565,0.04541603848338127,-0.02760734036564827,-0.06620873510837555,0.020647941157221794,0.0074787745252251625,0.05930867791175842,-0.10279624164104462,0.16972856223583221,0.0807737484574318,-0.017911186441779137,-0.12285097688436508,0.053674884140491486,0.043949685990810394,0.009319067932665348,-0.019658206030726433,-0.041680771857500076,-0.1900606006383896,0.1387108564376831,0.06410139054059982,-0.00325836893171072,-0.025649067014455795,-0.015877900645136833,-0.03624362498521805,0.023677555844187737,-0.12550853192806244,0.004547010641545057,-0.014006729237735271,0.04391009733080864,-0.030276799574494362,-0.03830854222178459,-0.09351515769958496,-0.07835809141397476,-0.0775880515575409,-0.06067641079425812,-0.07347791641950607,-0.06885036081075668,0.102138951420784,0.035401664674282074,-0.15074528753757477,0.013431904837489128,0.033680882304906845,-0.04603341221809387,-0.02497209422290325,-0.025954008102416992,-0.06042974069714546,0.13830484449863434,0.04882685840129852,0.021094419062137604,0.05386415123939514,-0.19584354758262634,0.11295446753501892,0.0001681935100350529,-0.06403279304504395,-0.02097436785697937,0.07331636548042297,0.11337995529174805,-0.08882613480091095,0.05596769601106644,-0.04073089361190796,0.16770687699317932,0.0518454983830452,-0.03518960624933243,0.039571233093738556,0.07213924080133438,-0.09539121389389038,0.027349457144737244,0.06191112846136093,-0.0935400128364563,0.08769042789936066,0.20463155210018158,-0.014730884693562984,0.05298701673746109,-0.07915258407592773,-0.06316535919904709,-0.008850829675793648,-0.13851870596408844,0.010801175609230995,0.08166438341140747,0.16254504024982452,0.06792895495891571,0.05124283581972122,-0.14912156760692596,0.03798889368772507,-0.2008887380361557,-0.06611081212759018,0.07391369342803955,-0.026146532967686653,0.06839510798454285,0.004664401989430189,-0.029181567952036858,0.11390889436006546,-0.061130087822675705,-0.09535570442676544,-0.1787244826555252,0.10693471133708954,0.01919136568903923,0.21910375356674194,-0.0006242060335353017,-0.05628794804215431,-0.04687146469950676,0.1218416839838028,-0.12313096970319748,-0.12048985809087753,-0.17499907314777374,-0.016091350466012955,0.0748286098241806,-0.12137925624847412,0.08126291632652283,0.02410813421010971,0.09318482130765915,-0.0716911032795906,0.1577291190624237,0.055325523018836975
images/POST_F240475_23_21_L.jpg,-0.005478172097355127,-0.027207350358366966,-0.0462508350610733,-0.06336507201194763,-0.08370271325111389,0.027553997933864594,-0.13271529972553253,0.030818121507763863,-0.031016496941447258,-0.04526478052139282,-0.11027427762746811,0.17679493129253387,0.061402857303619385,-0.010384208522737026,-0.03920350596308708,-0.06312992423772812,-0.11640425026416779,0.06865057349205017,-0.02972627803683281,-0.032733507454395294,0.01020689308643341,-0.14356863498687744,0.14976240694522858,0.020431768149137497,-0.002324166242033243,-0.1828780323266983,-0.017449673265218735,-0.0036967983469367027,-0.13277386128902435,-0.10049407184123993,-0.14532534778118134,-0.06284863501787186,-0.015157947316765785,0.023317914456129074,-0.04337606579065323,-0.09228246659040451,0.025605861097574234,-0.024813737720251083,-0.012130120769143105,0.046595823019742966,0.03192822262644768,0.10655108839273453,0.08167161792516708,0.10795342922210693,-0.03805885463953018,-0.11488328129053116,-0.0729592815041542,-0.046906646341085434,0.11451766639947891,-0.05046371743083,-0.1876918524503708,-0.12965010106563568,0.1591063141822815,-0.09526019543409348,0.10725849121809006,0.021426090970635414,0.031079446896910667,-0.013705885969102383,-0.06146145239472389,-0.06484322249889374,-0.022418765351176262,0.11193639039993286,-0.07961689680814743,0.0058885132893919945,-0.15489932894706726,0.16779178380966187,-0.02930452674627304,0.03600649535655975,-0.01628858409821987,-0.00962478294968605,-0.026079874485731125,0.24459169805049896,-0.01622028648853302,-0.036838777363300323,0.05793258920311928,-0.08193724602460861,-0.11414258927106857,0.09343204647302628,0.039170682430267334,-0.0865042582154274,0.014106690883636475,-0.12202604860067368,-0.11082877963781357,0.017161129042506218,0.14340271055698395,-0.0012484309263527393,-0.0869152620434761,-0.03756822273135185,-0.05309373885393143,0.06511230021715164,0.16046668589115143,-0.09949618577957153,-0.1311822533607483,0.0529705211520195,-0.030674390494823456,0.08843162655830383,-0.02041059359908104,-0.0363326296210289,-0.03883352503180504,-0.0901210606098175,0.06045038253068924,-0.05546749010682106,0.05890228599309921,-0.06121406704187393,0.048976413905620575,-0.1267230063676834,-0.024253511801362038,-0.1807730346918106,-0.17874519526958466,0.07746002823114395,0.13756810128688812,0.10759579390287399,-0.014184084720909595,0.05892827734351158,-0.15455685555934906,0.09026188403367996,-0.1300208866596222,0.021350134164094925,0.007084374316036701,0.07530858367681503,-0.014180194586515427,-0.1418135017156601,0.034693121910095215,-0.021884234622120857,-0.04143258556723595,-0.1670091301202774,0.08499809354543686,-0.03048098087310791
images/POST_F240476_23_21_R.jpg,0.03665170073509216,-0.08052413910627365,0.03712122514843941,-0.037102967500686646,-0.08845410495996475,0.3472403883934021,-0.005644537508487701,0.012893429957330227,0.0508110448718071,0.042421698570251465,-0.049804624170064926,0.07375794649124146,0.22175049781799316,-0.050208933651447296,-0.02237008884549141,-0.09805016219615936,0.13607382774353027,-0.167619526386261,0.1808072179555893,0.17499777674674988,-0.03277409449219704,0.009205195121467113,-0.07041694223880768,0.17353904247283936,-0.03383997082710266,0.10503582656383514,0.03887719660997391,0.005165090784430504,-0.05340652912855148,-0.12143340706825256,0.16349837183952332,0.02026018314063549,0.023965757340192795,-0.012560823000967503,-0.1112738698720932,-0.04126785323023796,-0.13650715351104736,0.025485333055257797,0.005945735145360231,0.053366489708423615,0.02571682259440422,-0.015044370666146278,0.07463530451059341,-0.07688280940055847,-0.043734606355428696,-0.04643379896879196,0.01266565266996622,-0.04612405225634575,0.02591286599636078,-0.07098577171564102,0.030659563839435577,-0.02105979062616825,-0.09467901289463043,-0.15508924424648285,0.010221397504210472,0.06968630105257034,-0.04081278294324875,-0.14943581819534302,-0.013353876769542694,-0.08624649047851562,0.023332636803388596,-0.016859199851751328,0.16414481401443481,0.015138882212340832,-0.13924649357795715,-0.11702839285135269,0.0027607709635049105,-0.05390306934714317,-0.008687436580657959,0.05174041911959648,0.062283098697662354,-0.10739073157310486,0.1637074053287506,0.031066453084349632,0.13081425428390503,0.017371229827404022,-0.08438386768102646,-0.039859868586063385,-0.044923413544893265,0.12702739238739014,0.07874584197998047,-0.04934655502438545,-0.11357986181974411,0.029631251469254494,0.07130779325962067,0.05142786353826523,0.15612006187438965,-0.04910089448094368,-0.08190084993839264,0.05467373877763748,-0.035086117684841156,-0.17364005744457245,-0.02214628830552101,0.022082077339291573,0.16239005327224731,0.00519591523334384,0.003132072277367115,0.172367125749588,-0.046819496899843216,-0.00802992470562458,0.08675567060709,-0.04410532861948013,0.08880523592233658,0.11063481122255325,-0.0940791442990303,-0.07319829612970352,-0.04234311357140541,0.004153214395046234,-0.035152558237314224,-0.19355104863643646,0.06628087162971497,0.0029280155431479216,-0.012064478360116482,0.05412184074521065,-0.0400761254131794,-0.024337878450751305,-0.09856061637401581,0.020123153924942017,0.03542357683181763,-0.017091263085603714,0.043822068721055984,-0.042861003428697586,-0.038415852934122086,0.11540474742650986,-0.02197037823498249,-0.020631220191717148,0.01908404566347599,0.11247337609529495
images/POST_F240477_23_21_L.jpg,-0.051225919276475906,-0.10182046890258789,0.15938247740268707,-0.06675070524215698,-0.19440774619579315,0.060376208275556564,-0.09682486951351166,0.13438105583190918,0.006951507180929184,0.0608910396695137,0.025404879823327065,0.2092919796705246,0.13003575801849365,-0.05955525115132332,-0.0860210582613945,-0.07915805280208588,0.06907996535301208,0.14825931191444397,0.16616342961788177,-0.008567992597818375,0.024996811524033546,-0.09097559750080109,0.04204624891281128,0.056241486221551895,-0.06304100900888443,-0.029586656019091606,-0.12195271253585815,0.007931399159133434,-0.0261300727725029,-0.10733900219202042,-0.018166253343224525,-0.0212719663977623,0.07876842468976974,-0.14417459070682526,0.08363494277000427,-0.1348305493593216,0.14325426518917084,-0.05145760625600815,0.026507388800382614,-0.06004618853330612,0.010669942945241928,0.09998544305562973,0.057050857692956924,0.12131095677614212,-0.05170435830950737,0.08333577960729599,0.09832379221916199,-0.17743340134620667,0.02682366780936718,0.07789876312017441,0.005105144809931517,-0.02492757886648178,0.01377501804381609,-0.2191261202096939,0.12862150371074677,0.13279886543750763,0.04947218298912048,0.04225742071866989,0.019263366237282753,0.06939643621444702,0.23590977489948273,0.03722285106778145,0.023828677833080292,-0.08415581285953522,0.004239387344568968,0.07612545043230057,0.008461427874863148,0.0461508184671402,-0.04288211837410927,0.032893531024456024,-0.013507927767932415,0.10634409636259079,0.028780896216630936,-0.056953828781843185,0.1922985315322876,-0.05633581802248955,-0.11597645282745361,-0.023330561816692352,0.006517142988741398,0.030142273753881454,0.0029757970478385687,-0.14072687923908234,-0.018175190314650536,-0.09586140513420105,-0.01387572567909956,-0.0406048558652401,-0.1222381666302681,0.030448894947767258,0.00968400202691555,0.0063976808451116085,-0.12015771120786667,-0.0006552959093824029,-0.2287253737449646,0.025396589189767838,0.08371256291866302,-0.02482347935438156,0.01321391947567463,0.023546893149614334,-0.027080683037638664,-0.153508260846138,0.1704075187444687,0.05399400740861893,0.025601796805858612,-0.1304919719696045,-0.0031221879180520773,0.0038100830279290676,0.050512321293354034,-0.08962679654359818,0.039048753678798676,-0.022225821390748024,0.006301850080490112,0.12226153165102005,0.048210691660642624,-0.04316005855798721,-0.12058025598526001,-0.00944350566715002,0.03509077429771423,-0.06444396823644638,0.019220629706978798,0.029788726940751076,-0.09408285468816757,-0.15991909801959991,0.030400488525629044,0.07168722152709961,0.04154329374432564,-0.08600059896707535,0.011238791979849339,-0.03485969826579094
images/POST_F240479_23_21_L.jpg,0.0480550080537796,0.12109909951686859,-0.01640079729259014,-0.23255327343940735,-0.03314097225666046,0.08221963047981262,0.04642132669687271,-0.04752426594495773,0.03480756655335426,-0.13998587429523468,-0.00543584581464529,0.22804705798625946,0.03684590384364128,-0.09075240790843964,0.14783377945423126,-0.055064260959625244,-0.047821253538131714,0.035234302282333374,0.05469890311360359,0.026546034961938858,0.07712840288877487,-0.17583207786083221,0.10958264768123627,0.052854180335998535,-0.010669072158634663,-0.03554397448897362,-0.11721191555261612,0.03939899057149887,-0.03090713359415531,0.00946005154401064,-0.05145302414894104,-0.101976677775383,-0.039653852581977844,0.12779825925827026,-0.11625926196575165,-0.1724708378314972,-0.05471288040280342,0.0284555796533823,0.0946078971028328,-0.11729500442743301,-0.027993183583021164,0.06926047801971436,0.014821617864072323,-0.034892819821834564,0.029167868196964264,0.000726597907487303,-0.05182831361889839,-0.11131592839956284,0.034939054399728775,0.002144165802747011,-0.05899389088153839,0.033523235470056534,0.11467545479536057,-0.25631389021873474,0.11871429532766342,0.03603092581033707,0.047867488116025925,0.041476983577013016,0.034156329929828644,0.0750541090965271,0.09670209139585495,0.17101112008094788,-0.005941242910921574,0.014378401450812817,-0.09399507939815521,0.06104182079434395,-0.025066865608096123,-0.12288559973239899,0.008562063798308372,-0.029886165633797646,0.10995759814977646,0.034951791167259216,0.018286071717739105,-0.07491239160299301,0.01698785275220871,0.004547478165477514,-0.18865594267845154,-0.08227993547916412,0.05707428604364395,-0.10892337560653687,0.029044518247246742,0.06899821758270264,-0.08373109251260757,-0.09376488626003265,0.05354018881917,0.07312332093715668,-5.9303340094629675e-05,0.07682029902935028,0.01993374340236187,-0.019743099808692932,0.004375271033495665,-0.0009180069318972528,-0.021324507892131805,0.10113247483968735,0.13297244906425476,-0.006699944380670786,-0.07496590912342072,-0.046606916934251785,-0.15558366477489471,-0.007543342188000679,0.17917297780513763,-0.16638778150081635,0.024160120636224747,0.021277081221342087,-0.053207624703645706,-0.04876396059989929,0.013078172691166401,-0.1431703120470047,-0.09289000928401947,0.11476446688175201,-0.08027950674295425,0.10505001246929169,-0.025804709643125534,-0.02549857273697853,-0.038671720772981644,-0.004022407811135054,-0.17139115929603577,0.054927024990320206,0.08035939931869507,0.06527397781610489,0.0025888513773679733,0.13013164699077606,0.1320207118988037,-0.04321472346782684,-0.05738542601466179,-0.07179796695709229,0.13237516582012177,-0.14783553779125214
images/POST_F240480_23_21_R.jpg,0.07809334248304367,0.031260937452316284,0.07688417285680771,-0.24682827293872833,-0.08768312633037567,0.1664864420890808,-0.009194047190248966,0.0005474345525726676,0.0033642423804849386,0.030027395114302635,-0.05356191471219063,0.2637479901313782,0.05914744734764099,-0.07852048426866531,0.12122398614883423,-0.044997695833444595,-0.09074070304632187,0.05469285696744919,0.1035962775349617,0.004519529640674591,0.06978435814380646,-0.12854470312595367,-0.08068801462650299,0.03543345630168915,0.059257738292217255,-0.06975532323122025,-0.0823407843708992,0.11321934312582016,-0.03880731761455536,-0.0631478801369667,-0.01739583909511566,-0.03169913589954376,-0.015283506363630295,-0.03805658221244812,-0.05394512414932251,-0.1956906020641327,-0.07603133469820023,-0.04898856580257416,0.08484041690826416,-0.0630769208073616,-0.021206911653280258,0.07211026549339294,0.08587799966335297,-0.0037245494313538074,-0.07120654731988907,-0.10288508236408234,-0.1331714242696762,-0.09809199720621109,0.11238497495651245,-0.0032418754417449236,-0.006446892861276865,0.006094363983720541,0.20814073085784912,-0.22944791615009308,0.12283976376056671,0.017206965014338493,0.020482361316680908,-0.05975525081157684,-0.019606035202741623,0.1082518920302391,0.0602099783718586,0.12201225012540817,-0.0017313675489276648,0.05240771546959877,-0.006515690591186285,-0.001264289952814579,0.025622332468628883,-0.1357678771018982,0.022804323583841324,0.013114328496158123,0.05049058794975281,0.037393517792224884,0.06630755960941315,-0.1308494210243225,0.10841808468103409,-0.08145427703857422,-0.10688087344169617,0.0028415080159902573,0.06866966187953949,0.0651271641254425,0.05738209933042526,-0.012118845246732235,-0.038212504237890244,-0.11210879683494568,0.04423396661877632,0.0014841984957456589,-0.07044030725955963,0.027399977669119835,0.07689666002988815,0.06509597599506378,-0.007426052819937468,-0.02016068436205387,-0.1955559253692627,0.07405837625265121,0.16382025182247162,-0.0015355551149696112,-0.12127646058797836,-0.09580598026514053,-0.013817882165312767,-0.022291388362646103,0.22524937987327576,-0.05133003368973732,0.03458324819803238,-0.02611212432384491,-0.05487822741270065,-0.06208665668964386,0.006649679969996214,-0.1635875403881073,-0.028882453218102455,0.0206944290548563,0.009469573386013508,0.10858836770057678,-0.09358762949705124,0.0046766046434640884,0.02305123396217823,-0.026984604075551033,-0.0506497323513031,0.1795056015253067,0.08450288325548172,0.0693487673997879,0.05556868761777878,-0.06371086835861206,0.13035155832767487,0.0704973116517067,-0.04393165558576584,-0.06402832269668579,0.11680874973535538,-0.05141853168606758
images/POST_F240481_23_21_L.jpg,0.12794454395771027,0.042932942509651184,0.06753154844045639,-0.12180700898170471,-0.15273888409137726,0.14324915409088135,-0.03814401105046272,-0.11664766818284988,-0.011605662293732166,-0.01783362589776516,-0.0015051380032673478,0.18664391338825226,0.1634727567434311,0.03653770685195923,0.053704336285591125,0.04922983795404434,-0.04451395571231842,0.03561924025416374,0.0021007126197218895,0.06171463429927826,0.07616616040468216,0.01054695900529623,0.011692925356328487,0.07763735949993134,0.07031751424074173,-0.11141183227300644,-0.1356992870569229,-0.03324063867330551,0.06978930532932281,-0.13226427137851715,-0.0002475249348208308,-0.08999355137348175,-0.013882898725569248,0.1707950383424759,-0.06066834181547165,-0.18346337974071503,-0.03363732248544693,-0.055708713829517365,0.049137864261865616,-0.09950490295886993,0.033162206411361694,0.10715171694755554,0.11947019398212433,-0.050213903188705444,-0.16498622298240662,-0.07642950862646103,-0.03101240284740925,-0.11044230312108994,0.09150081872940063,0.04456186294555664,-0.02954052947461605,-0.07210373133420944,0.028751438483595848,-0.22317291796207428,0.2083306461572647,-0.05660765618085861,0.030071919783949852,-0.02144942432641983,0.012372252531349659,-0.01185244508087635,0.09645704925060272,0.028647448867559433,0.11101020872592926,0.09732222557067871,-0.09745076298713684,0.10453049093484879,-0.022957583889365196,-0.0709097757935524,-0.02362535521388054,-0.02006753534078598,0.0475810207426548,-0.00937419943511486,0.06856442987918854,-0.0679033100605011,0.1417098343372345,-0.019003523513674736,-0.09876736253499985,0.010579152964055538,0.09430988878011703,-0.0036113939713686705,0.014151230454444885,-0.04648376628756523,-0.1071329116821289,0.07074364274740219,0.14178019762039185,0.060177650302648544,-0.1064184382557869,-0.0020880578085780144,-0.009095096960663795,-0.03662455826997757,0.10623546689748764,0.014972181990742683,0.036754898726940155,0.07271980494260788,0.18617118895053864,0.039243925362825394,-0.05708182230591774,0.07797962427139282,-0.0981111153960228,-0.19105689227581024,0.09788032621145248,-0.0642952099442482,-0.010493156500160694,0.06491456925868988,-0.015953311696648598,-0.023044219240546227,-0.04411347955465317,-0.07424172013998032,-0.2510353624820709,-0.013791877776384354,0.06903280317783356,0.19028031826019287,0.03463127091526985,-0.03276434168219566,-0.054100245237350464,-0.04134010151028633,-0.07584884762763977,0.0008414743933826685,-0.0035440975334495306,0.08288440108299255,-0.04925853759050369,-0.07923605293035507,0.17719288170337677,-0.03794027119874954,-0.019250573590397835,-0.07551726698875427,0.0313408225774765,-0.02613529935479164
images/POST_F240482_23_21_L.jpg,0.06483715772628784,0.1485251635313034,0.11433172225952148,-0.14879557490348816,0.02602703869342804,0.07883398979902267,0.013697800226509571,0.016730917617678642,-0.027797237038612366,-0.057675350457429886,-0.06096477806568146,0.34351256489753723,0.06883327662944794,-0.05790387839078903,0.040942348539829254,-0.07230480015277863,0.026073835790157318,0.1291297823190689,0.10297900438308716,0.002414474729448557,0.041819069534540176,-0.06123492121696472,-0.10946503281593323,-0.006230797152966261,-0.001040716073475778,-0.12653648853302002,-0.15477144718170166,0.10983053594827652,-0.08381238579750061,-0.1930309385061264,-0.02566509135067463,-0.012770203873515129,0.035578321665525436,-0.07644660025835037,0.011769324541091919,-0.10441721230745316,-0.015093287453055382,-0.21487018465995789,-0.06803269684314728,0.02434229478240013,-0.009338248521089554,0.08258466422557831,0.1590777039527893,0.15264903008937836,-0.07626678794622421,-0.028686217963695526,-0.0980948656797409,-0.09633146226406097,0.01064067892730236,0.010851218365132809,0.003817101940512657,0.012357302941381931,0.05642902851104736,-0.1693645715713501,0.2064337432384491,0.07108612358570099,-0.03178979083895683,-0.07188040763139725,0.029900945723056793,0.07586361467838287,0.12191452831029892,0.02967982180416584,0.049762021750211716,0.0032912674359977245,0.036943115293979645,0.05675088241696358,-0.022917883470654488,0.01803125999867916,0.018408343195915222,0.0048011778853833675,-0.015525242313742638,0.07790817320346832,0.007317320443689823,-0.03972482681274414,0.14255167543888092,-0.025441301986575127,-0.01651657745242119,-0.006727142725139856,0.043849702924489975,0.05259011313319206,0.09698406606912613,0.13193941116333008,-0.0998944640159607,-0.1283378154039383,0.03449495509266853,-0.06317447870969772,-0.10744238644838333,-0.06684374064207077,0.03334720432758331,0.12238110601902008,-0.13427890837192535,0.008249358274042606,-0.1519550234079361,-0.06951186805963516,0.05624084547162056,-0.10618063062429428,-0.06652265787124634,-0.08387574553489685,0.05846359208226204,0.06537073850631714,0.08635218441486359,-0.053368326276540756,-0.05238576605916023,-0.018073899671435356,-0.09793370217084885,-0.12621307373046875,0.018159056082367897,-0.07817524671554565,-0.04380466043949127,-0.05037400871515274,-0.02817625366151333,0.17491181194782257,0.05490756407380104,0.016105731949210167,-0.003883852856233716,0.025210006162524223,0.05684012547135353,0.12180759012699127,0.17229638993740082,0.09564191848039627,0.010114533826708794,-0.08020178973674774,0.1465839147567749,0.019816014915704727,0.03710281103849411,-0.025828145444393158,0.05750720202922821,0.016388658434152603
images/POST_F240483_23_21_R.jpg,0.05174946412444115,0.0727597177028656,0.11350240558385849,-0.13551951944828033,-0.05523226410150528,0.13121090829372406,-0.025444798171520233,0.1555657684803009,0.009521438740193844,0.044871244579553604,-0.04037189856171608,0.1225537359714508,0.1946457475423813,-0.08713795244693756,0.02369816042482853,-0.03968802094459534,0.023914499208331108,-0.08165942132472992,0.12853436172008514,0.06386297196149826,0.06459241360425949,-0.016838252544403076,0.003217491088435054,-0.03456803783774376,-0.16383306682109833,-0.04199333116412163,-0.0097612040117383,0.03474123403429985,-0.1090124100446701,0.0013189632445573807,-0.09699545800685883,-0.053347401320934296,-0.03170999139547348,-0.10555163025856018,-0.0017909023445099592,-0.14795294404029846,0.1016421914100647,-0.11875724047422409,0.07914137840270996,-0.03387664631009102,0.05229650065302849,-0.03958035632967949,0.13452742993831635,0.08382667601108551,-0.016229048371315002,0.06029389053583145,-0.0026364836376160383,-0.15064074099063873,-0.0061008259654045105,0.001209553680382669,-0.10877513140439987,0.1436913162469864,0.03640028089284897,-0.1272783875465393,-0.06889544427394867,0.00585030484944582,0.1068989634513855,-0.058358293026685715,-0.006065653637051582,0.007408232428133488,0.02862301655113697,0.1365482360124588,-0.013536836951971054,0.11193515360355377,-0.011546693742275238,-0.06972851604223251,0.08943115174770355,-0.17744849622249603,-0.14754974842071533,-0.0002692315902095288,0.05313897505402565,0.08330745249986649,0.1058187410235405,-0.04939987137913704,0.16314318776130676,0.032094381749629974,-0.10538900643587112,0.012205036357045174,0.023683706298470497,-0.06086834892630577,0.09225822985172272,0.05546160042285919,-0.0010078399209305644,-0.17591117322444916,0.10889419913291931,-0.19718009233474731,-0.12686973810195923,0.010514415800571442,-0.08159121125936508,-0.005583221558481455,-0.1699369102716446,-0.01217275857925415,-0.1536460518836975,-0.026621371507644653,0.09307556599378586,-0.03345469385385513,-0.004422246944159269,0.027605542913079262,-0.08250454068183899,-0.12915030121803284,0.20337887108325958,-0.1205429807305336,-0.05622202903032303,0.02451305091381073,-0.08885887265205383,0.10741474479436874,0.09410793334245682,-0.0599931962788105,0.05792222544550896,0.08378405123949051,-0.009765266440808773,0.08368374407291412,0.06288205832242966,0.03935179486870766,-0.07005001604557037,-0.06922697275876999,-0.02719072252511978,-0.02269284427165985,0.05092845857143402,0.004325808957219124,0.10687635093927383,-0.1496739387512207,0.02672213315963745,0.09528759121894836,0.022837847471237183,-0.12502993643283844,0.1154976338148117,0.018223367631435394
images/POST_F240486_23_21_R.jpg,-0.07086875289678574,0.08231765776872635,0.14898543059825897,-0.1336878538131714,-0.15397733449935913,0.0593845508992672,-0.10340568423271179,-0.03492997959256172,-0.07987349480390549,0.02227271907031536,0.06939933449029922,0.045952778309583664,0.06531862169504166,-0.09315915405750275,-0.06727319210767746,-0.023263633251190186,0.04494092985987663,-0.0598294697701931,0.16290906071662903,0.0487612821161747,0.08247299492359161,0.009618895128369331,0.05113266035914421,0.12370014935731888,-0.1152055636048317,-0.040241409093141556,-0.1485414355993271,-0.15830104053020477,0.06665793806314468,-0.15668261051177979,-0.03069865144789219,-0.16379743814468384,0.17124208807945251,0.012310725636780262,0.0757666677236557,-0.01617630384862423,0.1363474577665329,-0.0018017033580690622,0.07233694195747375,-0.09502977877855301,0.009570305235683918,0.012187267653644085,-0.04883889853954315,0.1493842601776123,-0.09508867561817169,0.03868439793586731,-0.0222760122269392,-0.022092770785093307,0.13393934071063995,-0.08210830390453339,-0.006818090565502644,-0.12008768320083618,-0.059400524944067,-0.14620192348957062,-0.06271430850028992,0.08056584745645523,0.05373602733016014,-0.038468845188617706,-0.06910482794046402,0.004377414938062429,-0.010597714222967625,-0.043361108750104904,-0.04294809699058533,-0.08973116427659988,-0.16905979812145233,0.10247273743152618,0.07668188214302063,-0.08948972821235657,0.15369346737861633,0.11323872208595276,0.039424456655979156,-0.021036379039287567,-0.14859642088413239,-0.007565911393612623,0.06392532587051392,-0.03564402088522911,-0.04958570748567581,-0.008503492921590805,0.00582317728549242,0.018552502617239952,0.10430441051721573,-0.20178905129432678,-0.05528847128152847,0.01144036278128624,0.16168926656246185,0.07068788260221481,-0.04740564525127411,0.035590462386608124,-0.145804762840271,0.015448547899723053,0.04009602591395378,-0.002012348733842373,0.07319444417953491,0.06446021795272827,-0.04224498197436333,0.015457317233085632,0.04390323534607887,0.04758457839488983,-0.09979265928268433,-0.1359204351902008,-0.061198342591524124,-0.12790043652057648,0.10180564969778061,0.12182164192199707,-0.06656824797391891,0.0024222906213253736,0.03199067711830139,-0.10399894416332245,-0.17983262240886688,0.06259708106517792,-0.02605198137462139,-0.011651751585304737,-0.018545687198638916,0.061133865267038345,-0.1361854076385498,-0.06895021349191666,0.0350811630487442,-0.1626986712217331,0.011877013370394707,0.07201840728521347,-0.0642077624797821,-0.1611761748790741,-0.059905458241701126,0.07953917235136032,0.03923661261796951,-0.07455281913280487,0.028022339567542076,0.11507205665111542
images/POST_F240487_23_21_L.jpg,-0.0013199042296037078,0.055993326008319855,0.13264301419258118,-0.09053287655115128,-0.06431551277637482,0.06158657744526863,-0.05118320882320404,-0.039964087307453156,-0.10002775490283966,0.047677259892225266,-0.04453873634338379,0.13399700820446014,0.02718588337302208,-0.09603413939476013,-0.08605940639972687,0.04100540280342102,0.01229432038962841,-0.0811338871717453,-0.020129261538386345,-0.14965884387493134,0.12716655433177948,-0.005038435570895672,-0.026621753349900246,-0.022155769169330597,-0.11134287714958191,-0.061442699283361435,-0.09974494576454163,0.03640305995941162,-0.10007812082767487,0.0013334095710888505,0.01520633976906538,-0.010282749310135841,0.024425996467471123,-0.056149326264858246,-0.012270542792975903,-0.07984571903944016,0.09165152162313461,-0.1271578073501587,0.13091179728507996,-0.05986518785357475,0.00025605838163755834,-0.019303008913993835,0.00258674006909132,-0.02935877814888954,0.06687865406274796,0.1281428188085556,-0.006968414876610041,0.0008179171127267182,-0.03918248414993286,0.05769414082169533,-0.06542408466339111,-0.056497566401958466,0.025444012135267258,-0.16755755245685577,0.07362973690032959,0.14608345925807953,-0.024565497413277626,-0.08315251022577286,0.19652828574180603,-0.026936940848827362,-0.04049227014183998,-0.12206496298313141,0.06577321887016296,0.029621828347444534,-0.05381973832845688,-0.15766392648220062,-0.0910574346780777,-0.0910959243774414,-0.15275868773460388,-0.08273402601480484,-0.03136243671178818,0.07648877799510956,-0.022833144292235374,-0.05530169606208801,0.14674071967601776,-0.0645972415804863,-0.06744188815355301,0.16621960699558258,0.028308629989624023,-0.05617671459913254,-0.0010496608447283506,-0.14378251135349274,-0.20450899004936218,-0.06642299145460129,0.03230312094092369,-0.08825588971376419,-0.11076387017965317,-0.029062025249004364,-0.13988924026489258,-0.06672104448080063,-0.018037457019090652,0.02496097981929779,-0.00661237258464098,-0.07819527387619019,0.19733543694019318,-0.0951366275548935,0.06829698383808136,-0.025042064487934113,0.01436116173863411,-0.10542887449264526,0.06770243495702744,-0.012722617946565151,-0.006552370265126228,-0.08628518134355545,-0.15382401645183563,-0.048602283000946045,-0.016145072877407074,-0.10289633274078369,-0.1314038187265396,0.043264832347631454,0.039207905530929565,0.04132578521966934,0.07776894420385361,0.051017578691244125,0.0033923485316336155,0.07444951683282852,0.11540424823760986,0.046925138682127,-0.19264867901802063,0.1945015788078308,-0.0839274451136589,-0.190932497382164,0.19385942816734314,0.05332482233643532,-0.10518138855695724,-0.028752174228429794,0.05136154592037201,0.05259271711111069
images/POST_F240488_23_21_R.jpg,-0.0749187245965004,-0.008919745683670044,0.01028192974627018,-0.111666738986969,-0.18877418339252472,0.10162006318569183,-0.10117624700069427,0.24700698256492615,0.006322208326309919,0.11434464901685715,-0.013771763071417809,0.08319607377052307,0.06781788170337677,-0.055562276393175125,-0.09479407966136932,0.021348636597394943,-0.07621534168720245,-0.02463194914162159,0.15430398285388947,-0.0016321077710017562,-0.09139066189527512,-0.004068427719175816,0.013218114152550697,0.07977425307035446,-0.22993063926696777,-0.037823084741830826,0.0065866634249687195,-0.035813331604003906,-0.19886378943920135,-0.001545903505757451,-0.1531965732574463,-0.07545896619558334,0.06290595978498459,-0.08981502056121826,0.030359918251633644,-0.028333645313978195,0.13311678171157837,-0.08669673651456833,0.1510099172592163,-0.09448971599340439,0.04638511314988136,-0.0147599121555686,0.024851417168974876,0.15843722224235535,0.039041537791490555,0.017301104962825775,0.09281653165817261,-0.09522584825754166,-0.042441993951797485,0.040782056748867035,-0.04146994277834892,0.041003111749887466,0.039054565131664276,-0.10116393864154816,-0.09509924054145813,0.056818705052137375,0.010983632877469063,0.025358594954013824,-0.10658208280801773,-0.0483342781662941,0.044102467596530914,0.09605161845684052,-0.03453679010272026,-0.03687864914536476,0.04303441569209099,0.025872189551591873,0.0036516564432531595,-0.10767466574907303,-0.049028702080249786,-0.039877548813819885,0.09827692806720734,0.08219961822032928,0.0336957611143589,0.016167722642421722,0.12072478234767914,-0.03885476663708687,-0.1671404242515564,0.06192701309919357,0.13462983071804047,0.0007994635379873216,0.06175488233566284,-0.17899975180625916,0.037764791399240494,-0.01677256077528,0.09271305054426193,-0.11675044894218445,-0.04386056587100029,0.13404466211795807,-0.0007024206570349634,0.004255038220435381,-0.1084873229265213,-0.03557590767741203,-0.14059945940971375,0.159706249833107,-0.002247219905257225,0.05609511211514473,0.005300088785588741,-0.031094519421458244,-0.16165632009506226,-0.0715765431523323,0.11075194180011749,-0.020720507949590683,0.010839770548045635,-0.04453512653708458,-0.11163154244422913,-0.027612822130322456,0.02446824125945568,-0.053224172443151474,-0.03294118493795395,0.13239701092243195,0.11271200329065323,0.02637435868382454,0.06271683424711227,0.10366586595773697,-0.17610256373882294,-0.010509094223380089,0.022153068333864212,-0.07831493020057678,-0.028402529656887054,-0.026986511424183846,-0.09920313209295273,-0.13832825422286987,-0.06372320652008057,0.15549634397029877,-0.034139398485422134,-0.11061251908540726,0.08993271738290787,-0.09404107928276062
images/POST_F240489_23_21_R.jpg,0.014746599830687046,-0.08596254885196686,0.14637157320976257,-0.11766728013753891,-0.17698971927165985,0.13334113359451294,-0.12358573079109192,0.14113757014274597,-0.006388089153915644,0.05613169074058533,0.09109383076429367,0.08305582404136658,0.08229777961969376,-0.1310448795557022,-0.03206625208258629,-0.06975246220827103,0.09387136250734329,0.024023963138461113,0.1719316840171814,0.08892133086919785,0.04324780032038689,-0.09467374533414841,0.11158242076635361,0.026759134605526924,-0.06405701488256454,-0.014167319983243942,-0.08384694159030914,-0.06177821755409241,-0.026944687590003014,0.014382392168045044,-0.032776858657598495,-0.08787520229816437,0.04517412558197975,-0.16143009066581726,0.04433056712150574,-0.06536560505628586,0.15750578045845032,0.06611350178718567,0.12054380774497986,-0.016329584643244743,-0.032317113131284714,0.04075992479920387,0.08219243586063385,0.0821455791592598,-0.005177266430109739,0.10736168920993805,-0.01859334670007229,-0.0905652567744255,0.08953332155942917,0.04236358031630516,0.02741074003279209,0.03866526857018471,0.0704674944281578,-0.19390864670276642,-0.03711485117673874,0.12402184307575226,0.06665245443582535,-0.0017799349734559655,0.0019190656021237373,0.13462822139263153,0.15510712563991547,0.07039126008749008,0.017747577279806137,0.008416302502155304,0.02704557031393051,-0.018762731924653053,0.055280979722738266,-0.07673212885856628,-0.07435363531112671,0.0721932202577591,0.025278763845562935,0.06124328821897507,-0.04208502918481827,-0.07190417498350143,0.24189099669456482,-0.04822750389575958,-0.17269419133663177,-0.004107015673071146,-0.10475852340459824,0.03881014138460159,0.05189521238207817,-0.08184657245874405,-0.00022369589714799076,-0.06613211333751678,0.037046972662210464,-0.07685733586549759,-0.15248632431030273,0.012879778631031513,-0.15789787471294403,-0.10982846468687057,-0.07277420908212662,2.622984720801469e-05,-0.14672262966632843,0.05511707067489624,0.009465444833040237,0.019348425790667534,-0.017399104312062263,0.0059117889031767845,-0.10803348571062088,-0.1685708463191986,0.161280557513237,-0.1315867304801941,0.06789334118366241,-0.03161044046282768,-0.11182187497615814,0.018258078023791313,0.03218957781791687,-0.12838362157344818,0.0549926832318306,0.0034160702489316463,0.006927814334630966,-0.0030056354589760303,0.04465499892830849,-0.007031919900327921,-0.04482506588101387,-0.09343680739402771,0.0023447175044566393,-0.021231437101960182,0.002817580010741949,0.08098644763231277,0.06005310267210007,-0.2738496959209442,0.01739909127354622,0.054436247795820236,-0.06886045634746552,-0.11893630027770996,0.008779040537774563,0.019856756553053856
images/POST_F240490_23_21_R.jpg,0.03979519009590149,0.058988552540540695,0.08621373027563095,-0.08440137654542923,-0.005676988512277603,0.14226076006889343,0.04420653358101845,0.07137502729892731,-0.0032822764478623867,0.1383589655160904,-0.00526790227741003,0.09901982545852661,-0.021428409963846207,-0.049826208502054214,-0.15894575417041779,-0.06356038898229599,-0.11503271758556366,-0.09298638254404068,-0.0076550948433578014,0.029372191056609154,0.17691971361637115,-0.11611966788768768,-0.12325514853000641,0.07258552312850952,-0.20121440291404724,-0.14367912709712982,-0.03002750687301159,-0.06721310317516327,-0.17912091314792633,-0.11149117350578308,0.006027220748364925,-0.05818026140332222,-0.03544839844107628,-0.027995847165584564,-0.04726861044764519,-0.127285897731781,-0.06383170932531357,-0.1924538016319275,0.18883660435676575,-0.026114344596862793,0.053771451115608215,-0.05373607948422432,0.06606904417276382,0.05982217192649841,-0.07236575335264206,-0.043119315057992935,0.04277590289711952,0.08340878784656525,-0.10423818230628967,-0.07027074694633484,-0.18641209602355957,0.0692714974284172,0.05308718979358673,-0.0785674899816513,0.052132245153188705,0.07030635327100754,0.09169992059469223,-0.06563258171081543,0.025026239454746246,-0.01015456672757864,-0.025781895965337753,0.005038376897573471,0.01269859354943037,0.01422884315252304,-0.007997328415513039,0.053847555071115494,-0.024942418560385704,-0.08321299403905869,-0.14236748218536377,0.0524093359708786,-0.009784038178622723,0.06821774691343307,0.08723011612892151,0.04440845549106598,0.03588917478919029,-0.043777946382761,0.00995342805981636,0.09537484496831894,0.049691349267959595,0.06816098839044571,-0.0007506160181947052,-0.2356887310743332,0.022304512560367584,-0.10008600354194641,0.14356981217861176,-0.040719207376241684,-0.09970724582672119,-0.05815839394927025,0.12703603506088257,0.04843403398990631,-0.07522665709257126,-0.01958083175122738,-0.11711108684539795,0.08937764167785645,0.18861064314842224,-0.08985733985900879,-0.0071510677225887775,-0.08902516216039658,-0.07602694630622864,-0.08950628340244293,0.08157426118850708,-0.037862055003643036,-0.07865965366363525,0.07142168283462524,-0.00626596761867404,-0.06229010969400406,0.103681780397892,-0.0756530687212944,-0.06127429008483887,0.11471080780029297,0.1828102022409439,0.039212536066770554,0.055580850690603256,0.09081513434648514,-0.1948874592781067,0.044268157333135605,-0.032642047852277756,0.10928324609994888,-0.046559322625398636,-0.0033193209674209356,-0.08552905917167664,-0.010612075217068195,-0.014106963761150837,0.05911373719573021,-0.10011737793684006,-0.049127161502838135,0.09517066180706024,-0.06215527653694153
images/POST_F240491_23_21_L.jpg,-0.08532042056322098,0.04754726588726044,0.13034594058990479,-0.09267596900463104,-0.20744343101978302,0.08787982165813446,-0.07583880424499512,0.08099079132080078,0.04135477542877197,-0.06305146962404251,-0.058977168053388596,0.14313480257987976,0.10237997025251389,-0.05372001975774765,0.03926883265376091,-0.03262345492839813,-0.08217240869998932,0.06969312578439713,0.09189365804195404,0.002918484853580594,0.02803918346762657,0.06528174132108688,-0.009515524841845036,0.06425435841083527,-0.08735431730747223,0.04255431517958641,-0.042192697525024414,-0.11376183480024338,0.07485207915306091,0.028816645964980125,-0.09856781363487244,-0.030053850263357162,-0.02337358146905899,-0.06325259059667587,0.00826316885650158,-0.15491722524166107,0.1306537538766861,-0.045088961720466614,0.0412449948489666,-0.11275511234998703,0.051855623722076416,0.040302861481904984,0.01323020365089178,0.05637364089488983,-0.02185964398086071,0.15389931201934814,0.11772102862596512,-0.287149578332901,0.03725171834230423,0.08380560576915741,-0.0675044059753418,0.07650713622570038,0.10110069066286087,-0.20674161612987518,0.0003410099307075143,0.002684486098587513,0.04884106293320656,-0.06174317002296448,0.023047445341944695,0.09589981287717819,0.160247802734375,0.119772769510746,-0.04789557307958603,0.0010029897093772888,0.012644476257264614,0.0783194899559021,0.12736405432224274,-0.0056975665502250195,-0.08057914674282074,-0.013022823259234428,0.0679057314991951,0.04844682663679123,0.08116631209850311,-0.1508232057094574,0.2247338593006134,0.00038850255077704787,-0.19296376407146454,0.023201435804367065,-0.02454795129597187,-0.04059380292892456,0.03446045145392418,-0.06597616523504257,-0.10493146628141403,-0.03324449434876442,0.06800783425569534,-0.00499595794826746,-0.15881934762001038,0.131119966506958,-0.09892284870147705,-0.07629064470529556,0.029171591624617577,0.03714369237422943,-0.07972121983766556,-0.0813230648636818,0.04476656764745712,0.10566765069961548,0.024935659021139145,0.10693502426147461,0.004905404057353735,-0.18309332430362701,0.11533881723880768,-0.06721056252717972,0.04321829229593277,-0.051595259457826614,0.002048090798780322,0.017814114689826965,-0.019368670880794525,0.04924634471535683,0.0014175290707498789,0.07950583845376968,-0.05924293026328087,0.014080377295613289,0.05548040568828583,-0.04649529978632927,-0.10126978158950806,-0.059211187064647675,-0.09707343578338623,-0.0185900516808033,0.042745381593704224,0.09487985819578171,0.0062250117771327496,-0.2108275145292282,0.03740506246685982,0.05018679425120354,0.07874386012554169,-0.15353310108184814,0.02601863630115986,0.032208334654569626
