,0,1,2,3,4,5,6,7,8,9,10,11,12,13,14,15,16,17,18,19,20,21,22,23,24,25,26,27,28,29,30,31,32,33,34,35,36,37,38,39,40,41,42,43,44,45,46,47,48,49,50,51,52,53,54,55,56,57,58,59,60,61,62,63,64,65,66,67,68,69,70,71,72,73,74,75,76,77,78,79,80,81,82,83,84,85,86,87,88,89,90,91,92,93,94,95,96,97,98,99,100,101,102,103,104,105,106,107,108,109,110,111,112,113,114,115,116,117,118,119,120,121,122,123,124,125,126,127
images/PRE_F240537_23_21_R.jpg,0.03150404244661331,-0.0937575027346611,-0.1195455864071846,-0.0925503745675087,-0.21397289633750916,0.17004860937595367,-0.12904344499111176,-0.009850072674453259,-0.00023310112010221928,-0.010195967741310596,-0.033157818019390106,0.10842093080282211,-0.08239540457725525,0.0914241150021553,-0.03427276387810707,-0.15196894109249115,0.06785061955451965,0.07839978486299515,0.03216375783085823,-0.04121830686926842,0.008979935199022293,-0.17928721010684967,0.020440779626369476,-0.07248555123806,0.09990614652633667,-0.09466074407100677,-0.05675939470529556,-0.13642436265945435,0.04258555918931961,0.07732423394918442,0.21564142405986786,-0.0957447811961174,0.1313081979751587,0.0538325160741806,-0.1572696715593338,-0.10202400386333466,0.0009016672847792506,0.13389359414577484,0.014220481738448143,-0.034896254539489746,0.03875580057501793,0.09057045727968216,0.06735225021839142,-0.06343209743499756,0.1292317658662796,-0.02685192972421646,0.021823201328516006,0.047783706337213516,0.11842120438814163,-0.05274662375450134,-0.09687568992376328,-0.01666218228638172,0.07549744099378586,-0.17051580548286438,0.0902017131447792,0.08876222372055054,-0.009065051563084126,0.04912068322300911,0.20877133309841156,0.004456423223018646,0.1956125795841217,0.17574335634708405,-0.040555618703365326,0.14802588522434235,0.04343884065747261,0.08439069241285324,-0.11984408646821976,0.01235056109726429,-0.12556396424770355,-0.05751610919833183,0.011498335748910904,-0.014326462522149086,0.08719661086797714,-0.17430837452411652,0.14253751933574677,-0.056419774889945984,-0.0009334944188594818,-0.06390035152435303,0.042077288031578064,0.0034453084226697683,-0.10091347992420197,0.010601767338812351,-0.04885485768318176,0.016087407246232033,0.01187440287321806,0.1001126691699028,-0.15516440570354462,0.07432369887828827,-0.03668129816651344,-0.025976788252592087,-0.0024143424816429615,0.05060551315546036,-0.0684368759393692,0.035906530916690826,0.13913452625274658,-0.006614511366933584,-0.0017642293823882937,0.060723163187503815,-0.0651685819029808,0.028758622705936432,0.13126584887504578,-0.04241187870502472,0.10190055519342422,0.09613499045372009,0.00033278719638474286,0.05131276696920395,0.021573547273874283,0.00503520155325532,-0.07431790232658386,-0.0820804238319397,-0.025536684319376945,0.01298336498439312,-0.11914349347352982,-0.013041100464761257,-0.10301842540502548,-0.042748402804136276,-0.1120370551943779,0.08587311208248138,0.016956737264990807,0.05464117228984833,0.06147820129990578,0.03921327739953995,0.041090916842222214,-0.007951383478939533,-0.08362528681755066,-0.11817178875207901,0.058412160724401474,-0.02741388976573944
images/PRE_F240836_23_21_R.jpg,-0.0999523401260376,-0.06193245202302933,0.03857133910059929,-0.09319202601909637,-0.01501673087477684,-0.027787819504737854,-0.08120027184486389,0.12823444604873657,0.07219630479812622,0.019946502521634102,0.15925832092761993,0.13664300739765167,0.15934967994689941,-0.08173001557588577,0.05171072855591774,-0.11132454127073288,-0.0033135665580630302,0.14133456349372864,0.057530201971530914,-0.10122842341661453,0.06641461700201035,-0.07896271347999573,-0.061105597764253616,0.00016908711404539645,-0.0820755586028099,-0.1990763545036316,-0.07421702891588211,-0.023487931117415428,-0.08954627066850662,-0.0503120981156826,-0.1461290717124939,0.03227076679468155,-0.024787912145256996,-0.060375336557626724,0.12663909792900085,-0.06990223377943039,0.06023497134447098,-0.03624365106225014,-0.07054075598716736,-0.055835265666246414,0.10616341233253479,0.020804066210985184,0.03372814133763313,0.10645858198404312,-0.18763424456119537,0.013651040382683277,0.1747300773859024,-0.18083539605140686,0.03347543627023697,0.015221742913126945,-0.17628568410873413,0.06595327705144882,-0.032762765884399414,-0.06573192030191422,0.08751054853200912,-0.020735153928399086,-0.05560070276260376,-0.04526909068226814,-0.05635739117860794,-0.07046634703874588,0.12490177899599075,0.08695951104164124,-0.005091250874102116,-0.06392407417297363,0.14360685646533966,0.12869036197662354,-0.03473846986889839,0.1744159758090973,-0.03623681515455246,-0.04726361110806465,-0.019173217937350273,0.07011136412620544,-0.026286009699106216,-0.0631852000951767,0.03564196825027466,0.019474927335977554,-0.015439681708812714,-0.0344148613512516,-0.11010991036891937,-0.007995502091944218,0.016170628368854523,-0.15428265929222107,-0.14894041419029236,0.01621307246387005,0.1409531682729721,-0.061138737946748734,-0.14314520359039307,0.030911728739738464,-0.05836140736937523,0.04246760159730911,0.050816603004932404,0.03601608797907829,-0.03616086393594742,-0.014046195894479752,-0.028001008555293083,0.14438223838806152,0.07892368733882904,0.13736598193645477,0.005361827556043863,-0.1091468334197998,0.014753191731870174,0.015237659215927124,0.09059678763151169,-0.1636832356452942,0.03666629642248154,0.1523369550704956,0.06039531156420708,-0.05130065605044365,0.06181444972753525,0.020393533632159233,0.027949167415499687,0.05552559345960617,0.008274590596556664,-0.11143516004085541,-0.0841904804110527,-0.01371832937002182,-0.04691871628165245,-0.04306291416287422,0.11676503717899323,0.13923832774162292,-0.22877170145511627,-0.0004071694565936923,0.03621716797351837,0.06472843140363693,0.12038666009902954,-0.019429130479693413,-0.06589647382497787,0.058011244982481
images/PRE_F241093_23_21_R.jpg,-0.014210808090865612,0.09563856571912766,-0.018679749220609665,-0.17097049951553345,-0.16157269477844238,0.1215624138712883,0.03487102687358856,-0.11264199763536453,0.02279122732579708,-0.10454551130533218,0.0025913454592227936,0.2504039704799652,0.1490073800086975,-0.02806900069117546,-0.0340401753783226,-0.06062984839081764,-0.050799984484910965,0.07147172093391418,0.051718246191740036,-0.055264245718717575,0.056151509284973145,-0.07126473635435104,-0.05093660205602646,0.00045522398431785405,-0.08901526778936386,-0.041147470474243164,-0.1648479700088501,-0.08282667398452759,-0.08965203911066055,0.044579870998859406,0.06979497522115707,-0.0743221864104271,0.0019008355448022485,0.11114984005689621,-0.036118246614933014,-0.19342023134231567,-0.04759453609585762,0.06885157525539398,0.13457618653774261,-0.032226864248514175,0.03936656937003136,0.11062586307525635,-0.021905655041337013,-0.05541781708598137,-0.04734927415847778,-0.04734308645129204,0.11796673387289047,-0.024079754948616028,0.07137814909219742,0.01570161059498787,-0.10737106204032898,0.06700484454631805,0.01611633040010929,-0.2521665692329407,0.16135384142398834,0.09407505393028259,0.02969001978635788,-0.019551530480384827,0.03191031143069267,0.04282234609127045,0.13200722634792328,0.060593072324991226,-0.03802387788891792,0.0067734974436461926,0.05864599719643593,0.0460025891661644,-0.060966599732637405,0.05891762673854828,-0.04421495273709297,-0.052976589649915695,0.09707528352737427,0.11138055473566055,0.04188142716884613,-0.05672544986009598,0.07345814257860184,-0.0161508247256279,-0.13960202038288116,-0.07196769118309021,-0.01704360730946064,-0.13280624151229858,-0.0015564070781692863,-0.12260562926530838,-0.1121479943394661,0.0702129602432251,0.13162024319171906,0.10530219972133636,-0.04279618710279465,0.07310083508491516,-0.08277332782745361,0.024826113134622574,0.010187982581555843,0.009934179484844208,0.09173089265823364,0.012297705747187138,0.14486950635910034,0.1420065313577652,0.021957527846097946,0.17087838053703308,-0.041807226836681366,-0.14313441514968872,0.15777011215686798,-0.06080498546361923,0.041477274149656296,-0.07511528581380844,-0.06748262792825699,-0.011256515048444271,-0.037690237164497375,0.0030687223188579082,-0.11963418126106262,-0.08630028367042542,-0.010372321121394634,0.13423630595207214,-0.03599023446440697,-0.04664822667837143,-0.06640506535768509,0.057576313614845276,-0.10231262445449829,0.0697452574968338,0.0543660894036293,0.17494015395641327,-0.07144657522439957,0.049743227660655975,0.11367219686508179,-0.0012898382265120745,-0.03624716401100159,-0.10046958923339844,-0.06726323813199997,-0.08469739556312561
images/PRE_F240445_23_21_R.jpg,0.10860855877399445,0.06675800681114197,-0.1033056378364563,-0.02410018816590309,-0.05107470601797104,0.2003406435251236,-0.09804306924343109,0.03151391074061394,0.04225745052099228,0.06271577626466751,-0.003031539497897029,0.15333767235279083,0.057660605758428574,0.021499479189515114,0.012543318793177605,-0.1285986304283142,0.1152348667383194,0.14465291798114777,0.17796440422534943,0.07424253970384598,0.025636112317442894,0.016663506627082825,0.06745600700378418,-0.05620099604129791,-0.03692781552672386,-0.073521688580513,-0.1255997121334076,-0.08563803881406784,-0.13502006232738495,-0.05788582190871239,0.0493769571185112,-0.09377884864807129,0.039910364896059036,-0.06227701157331467,0.05821552872657776,-0.041988302022218704,0.05890510603785515,0.008909951895475388,-0.014745887368917465,-0.006052372511476278,-0.03089110553264618,0.06764332950115204,0.17881007492542267,0.07540248334407806,-0.09269439429044724,-0.018997525796294212,-0.026797747239470482,-0.19482900202274323,0.1362679898738861,0.06787571310997009,-0.0698591098189354,-0.12523618340492249,0.05290107801556587,-0.19550630450248718,0.12876750528812408,-0.01935318298637867,-0.036106616258621216,-0.03471141681075096,-0.014193324372172356,-0.16166432201862335,0.013072981499135494,0.1264883577823639,0.1158108040690422,-0.07761872559785843,-0.05589821934700012,0.03528581187129021,-0.05248609557747841,0.036974839866161346,-0.041688378900289536,0.10578890889883041,0.11089560389518738,0.08530758321285248,0.05690551921725273,-0.12519073486328125,0.046725787222385406,0.01141535583883524,-0.023761093616485596,-0.10881590843200684,-0.008808935061097145,0.0565602071583271,0.111472487449646,-0.03712926059961319,-0.0354977548122406,0.06050674617290497,0.09679146856069565,0.03971385210752487,-0.19272680580615997,0.07191357761621475,0.02889191545546055,0.008263862691819668,0.06802993267774582,-0.024931754916906357,-0.1713133454322815,0.11250212788581848,-0.0907510370016098,-0.05618627741932869,-0.00250406377017498,0.09797845035791397,-0.07343661040067673,-0.07645206898450851,0.12420637160539627,-0.05439573526382446,0.08164709806442261,-0.08604024350643158,-0.03122623637318611,-0.07851402461528778,0.09219120442867279,-0.07175523042678833,-0.03434588387608528,0.0032504007685929537,0.025877634063363075,0.14382299780845642,-0.03830858692526817,0.13908039033412933,-0.04662080481648445,-0.16634181141853333,-0.06771284341812134,-0.04146011918783188,0.21212711930274963,0.07716179639101028,-0.03352001681923866,-0.06451796740293503,0.04234667867422104,0.03712020814418793,0.01860414445400238,-0.15883491933345795,0.08203314244747162,0.023274792358279228
images/PRE_F240447_23_21_R.jpg,0.004777615889906883,0.1450372040271759,0.008120520040392876,-0.11758065223693848,-0.04758337512612343,0.1254568099975586,-0.01976780593395233,-0.17298127710819244,0.028425229713320732,-0.09825299680233002,-0.018108760938048363,0.19671441614627838,0.14873774349689484,-0.004041117615997791,0.13954028487205505,-0.15985560417175293,0.025114111602306366,0.008288550190627575,0.02458667755126953,-0.006060764193534851,0.04902689903974533,-0.1253911554813385,0.07889663428068161,-0.03835837170481682,0.04397745802998543,-0.07367739081382751,-0.1244947761297226,-0.0020028420258313417,-0.03241709619760513,-0.049067381769418716,0.03436840698122978,-0.2142179012298584,-0.08652538061141968,0.12891331315040588,0.060067057609558105,-0.11645567417144775,-0.02887718379497528,-0.0970601886510849,0.029908260330557823,-0.09163915365934372,0.020269380882382393,0.06819199025630951,0.09301813691854477,-0.0005881981924176216,-0.0524691604077816,-0.07624232023954391,-0.08654885739088058,-0.01370138768106699,-0.009342384524643421,0.003165710251778364,-0.02245277352631092,0.01834063045680523,0.02243002876639366,-0.10628291219472885,0.0026671485975384712,0.03272909298539162,0.11294670403003693,-0.10085181891918182,-0.08533284813165665,-0.18200047314167023,0.11283844709396362,0.0801369845867157,0.1211666390299797,0.07202652096748352,-0.16791844367980957,0.06266295909881592,-0.08324042707681656,-0.18317799270153046,-0.08888028562068939,-0.005302599165588617,0.18226905167102814,0.015740420669317245,0.09587187319993973,-0.10013673454523087,0.03965442255139351,-0.021315740421414375,0.08109927177429199,-0.01891154982149601,0.01150919683277607,-0.08825157582759857,0.005654545500874519,0.10287625342607498,-0.11073899269104004,0.0631299763917923,0.17937296628952026,-0.008596435189247131,0.0570402517914772,-0.05739820748567581,-0.006268131546676159,0.03834668546915054,-0.07591308653354645,-0.05367108806967735,0.06029479578137398,0.1645955741405487,0.07634684443473816,0.09106726944446564,0.06496097892522812,0.09449774026870728,-0.12934011220932007,-0.11443941295146942,0.1684969663619995,-0.026617197319865227,0.17387980222702026,0.10645788162946701,0.036991991102695465,0.11555289477109909,-0.07244841754436493,-0.011541417799890041,-0.06029227375984192,-0.03803998604416847,0.004584208596497774,0.15627837181091309,0.0007841248298063874,0.02140529453754425,-0.01041098777204752,0.04480915516614914,-0.10098567605018616,0.038173068314790726,0.017655227333307266,-0.020027445629239082,-0.025891773402690887,0.008181329816579819,0.191320538520813,-0.00956995040178299,0.007735642604529858,-0.051726579666137695,0.0333232507109642,-0.048073433339595795
images/PRE_F240448_23_21_L.jpg,0.0209727194160223,0.03372427448630333,-0.03713664412498474,-0.15635694563388824,0.014380504377186298,-0.011334528215229511,-0.06586416810750961,-0.042725395411252975,0.019054695963859558,-0.0696292370557785,-0.0068805585615336895,0.2786031663417816,0.18085691332817078,-0.040761590003967285,0.10358977317810059,-0.032993532717227936,-0.05171579867601395,0.05154086649417877,0.08397086709737778,0.03525819629430771,0.0316058024764061,-0.15532368421554565,0.1467447578907013,-0.0014312932034954429,-0.08702295273542404,-0.1058250144124031,-0.09371636807918549,0.008701763115823269,-0.10865920782089233,0.08200427144765854,0.07965079694986343,-0.1792864054441452,0.025437088683247566,0.13955065608024597,-0.15096434950828552,-0.19137917459011078,-0.014745156280696392,0.02565765380859375,0.07552728801965714,-0.05732977017760277,-0.05712344869971275,0.10900527238845825,0.09651558846235275,-0.008994227275252342,-0.06949569284915924,-0.0015930903609842062,0.00248930836096406,-0.03915515914559364,0.018079344183206558,0.05447658151388168,-0.02190452441573143,0.09185202419757843,-0.05361376702785492,-0.15362925827503204,0.1628902703523636,-0.000752930180169642,-0.04505627974867821,0.059332225471735,0.009562375023961067,0.0542837493121624,0.2216898798942566,0.0587620735168457,0.07521248608827591,0.028911206871271133,-0.025246452540159225,0.021659813821315765,-0.1906650811433792,-0.03560962155461311,-0.1464146375656128,0.0282560084015131,0.08535826206207275,0.05783320218324661,0.05373510718345642,0.0074905226938426495,0.054417893290519714,0.04381321743130684,-0.07988957315683365,-0.025447407737374306,-0.0005191437085159123,-0.1534387767314911,-0.12212426960468292,0.0992639884352684,0.004540040157735348,0.17272254824638367,0.028878802433609962,0.01240215077996254,0.007343553937971592,-0.0563184879720211,-0.10003386437892914,-0.0988263413310051,-0.04781269282102585,-0.04238610342144966,0.045955952256917953,0.07604660838842392,0.14619192481040955,-0.016248119994997978,-0.054622650146484375,0.10488095879554749,-0.12645933032035828,-0.1638287454843521,0.13490723073482513,-0.10415229201316833,0.06932000815868378,0.056528784334659576,-0.02733437716960907,-0.010893318802118301,-0.06320704519748688,0.005212509538978338,-0.14699198305606842,-0.03414307162165642,0.045217037200927734,0.043090831488370895,-0.0024734982289373875,-0.016286106780171394,0.027182674035429955,0.08632858842611313,-0.08336301892995834,0.012072046287357807,-0.029554150998592377,0.035039566457271576,-0.0016641231486573815,0.07012731581926346,0.06031625717878342,-0.02296718768775463,-0.11177489161491394,-0.16440050303936005,-0.10672606527805328,-0.11651924252510071
images/PRE_F240449_23_21_R.jpg,-0.11718402057886124,-0.06396055966615677,0.15076439082622528,-0.11832642555236816,-0.05959904193878174,0.02951943688094616,-0.09898059815168381,0.1616438925266266,0.1341175138950348,0.006210983265191317,0.0600351057946682,0.1292658895254135,0.13110975921154022,-0.0794956311583519,0.14515386521816254,-0.029235266149044037,0.038791507482528687,0.0262314323335886,0.16812652349472046,-0.01607525162398815,-0.1291230320930481,-0.1328720599412918,-0.06356681138277054,0.1115989089012146,-0.11090407520532608,0.01568589359521866,0.08349307626485825,0.05407579615712166,-0.002826574956998229,0.00995652750134468,-0.043786220252513885,-0.04460510239005089,0.030925944447517395,-0.10217934846878052,-0.004798719193786383,-0.14146234095096588,0.07013057172298431,-0.05757468566298485,0.028357211500406265,0.053333770483732224,0.03589708358049393,-0.06759956479072571,0.06251700222492218,0.15040495991706848,-0.07163815945386887,0.039528511464595795,0.08651326596736908,-0.22329212725162506,0.04400559514760971,0.011537657119333744,-0.05307658761739731,0.13940836489200592,0.03751477226614952,-0.03379744663834572,-0.028991185128688812,-0.012515569105744362,0.11784733831882477,0.03505935147404671,-0.21216721832752228,0.12663760781288147,0.11208294332027435,0.020688775926828384,0.07162579894065857,0.011992229148745537,0.019563952460885048,0.02444416843354702,0.0753578171133995,-0.06480099260807037,0.017816366627812386,-0.0917694941163063,0.01587708294391632,-0.008568382821977139,0.05877185985445976,0.02272641845047474,0.04719295725226402,0.027153529226779938,-0.12401211261749268,-0.09370411932468414,-0.0006749954191036522,0.014829954132437706,0.015708530321717262,-0.04805319011211395,0.07288544625043869,-0.09328240901231766,-0.004605395253747702,-0.16833533346652985,-0.046968232840299606,0.08715396374464035,-0.03545341268181801,0.05252419039607048,-0.20316331088542938,-0.12672798335552216,-0.10143858939409256,0.007690529804676771,0.02678355574607849,0.0531109943985939,-0.1684522032737732,0.1399914026260376,-0.1226470097899437,-0.12031774967908859,0.20071861147880554,-0.005283932201564312,0.06395626813173294,0.03310294821858406,0.048579201102256775,0.12352019548416138,-0.1173168197274208,-0.07353486865758896,0.03648326173424721,-0.06169765442609787,0.006140853278338909,0.08233901113271713,0.012111201882362366,-0.11452160030603409,-0.07295482605695724,-0.0812925472855568,-0.043185845017433167,-0.10617316514253616,0.1393941044807434,0.00992251094430685,-0.06263309717178345,-0.1287066638469696,-0.039430730044841766,0.09574085474014282,0.039731621742248535,0.0033276365138590336,0.04956307262182236,0.07229756563901901
images/PRE_F240450_23_21_R.jpg,-0.04396185651421547,0.01951483264565468,-0.003413325874134898,-0.11063502728939056,0.005822358187288046,0.12215027213096619,-0.05783911794424057,0.09003616124391556,0.15382087230682373,-0.09520415961742401,-0.050564318895339966,0.11637765169143677,0.03624828904867172,0.05923435091972351,0.04716690257191658,-0.04864908382296562,-0.028475694358348846,0.15385961532592773,0.129522442817688,0.06938524544239044,-0.11618936061859131,0.04181849583983421,-0.05505572259426117,-0.0734383761882782,-0.028677038848400116,-0.02789035625755787,-0.09830017387866974,-0.026133105158805847,-0.11828833073377609,0.03564741462469101,-0.09452734887599945,-0.053178392350673676,0.12182269245386124,-0.005402077920734882,0.00910136941820383,-0.08279159665107727,0.07615239173173904,-0.05492851138114929,0.007504952140152454,-0.08298759162425995,0.002426888793706894,0.01758183352649212,0.051480501890182495,0.11475829035043716,-0.021222596988081932,-0.03436227887868881,-0.13015377521514893,-0.12396100163459778,0.02651234157383442,0.047722816467285156,0.09909933805465698,0.027024364098906517,-0.017997857183218002,-0.20964276790618896,0.011675829999148846,-0.013895362615585327,0.02381269820034504,-0.09522894024848938,-0.06144934147596359,0.07088783383369446,0.19181032478809357,0.20149755477905273,0.029051821678876877,0.09227919578552246,0.04590766504406929,0.020585408434271812,-0.042012572288513184,-0.05279599875211716,0.14183075726032257,-0.11457975953817368,0.05458453670144081,-0.10683383047580719,-0.029272904619574547,-0.1285816878080368,0.16166692972183228,-0.003877274226397276,-0.05748434364795685,-0.1724223643541336,0.0934390053153038,0.01116422563791275,0.13693004846572876,0.08752415329217911,-0.06490860134363174,0.11504395306110382,-0.006609095260500908,-0.13163456320762634,0.02831503376364708,0.12895828485488892,-0.0821763277053833,0.04213244095444679,-0.15973035991191864,0.01047572586685419,-0.10836733132600784,0.03529217466711998,-0.09838122874498367,-0.01636994630098343,-0.006148504558950663,-0.018517689779400826,-0.18435801565647125,0.07316853851079941,0.1165146753191948,-0.12388244271278381,-0.07648076117038727,0.024386977776885033,-0.04088945314288139,-0.06111869215965271,-0.04278847575187683,-0.24404630064964294,-0.07259877771139145,-0.01841619238257408,0.07646460831165314,-0.0024963393807411194,-0.04509049654006958,0.06877583265304565,0.004823586437851191,-0.12185679376125336,-0.06439324468374252,0.06207885965704918,0.1632518768310547,0.14301155507564545,-0.03681641072034836,-0.001005627796985209,0.0004281065193936229,0.14303801953792572,-0.005582279991358519,-0.06074630841612816,0.042134955525398254,0.08834527432918549
images/PRE_F240453_23_21_R.jpg,0.1210080161690712,-0.03272739425301552,0.04446272924542427,-0.21365322172641754,-0.2056422084569931,0.12190995365381241,0.03797007352113724,-0.1022031232714653,-0.06118648499250412,-0.001641635550186038,-0.08798003196716309,0.19331513345241547,0.17334069311618805,0.08216412365436554,0.016880732029676437,-0.09864670783281326,0.08776146918535233,0.024752356112003326,0.08221851289272308,0.0013136480702087283,0.051925722509622574,-0.10763143002986908,0.04191383346915245,-0.02756805717945099,0.012190921232104301,-0.07012904435396194,-0.07575149834156036,0.021425792947411537,0.003864821046590805,-0.025804542005062103,0.009600226767361164,-0.022343570366501808,0.02416941523551941,0.07122951745986938,-0.0418369360268116,-0.18898406624794006,-0.08655925840139389,0.027440732344985008,0.012298105284571648,0.006806809455156326,-0.0524064302444458,0.11822975426912308,0.09054302424192429,-0.03756924346089363,-0.031576305627822876,-0.1401648074388504,-0.06677410751581192,0.03301462158560753,0.04753636196255684,0.030318623408675194,-0.02816390059888363,-0.03692827746272087,-0.0340408980846405,-0.17151783406734467,0.1499759554862976,0.014471206814050674,-0.008548381738364697,0.023604368790984154,0.003599921241402626,-0.028965391218662262,0.05847042426466942,0.06547698378562927,0.0786026269197464,0.10089879482984543,-0.09202633053064346,0.029002679511904716,-0.11474359035491943,0.05812181904911995,-0.01349418144673109,-0.07823868840932846,-0.08449908345937729,0.10150551050901413,0.15315312147140503,-0.19426357746124268,0.11321435868740082,-0.02816115692257881,-0.10666532069444656,-0.18177103996276855,0.03539556637406349,-0.1321975290775299,-0.031125349923968315,0.08490756154060364,-0.17297948896884918,-0.03504040837287903,0.061052996665239334,0.03406587988138199,-0.06043953076004982,-0.022953078150749207,0.03764595836400986,0.054672691971063614,0.011242158710956573,0.05248214304447174,0.03571700677275658,0.037046369165182114,0.1822022646665573,0.07268993556499481,0.009042873047292233,0.0638192668557167,-0.015308666042983532,-0.09612210839986801,0.279934823513031,0.029421469196677208,0.09403891861438751,-0.01621483452618122,-0.05977632477879524,-0.038181908428668976,-0.04056532680988312,-0.07957357168197632,-0.06649281829595566,-0.18031345307826996,0.03416341543197632,0.11283282190561295,-0.07617783546447754,0.021820049732923508,-0.03497397527098656,0.001098792883567512,-0.06415821611881256,0.12951608002185822,0.07499287277460098,0.10501708835363388,-0.04961191490292549,0.11605969071388245,0.13069391250610352,-0.06738858669996262,-0.04263372719287872,-0.0038870656862854958,0.023796355351805687,-0.06416621804237366
images/PRE_F240454_23_21_L.jpg,-0.03185988962650299,0.09355584532022476,0.026967337355017662,-0.14368247985839844,-0.136114239692688,0.09323353320360184,-0.057476647198200226,-0.04898592457175255,0.07272043824195862,0.08451025933027267,0.05167372524738312,0.178738534450531,-0.10226131975650787,-0.06920651346445084,-0.10616786032915115,-0.1990719884634018,-5.148360287421383e-05,0.05716336518526077,0.06785833835601807,-0.06081086024641991,0.012192396447062492,-0.17426511645317078,-0.155700221657753,-0.0011181499576196074,-0.12857648730278015,-0.12433205544948578,0.03436124324798584,-0.09925111383199692,-0.13266487419605255,0.0692337229847908,0.06938625127077103,-0.001910198712721467,0.12732456624507904,-0.08782579004764557,-0.03197852522134781,-0.15129263699054718,0.04436995089054108,-0.04634963348507881,0.13375221192836761,0.02811579219996929,0.019228117540478706,-0.023737294599413872,-0.045395880937576294,0.08868567645549774,0.08453748375177383,-0.03570953384041786,0.005776361562311649,-0.03423130884766579,0.07576967775821686,-0.10093846172094345,-0.03028145059943199,-0.0028133464511483908,0.038046833127737045,-0.23606568574905396,0.04769783094525337,0.08962218463420868,0.06339308619499207,-0.01985175535082817,0.013382046483457088,-0.07796250283718109,0.1724352091550827,0.04225995019078255,0.030018799006938934,-0.06410016119480133,0.004711538553237915,0.13207921385765076,-0.055005162954330444,0.027141042053699493,0.0003660898655653,-0.13651426136493683,-0.019911643117666245,-0.10691718012094498,0.028445573523640633,-0.12138145416975021,0.16715973615646362,-0.05596812069416046,0.005558465141803026,-0.00929595623165369,-0.0016070058336481452,0.00466452119871974,0.05243943631649017,-0.07687070965766907,-0.08383218199014664,-0.000938544690143317,-0.03841811418533325,0.15735602378845215,-0.16388893127441406,0.10142815858125687,-0.0449681393802166,0.08930527418851852,-0.14139175415039062,-0.006366667803376913,0.02216779813170433,0.0960363894701004,0.1164383813738823,-0.00853863637894392,-0.008912762627005577,-0.026701979339122772,-0.09493712335824966,0.046193964779376984,-0.0011929385364055634,0.03953954204916954,0.11725901067256927,-0.08150108903646469,-0.08356242626905441,-0.049310099333524704,-0.06192013621330261,0.045416295528411865,-0.08711543679237366,-0.00822483655065298,0.017054995521903038,0.008614500984549522,-0.13532721996307373,-0.002580320928245783,-0.18149209022521973,0.15807344019412994,-0.12125660479068756,0.03294699266552925,0.004405301064252853,0.17043660581111908,-0.22753015160560608,-0.012762967497110367,0.025983477011322975,-0.02689605951309204,-0.02484232187271118,0.007441739086061716,0.0018153320997953415,-0.016791993752121925
images/PRE_F240455_23_21_R.jpg,0.06560350954532623,0.03191092237830162,-0.02825629897415638,-0.20149271190166473,-0.2732314467430115,0.2160297930240631,0.017618080601096153,0.03311559930443764,0.017652753740549088,-0.028021540492773056,-0.012111484073102474,0.13746558129787445,0.03924829885363579,0.0782921314239502,-0.024264764040708542,-0.08182015269994736,-0.030668532475829124,0.0989360362291336,0.16783994436264038,-0.023799709975719452,0.11833560466766357,-0.11023619771003723,0.05520910769701004,-0.042602863162755966,0.13105075061321259,-0.038918230682611465,-0.11272342503070831,-0.0735921561717987,-0.04690782353281975,-0.05875317379832268,0.031727809458971024,0.056805532425642014,0.15436717867851257,0.13739876449108124,-0.06992653757333755,-0.21208372712135315,0.06489825993776321,0.06654457002878189,0.0494290366768837,-0.09457185119390488,-0.053592514246702194,0.18631380796432495,0.05527903512120247,-0.12568001449108124,-0.09764990955591202,0.027693048119544983,-0.05263805389404297,-0.07866716384887695,0.07672666758298874,0.03336336463689804,-0.05936705693602562,-0.032392993569374084,0.027369163930416107,-0.18740853667259216,0.15239818394184113,0.08424587547779083,-0.016224520280957222,0.062059782445430756,0.02615373395383358,-0.04696450009942055,0.13660681247711182,0.19844341278076172,0.018956664949655533,0.10366138815879822,0.022166002541780472,-0.013713912107050419,-0.07366237789392471,0.023892955854535103,0.04932688921689987,-0.05063322186470032,0.11978546530008316,-0.016757311299443245,0.0564851239323616,-0.09500467032194138,0.10216724127531052,-0.0529487170279026,-0.10078077018260956,-0.10889513790607452,0.059648141264915466,-0.01029408909380436,0.1160438060760498,-0.056435804814100266,-0.09576203674077988,-0.02973215840756893,0.0841105654835701,0.12907956540584564,-0.038896866142749786,0.09212914854288101,-0.058249328285455704,0.06665048748254776,-0.00973142497241497,0.0007039870833978057,-0.028654899448156357,0.07436884194612503,0.08100306987762451,0.1513087898492813,-0.06680941581726074,0.06909774988889694,-0.06808803230524063,-0.042123958468437195,0.05618717521429062,-0.06278201937675476,0.11132055521011353,-0.06493481248617172,-0.09222289174795151,-0.07866092771291733,-0.052778273820877075,-0.04243914410471916,-0.11002999544143677,-0.0628434494137764,-0.04818666726350784,-0.0012109276140108705,-0.12259408831596375,0.023774102330207825,-0.058221425861120224,-0.006675403565168381,-0.07598424702882767,0.030343301594257355,0.12470336258411407,0.09840698540210724,-0.06259822845458984,0.015383216552436352,0.06566942483186722,0.11296138167381287,-0.004610805306583643,-0.052673351019620895,0.043971527367830276,0.022461872547864914
images/PRE_F240457_23_21_R.jpg,0.0760614275932312,0.047534678131341934,0.09910966455936432,-0.016442617401480675,-0.15860164165496826,0.09526327252388,0.08306185156106949,0.058054134249687195,0.07269603759050369,-0.04810551181435585,0.009253403171896935,0.13711240887641907,0.1816820204257965,0.07303924858570099,-0.11734418570995331,-0.10119275003671646,-0.03207389637827873,0.00047982705291360617,0.03805805742740631,0.07080402225255966,-0.03324935957789421,0.07203202694654465,-0.15722885727882385,0.009004614315927029,-0.054568834602832794,0.015506151132285595,-0.05718314275145531,-0.06229083240032196,-0.06463849544525146,-0.07452496141195297,-0.034768108278512955,0.014835652895271778,-0.11753025650978088,-0.07638273388147354,0.0759589746594429,-0.16192996501922607,0.007256580516695976,-0.10506082326173782,0.16903841495513916,0.05987093225121498,0.03656866028904915,0.10607859492301941,0.16548404097557068,0.04196004197001457,-0.031770672649145126,0.07530665397644043,0.025540350005030632,-0.17205224931240082,0.025294510647654533,0.09554868936538696,-0.09527914226055145,0.02278815023601055,0.036056313663721085,-0.24619972705841064,0.05206867307424545,-0.03550199046730995,0.13995146751403809,-0.026141656562685966,-0.05111042410135269,-0.0015751307364553213,0.11849278956651688,0.12300523370504379,0.020302077755331993,-0.03562861680984497,-0.029816506430506706,0.12689927220344543,0.005033439490944147,-0.03674504533410072,-0.04177706688642502,-0.03896358981728554,0.08725452423095703,0.09858699887990952,0.10510366410017014,-0.06624922156333923,0.1056985929608345,-0.046275004744529724,-0.06771574914455414,-0.008213181048631668,0.10666957497596741,0.06601811200380325,0.13708281517028809,-0.10018417239189148,0.009550060145556927,-0.08779963105916977,0.09538375586271286,-0.058451101183891296,-0.1100381389260292,0.06534342467784882,0.00225190632045269,0.0444285087287426,-0.025921892374753952,0.06902647018432617,-0.15239886939525604,0.033415909856557846,0.07761183381080627,0.10858733206987381,0.03474193438887596,0.14810369908809662,-0.08261235058307648,-0.18028980493545532,0.1534021496772766,-0.06206611916422844,0.0007156427600421011,-0.07722006738185883,-0.0228324756026268,-0.021275652572512627,0.12021339684724808,-0.0010354779660701752,-0.09428875893354416,-0.05469559505581856,0.19847296178340912,0.06085413321852684,0.13131551444530487,-0.012857137247920036,-0.09683766216039658,0.007190993055701256,-0.022114496678113937,0.13550584018230438,0.15072429180145264,0.059589553624391556,-0.06273028254508972,-0.07813779264688492,0.04826651141047478,0.01520625315606594,-0.01199625339359045,-0.0749349370598793,-0.07178749889135361,-0.10474473983049393
images/PRE_F240458_23_21_R.jpg,-0.01008401345461607,0.09303256124258041,0.11734925210475922,-0.027470005676150322,-0.15046124160289764,0.037104688584804535,0.049623556435108185,0.19036832451820374,0.008181368932127953,-0.014566808007657528,-0.025314003229141235,0.12674114108085632,0.018312398344278336,0.011664656922221184,-0.08928100019693375,-0.004616791382431984,-0.10044499486684799,0.04260047897696495,0.0992819294333458,-0.029949793592095375,0.0013874692376703024,0.07542285323143005,-0.10844893753528595,0.012943629175424576,-0.11560600250959396,-0.012389840558171272,-0.1079610213637352,0.008888081647455692,0.026814773678779602,-0.006552973296493292,-0.0511028915643692,-0.00170549051836133,-0.007904493249952793,-0.07929150015115738,0.056427210569381714,-0.2205834537744522,0.09057801961898804,-0.239383265376091,0.061188794672489166,-0.12117677927017212,-0.11816949397325516,0.1301039606332779,0.029759174212813377,0.014512511901557446,-0.0582190677523613,0.14331185817718506,0.05411761999130249,-0.14378836750984192,-0.1516861617565155,0.18351423740386963,-0.10426829755306244,0.06508750468492508,0.065932497382164,-0.04855665564537048,0.041348304599523544,0.008018950931727886,0.12519392371177673,0.01307707093656063,-0.020254062488675117,-0.005230281967669725,0.05556171387434006,0.10116270929574966,0.16726402938365936,0.06077595055103302,0.01886732690036297,0.14007678627967834,0.03728213161230087,0.04479910805821419,-0.05377453193068504,-0.0341145321726799,0.0875345841050148,0.02548591047525406,0.048997893929481506,0.030543118715286255,0.0457543283700943,0.059845875948667526,-0.13488458096981049,0.0702141597867012,0.15058650076389313,0.03516668453812599,0.09280030429363251,-0.11555012315511703,-0.12327008694410324,-0.1598539799451828,0.12183107435703278,-0.18452034890651703,-0.14776001870632172,0.08107153326272964,-0.021239785477519035,0.05114986002445221,-0.031266581267118454,0.06945822387933731,-0.1560056358575821,0.036111779510974884,-0.02412349544465542,0.0824131965637207,-0.058270715177059174,0.07000251859426498,-0.03600524738430977,-0.2036132663488388,0.024269860237836838,-0.026937885209918022,0.0736108347773552,-0.0690227523446083,0.01761329174041748,0.002343992004171014,-0.06700839847326279,0.02136191353201866,-0.07536839693784714,0.05716656893491745,0.09798990935087204,0.006557613145560026,0.09424508363008499,0.049331024289131165,-0.09047534316778183,0.033059991896152496,0.029299195855855942,-0.06108097359538078,0.07515215128660202,0.08192655444145203,-0.10830079764127731,-0.10333014279603958,-0.015436857007443905,0.08178303390741348,0.09771576523780823,-0.07097001373767853,-0.008565996773540974,-0.12179141491651535
images/PRE_F240459_23_21_L.jpg,0.023696208372712135,0.06951998919248581,-0.029736734926700592,-0.13535204529762268,-0.1965619921684265,0.0951492190361023,0.008006960153579712,-0.05550074204802513,-0.030517688021063805,-0.09233791381120682,-0.11288584768772125,0.19542084634304047,0.09071161597967148,-0.03645414113998413,0.02536732703447342,-0.11612911522388458,0.07437218725681305,0.0632132738828659,0.0360456258058548,-0.05447494238615036,0.017819572240114212,-0.10180193185806274,0.03935357555747032,-0.0679294764995575,0.01680661179125309,-0.14434696733951569,-0.08596301078796387,0.055472489446401596,-0.10732147097587585,-0.005378072615712881,-0.11238379031419754,-0.03558145463466644,-0.04882867634296417,0.10742355138063431,-0.027153436094522476,-0.14326269924640656,-0.0571618527173996,-0.026724383234977722,-0.017305970191955566,-0.04574381187558174,-0.058297544717788696,0.1108160987496376,0.028092781081795692,0.061433371156454086,0.0861000269651413,-0.10085760056972504,-0.03415093198418617,-0.046931542456150055,0.15327832102775574,0.0264753345400095,-0.1346825808286667,-0.045488644391298294,0.04241136461496353,-0.16472956538200378,0.05326581373810768,0.059300538152456284,-0.05640852078795433,-0.03968867287039757,-0.08879142254590988,-0.02636335976421833,-0.04809181019663811,0.1318681836128235,0.03686930239200592,0.028396647423505783,-0.05772074684500694,0.09440826624631882,-0.08640437573194504,0.008324198424816132,0.033674079924821854,-0.08733420819044113,0.05581327900290489,0.126481294631958,0.08579455316066742,-0.19512096047401428,0.11353584378957748,-0.09443476796150208,-0.15265578031539917,-0.13000361621379852,0.07581745833158493,-0.07389311492443085,0.11105608940124512,0.002465293975546956,-0.16565530002117157,-0.025910399854183197,0.11155384033918381,0.07016856968402863,-0.07054834067821503,-0.006920963525772095,-0.058127500116825104,0.11620429903268814,0.09302732348442078,0.03496505320072174,-0.05187677592039108,0.05917076766490936,0.027657421305775642,0.14983534812927246,-0.021590420976281166,0.041182346642017365,-0.06590164452791214,0.033862173557281494,0.22202137112617493,0.0025195148773491383,0.11749579012393951,-0.03295274078845978,-0.061578575521707535,-0.05601540207862854,-0.0859164223074913,-0.1394219696521759,-0.1866822987794876,-0.09213460236787796,-0.01113056018948555,0.11858978122472763,-0.08562833070755005,0.07229127734899521,-0.041137371212244034,-0.017687665298581123,-0.1256604939699173,0.09513702243566513,0.09964427351951599,0.13776960968971252,-0.0024207723326981068,-0.031015221029520035,0.12230490148067474,0.005430495832115412,-0.0917091891169548,-0.06448657065629959,0.09591560810804367,-0.02632591873407364
images/PRE_F240460_23_21_R.jpg,0.023753514513373375,-0.001781267230398953,0.030431067571043968,-0.05806644633412361,-0.15684108436107635,0.19026914238929749,-0.097298264503479,0.09529513865709305,0.021793564781546593,0.08050709962844849,-0.04993753507733345,0.1630743145942688,0.05607115849852562,-0.03245290741324425,-0.049264851957559586,-0.21282674372196198,0.029461892321705818,0.08472245186567307,0.11008709669113159,0.04938776418566704,0.1006903424859047,-0.027630215510725975,0.04956956207752228,-0.08838233351707458,-0.07562102377414703,-0.10122178494930267,-0.09004325419664383,-0.053365424275398254,-0.1249912679195404,0.003967864438891411,0.01676420494914055,-0.050361599773168564,0.02502666600048542,-0.11438509076833725,0.009394497610628605,-0.1279868632555008,0.015397312119603157,-0.028845103457570076,-0.005363626405596733,-0.08036261796951294,-0.04609181731939316,0.03679121658205986,0.08644033223390579,0.06576844304800034,-0.011208100244402885,0.04959025979042053,0.08952950686216354,-0.1462731808423996,0.04223906248807907,0.1139255091547966,-0.16068227589130402,-0.03838569298386574,0.11248897761106491,-0.23392507433891296,0.06817933171987534,4.759705552714877e-05,0.04188278689980507,-0.03871273621916771,-0.005441371351480484,-0.1012326329946518,0.018960468471050262,0.13523200154304504,0.007431973237544298,-0.04791267588734627,0.007875870913267136,0.020037217065691948,-0.026738788932561874,0.02047690376639366,-0.09590505808591843,0.028978560119867325,0.033288996666669846,0.05429544672369957,0.05036846920847893,-0.1461699903011322,0.09342001378536224,0.0047777811996638775,-0.10494314879179001,-0.1287025362253189,0.00017128374020103365,0.05794656276702881,0.12069270014762878,-0.11430007219314575,0.0011362729128450155,-0.005261504091322422,0.1828552782535553,0.029978225007653236,-0.16183523833751678,0.16062074899673462,6.630737334489822e-05,0.05499643459916115,-0.0015872480580583215,0.012341344729065895,-0.18285618722438812,0.08903113007545471,0.02763850800693035,0.03411886841058731,-0.0029243824537843466,0.10377977788448334,-0.01704496704041958,-0.14102451503276825,0.18767261505126953,-0.08958256989717484,0.09504855424165726,-0.10694446414709091,-0.06455697864294052,-0.025273039937019348,0.09530497342348099,0.0236035343259573,0.08398034423589706,-0.01533893309533596,0.0033512129448354244,0.038052886724472046,-0.09175670892000198,0.13323339819908142,-0.06920579075813293,-0.10532942414283752,-0.050267741084098816,0.013175561092793941,0.17546291649341583,0.05417470633983612,0.049443572759628296,-0.09855268895626068,-0.08018533885478973,0.08568207174539566,0.038490258157253265,-0.19849970936775208,0.02944605052471161,0.03604482114315033
images/PRE_F240461_23_21_R.jpg,-0.005855239927768707,-0.052105192095041275,-0.03381442278623581,-0.02778264693915844,-0.18548797070980072,0.12459386885166168,-0.09525548666715622,0.0538826659321785,-0.015187328681349754,-0.03367868810892105,-0.04195075482130051,0.12446020543575287,0.14365524053573608,0.009779018349945545,-0.07696761935949326,-0.0863940566778183,0.1474037617444992,0.09476545453071594,0.19706197082996368,-0.04614174738526344,0.036779653280973434,-0.06462749093770981,-0.030419403687119484,-0.014287224039435387,-0.06993865221738815,-0.04789246991276741,-0.09630535542964935,-0.04358084499835968,0.025263845920562744,-0.002336691366508603,0.009112054482102394,0.02866312861442566,0.14810247719287872,-0.005415636580437422,0.04933259263634682,-0.14636249840259552,0.009793773293495178,-0.015913520008325577,0.02057405188679695,-0.0542159229516983,0.005751111079007387,0.18468144536018372,0.08644814789295197,0.009776436723768711,0.018446367233991623,-0.00442981394007802,-0.009294267743825912,-0.07339837402105331,0.1272723376750946,0.003916461020708084,-0.02262357994914055,-0.06168906018137932,-0.016195623204112053,-0.14630217850208282,0.07453872263431549,0.12773852050304413,0.0952950119972229,-0.0987684354186058,-0.06874063611030579,-0.048441752791404724,0.008180597797036171,0.15307259559631348,0.11483165621757507,0.06378239393234253,-0.08723550289869308,0.049087319523096085,0.03377016633749008,-0.00019837684521917254,0.02938392572104931,-0.053203798830509186,0.10413271933794022,0.04886721447110176,-0.010081377811729908,-0.05682490020990372,0.18008755147457123,-0.055410295724868774,-0.12127427756786346,-0.08847092092037201,0.05115668475627899,-0.07442997395992279,0.1687973141670227,-0.08772585541009903,-0.16071894764900208,-0.10909707844257355,0.12747834622859955,0.03237075358629227,-0.1372828632593155,0.10245531797409058,-0.12021864205598831,0.06640882790088654,0.004512512590736151,0.1695241928100586,-0.05740245059132576,0.11684177070856094,-0.029501531273126602,0.11745452880859375,0.027495164424180984,0.06528648734092712,-0.1400149166584015,-0.08543027192354202,0.08820092678070068,-0.04540122672915459,0.13792844116687775,-0.10620824992656708,0.02552054449915886,-0.03400840610265732,-0.06302990764379501,-0.11204516887664795,-0.14298300445079803,-0.057480696588754654,-0.029280411079525948,0.11151959002017975,-0.13479399681091309,0.05140765383839607,-0.13839110732078552,-0.10187503695487976,-0.049408283084630966,-0.023449648171663284,0.0971815288066864,0.07746247947216034,-0.11898735165596008,-0.09690629690885544,0.13327163457870483,0.07693395018577576,0.09941710531711578,-0.05954647436738014,0.015317613258957863,-0.01134763564914465
images/PRE_F240462_23_21_L.jpg,-0.17050418257713318,-0.09443974494934082,0.07617544382810593,0.028709828853607178,-0.18385502696037292,-0.07510034739971161,-0.014253908768296242,0.18136228621006012,-0.10828026384115219,-0.03770238906145096,-0.020032329484820366,0.03546663746237755,0.20558908581733704,-0.040066421031951904,-0.01326762791723013,-0.055138878524303436,0.09065871685743332,0.0868159681558609,0.019794732332229614,-0.002834765939041972,0.038646530359983444,-0.05336102470755577,0.04618847370147705,-0.012464340776205063,-0.12129106372594833,-0.02652747929096222,-0.10662652552127838,0.2006545215845108,-0.05348312854766846,-0.10366237163543701,-0.1875845491886139,0.02936568111181259,0.028949372470378876,-0.02258601225912571,0.1351429969072342,-0.09821668267250061,-0.10711850225925446,-0.19697310030460358,-0.037580590695142746,-0.09890972822904587,-0.06822971254587173,0.02905798889696598,0.046760194003582,0.06976600736379623,0.08795680105686188,-0.0012283655814826488,0.10365026444196701,-0.07489287853240967,-0.007800390478223562,0.030658554285764694,-0.05649332329630852,0.03997442498803139,-0.05678212270140648,-0.09990797191858292,0.026185426861047745,0.09548120200634003,0.06500184535980225,-0.0016216525109484792,-0.12895146012306213,0.0027826051227748394,-0.02214273065328598,0.10085050016641617,0.03879817947745323,0.00863522756844759,-0.013252352364361286,0.02610299177467823,0.04290344938635826,-0.03739902749657631,0.02620737813413143,-0.03535734489560127,0.032693296670913696,0.06813141703605652,0.11466433852910995,-0.050847992300987244,0.0990065485239029,-0.03757390007376671,-0.11224228888750076,-0.08556424826383591,0.12202302366495132,-0.02323443442583084,0.1745491474866867,-0.06650698184967041,-0.1085764691233635,-0.18539632856845856,0.1559285670518875,-0.0812905952334404,-0.11055252701044083,0.02439129166305065,-0.0086457384750247,0.10922850668430328,0.03334151208400726,0.1680300235748291,-0.1763938069343567,0.11615446954965591,-0.04388783127069473,0.10012304782867432,0.0328252799808979,0.08796901255846024,-0.11602980643510818,-0.09700489044189453,0.16889479756355286,-0.04400838911533356,0.08989732712507248,-0.008232063613831997,0.05433893948793411,-0.006495509762316942,0.09037590771913528,-0.12450416386127472,-0.051041264086961746,0.02634986862540245,-0.023465141654014587,0.1540309339761734,-0.004593381192535162,0.0949382483959198,-0.05128074437379837,-0.13149835169315338,0.0951615422964096,-0.038017529994249344,0.1072036549448967,-0.007745031267404556,-0.030549921095371246,-0.03239399567246437,-0.015533155761659145,0.10281834006309509,0.05004536360502243,-0.03411753103137016,0.05385896936058998,-0.023109329864382744
images/PRE_F240463_23_21_L.jpg,0.020697878673672676,0.05701480060815811,0.13574811816215515,-0.21534046530723572,-0.10940905660390854,0.16883791983127594,-0.003531975205987692,-0.12018678337335587,0.01534693967550993,-0.04770413786172867,-0.07384079694747925,0.13460837304592133,0.024890685454010963,-0.05936073884367943,0.1374182254076004,-0.15436957776546478,-0.028312887996435165,0.08958002179861069,0.046426381915807724,-0.046461351215839386,0.09624428302049637,-0.12168505042791367,0.12523217499256134,0.022744007408618927,0.04506067559123039,-0.13241101801395416,-0.19667573273181915,-0.03436015918850899,0.013105135411024094,0.03274073824286461,0.10018698126077652,-0.13434676826000214,-0.03554409369826317,0.11335665732622147,0.01667759194970131,-0.245599165558815,0.049415938556194305,-0.02988979034125805,0.13011373579502106,-0.08274738490581512,-0.03435710445046425,0.0016209188615903258,0.037402037531137466,-0.03397855535149574,0.022153593599796295,0.06496572494506836,0.011780882254242897,-0.13676495850086212,0.011969882063567638,-0.03906727209687233,-0.09097742289304733,-0.03867010772228241,-0.0020201303996145725,-0.12633363902568817,-0.02822314016520977,0.01018803846091032,-0.006904061418026686,-0.029534561559557915,-0.1152135357260704,0.04895021393895149,0.2373688519001007,0.01973971165716648,0.0390695184469223,-0.030165204778313637,-0.11762034147977829,0.02894904837012291,-0.02086184173822403,-0.013587931171059608,0.02986283041536808,-0.04092096537351608,0.0637727826833725,0.05889495834708214,0.03512568771839142,-0.1876348853111267,0.10330623388290405,-0.02889006771147251,-0.01943751983344555,-0.10413475334644318,0.03007441572844982,0.03376706689596176,0.02031952142715454,0.024589097127318382,-0.0433223731815815,0.018961982801556587,-0.04786918684840202,0.028838397935032845,0.04229488968849182,-0.08362835645675659,-0.055876415222883224,-0.003625280922278762,-0.046522658318281174,-0.08694516867399216,-0.10461480915546417,0.04545225203037262,0.1570015698671341,0.01639263518154621,-0.08043067157268524,0.08977416157722473,-0.03268495202064514,-0.05639847740530968,0.1827002465724945,0.01340405736118555,0.04669400304555893,0.1039997786283493,-0.035547297447919846,0.07469721883535385,-0.1572192758321762,-0.18495532870292664,-0.10529690980911255,-0.07335490733385086,-0.10812809318304062,0.04571840539574623,-0.053443990647792816,-0.16279910504817963,-0.017871256917715073,0.01831740327179432,-0.151511088013649,0.03329324722290039,-0.05934913456439972,0.07936660200357437,-0.07628867030143738,0.035514216870069504,0.16691836714744568,0.06032770872116089,-0.0788339376449585,-0.056659214198589325,-0.02146373689174652,0.04499882459640503
images/PRE_F240464_23_21_L.jpg,0.020428529009222984,0.016109537333250046,0.004890759009867907,-0.1421370655298233,-0.12186885625123978,0.05703723803162575,0.01970219425857067,-0.13458827137947083,0.032291390001773834,0.06173175573348999,0.002089507644996047,0.11472630500793457,0.002836879575625062,-0.17516745626926422,0.15975409746170044,-0.10740084201097488,0.014006787911057472,0.1268566995859146,0.11559533327817917,-0.030893884599208832,0.20584920048713684,-0.15503711998462677,0.11314907670021057,0.015010036528110504,-0.006190902553498745,0.06237988919019699,-0.024702727794647217,-0.14896366000175476,0.0185858104377985,0.0706053376197815,-0.09118274599313736,0.05584641173481941,0.01171073131263256,0.05513599142432213,0.06284458935260773,-0.07761623710393906,0.04904333874583244,0.045468613505363464,-0.0738460049033165,-0.12791919708251953,0.08705758303403854,0.07566514611244202,0.05716707557439804,0.11068271100521088,-0.06351969391107559,0.08955004066228867,0.06296509504318237,-0.14886586368083954,0.02565913088619709,0.025087870657444,-0.013615717180073261,-0.09036294370889664,0.047373607754707336,-0.19477137923240662,0.09567702561616898,0.06306129693984985,0.02695348672568798,0.049408890306949615,0.08027034997940063,-0.027071280404925346,0.0967201218008995,0.08636881411075592,-0.1785639226436615,-0.009769916534423828,0.0687425434589386,0.03780751675367355,0.007381548639386892,-0.005600168369710445,-0.02487654983997345,0.07953044027090073,0.11434333026409149,-0.011014433577656746,0.05130348727107048,-0.1799081563949585,0.1413865089416504,-0.04239439219236374,-0.032635144889354706,-0.12454461306333542,-0.22301942110061646,-0.07851468771696091,-0.0475442036986351,0.010261298157274723,-0.05938117578625679,-0.06371445208787918,0.05666974559426308,0.03787955641746521,-0.08362875133752823,0.04213930666446686,-0.004191576968878508,-0.09134991466999054,-0.07687408477067947,-0.0007903536898083985,-0.05233791097998619,0.0005847151041962206,0.10368256270885468,-0.05282074585556984,0.05811283737421036,0.004020466934889555,-0.09579501301050186,-0.08005859702825546,0.13484391570091248,-0.12985670566558838,-0.003088157158344984,-0.04557469114661217,-0.06924797594547272,0.007001291029155254,0.13505642116069794,-0.05866094306111336,0.18055909872055054,0.103363536298275,-0.13432306051254272,0.027863269671797752,-0.07446925342082977,0.049777597188949585,-0.07024495303630829,-0.07198278605937958,-0.0866711363196373,-0.056205302476882935,0.09810919314622879,0.11083397269248962,0.12632328271865845,-0.027700722217559814,0.10302793979644775,-0.05647214129567146,0.005793359596282244,-0.08453931659460068,0.1456477791070938,0.1034553200006485
images/PRE_F240465_23_21_L.jpg,-0.023739751428365707,0.10789716243743896,0.014260987751185894,-0.22522850334644318,-0.20089848339557648,0.07606516778469086,0.03749195113778114,-0.039009153842926025,-0.08960597962141037,-0.03476586192846298,-0.00913878995925188,0.19927018880844116,0.052870333194732666,-0.06329575181007385,0.10311395674943924,-0.06151517108082771,-0.07091204077005386,0.17741884291172028,0.06741268932819366,-0.0326513908803463,0.10951081663370132,-0.04183818772435188,0.027686292305588722,-0.03373251482844353,0.024820126593112946,-0.0592564158141613,-0.17048528790473938,-0.025941234081983566,-0.03456053137779236,-0.04478512704372406,-0.106836698949337,-0.029255708679556847,0.01263932790607214,0.14531657099723816,0.15134596824645996,-0.18735371530056,-0.014136787503957748,0.023221656680107117,0.04479470103979111,-0.07920536398887634,-0.03064524196088314,0.12562277913093567,0.021118586882948875,0.004315304569900036,-0.1374330222606659,-0.13421998918056488,-0.02525774948298931,-0.09664703905582428,0.034833136945962906,0.017241884022951126,-0.03858966380357742,0.08402811735868454,0.11670392006635666,-0.2153611034154892,0.14188151061534882,0.09955548495054245,0.009515558369457722,0.0030524758622050285,-0.1476481407880783,-0.04870308190584183,0.15578746795654297,0.05972430109977722,-0.05885842442512512,0.02921735867857933,0.012231165543198586,0.0528244785964489,0.004728551022708416,0.0175478458404541,0.023659471422433853,-0.027838079258799553,0.18341116607189178,0.009118610993027687,0.054761070758104324,-0.1719786822795868,0.20331527292728424,-0.07241357117891312,-0.09094255417585373,-0.06035424768924713,-0.04430675134062767,-0.06787879019975662,0.1281949281692505,0.0164037998765707,-0.16755390167236328,0.03834644332528114,0.13463398814201355,0.14762377738952637,-0.08955356478691101,0.005719023756682873,-0.010323402471840382,0.0662262961268425,-0.07886112481355667,0.0037816455587744713,-0.013746879994869232,0.10120095312595367,0.083143450319767,0.09898308664560318,-0.013102381490170956,-0.007314283400774002,0.009790250100195408,-0.06954588741064072,0.12021768093109131,-0.013688852079212666,0.029769057407975197,-0.019812729209661484,-0.029913438484072685,-0.07250544428825378,-0.010465475730597973,-0.1047414168715477,-0.0541611909866333,-0.0009322871919721365,-0.05746174603700638,0.16574859619140625,-0.030017314478754997,0.031158294528722763,-0.05218488350510597,-0.03270983695983887,-0.10470826178789139,0.04076579958200455,0.08769919723272324,0.1409001648426056,-0.034683022648096085,-0.026371899992227554,0.08626344054937363,-0.018078185617923737,-0.046008698642253876,0.05785982310771942,0.008871210739016533,0.02068818174302578
images/PRE_F240466_23_21_L.jpg,-0.00514544453471899,0.025600947439670563,0.04831091687083244,-0.058398932218551636,-0.1358882039785385,0.16523303091526031,-0.013420211151242256,-0.01958625204861164,0.12884195148944855,-0.02246801368892193,-0.02032950334250927,0.14120207726955414,-0.0728992149233818,0.012240016832947731,-0.055926043540239334,-0.1592569649219513,-0.010194159112870693,0.11177235096693039,0.02642226405441761,-0.11631374806165695,-0.031458780169487,-0.1051330640912056,0.007206527981907129,-0.11124338954687119,0.021856196224689484,0.04764196649193764,-0.011630571447312832,-0.06655174493789673,-0.13520897924900055,0.10527805238962173,-0.08238974213600159,0.02267422340810299,0.013778960332274437,-0.032077670097351074,0.043722573667764664,-0.16246619820594788,0.021481426432728767,0.009523634798824787,0.034249283373355865,-0.008231351152062416,0.03085198998451233,-0.06378278136253357,0.027943849563598633,0.12926043570041656,0.02195330336689949,-3.2940890378085896e-05,0.1194637194275856,-0.24157002568244934,0.026256892830133438,-0.054920315742492676,0.0027731680311262608,-0.05481281876564026,0.06710740178823471,-0.3454326391220093,0.11064886301755905,0.04165232554078102,0.14984296262264252,-0.012966019101440907,0.022158198058605194,0.04259638488292694,0.1860806941986084,0.04848172143101692,0.032105304300785065,-0.11412771791219711,0.053461018949747086,0.012856263667345047,-0.09163596481084824,0.08051834255456924,-0.022492915391921997,-0.06090356037020683,0.07612182199954987,-0.012260111048817635,0.006709184963256121,-0.15554293990135193,0.21926599740982056,0.027317950502038002,-0.0031643970869481564,-0.04201505705714226,0.046184711158275604,-0.005043579265475273,0.1189705953001976,-0.055113621056079865,-0.05482649430632591,0.007627276703715324,-0.07079897820949554,0.028613697737455368,-0.09776633977890015,0.045460768043994904,-0.008562691509723663,0.012245120480656624,-0.10024752467870712,-0.11439026892185211,-0.09356854856014252,-0.06570589542388916,0.034709006547927856,0.04636550322175026,-0.03006727620959282,0.10986139625310898,-0.1283181756734848,-0.045826639980077744,0.13219968974590302,-0.12368488311767578,-0.02858007326722145,-0.08513162285089493,-0.019372515380382538,-0.07332288473844528,-0.04941527172923088,-0.13531358540058136,-0.016684478148818016,0.03228742256760597,-0.006550426594913006,0.11182507872581482,-0.03851984441280365,-0.007114443928003311,-0.048854660242795944,-0.08443343639373779,-0.17339296638965607,0.037954702973365784,0.16958904266357422,0.16892129182815552,-0.01691260375082493,-0.09179870039224625,0.015197607688605785,0.14036719501018524,-0.0012217250186949968,-0.031974244862794876,0.036783020943403244,0.0834168940782547
images/PRE_F240467_23_21_R.jpg,-0.16814537346363068,-0.02415403723716736,0.09155888855457306,-0.09957507252693176,-0.12479203194379807,0.023369861766695976,-0.00967415701597929,0.14834414422512054,0.07183795422315598,0.0076494356617331505,0.20090657472610474,0.12698720395565033,0.12752078473567963,-0.08615902066230774,0.029608380049467087,-0.004121886566281319,-0.01354481652379036,0.20736026763916016,0.17948001623153687,0.0009442430455237627,0.022662676870822906,-0.08283111453056335,-0.08447622507810593,-0.024963878095149994,-0.11853901296854019,0.01121100876480341,0.00015824526781216264,0.08859328180551529,-0.16725897789001465,-0.03640307858586311,-0.16374486684799194,0.11146815121173859,-0.0010603615082800388,-0.047102950513362885,0.13986974954605103,-0.19189946353435516,0.09778130799531937,-0.1433943808078766,0.052401766180992126,-0.006292593199759722,-0.006745162885636091,-0.04521637409925461,0.07504820823669434,0.06606993079185486,-0.012029553763568401,-0.10545951128005981,0.0357719250023365,-0.1834113597869873,0.20919713377952576,-0.004025311209261417,0.02729356288909912,0.04784202575683594,-0.049311209470033646,-0.10997074842453003,0.03428887948393822,0.012885592877864838,0.12475448846817017,0.07429905235767365,-0.13057532906532288,-0.008477374911308289,0.10820526629686356,0.13522367179393768,0.09124203771352768,-0.028360582888126373,0.0960797667503357,0.046973492950201035,0.09550592303276062,0.022963104769587517,-0.04203670471906662,-0.008394706062972546,0.032675668597221375,-0.004141916520893574,0.11197379976511002,0.028481312096118927,0.06362461298704147,-0.09890376031398773,-0.03973683342337608,-0.04319455102086067,-0.06740187853574753,0.04906899109482765,0.045269012451171875,-0.08950728923082352,-0.06324610114097595,-0.11433301120996475,-0.04396356642246246,-0.02031438611447811,-0.14883099496364594,0.10054924339056015,-0.05812352895736694,0.03692569583654404,-0.06938154250383377,0.00019443221390247345,-0.14038076996803284,0.027473442256450653,-0.010302577167749405,0.012693718075752258,-0.02185930125415325,0.07541099935770035,-0.08013177663087845,-0.09522415697574615,0.10256177186965942,-0.07066330313682556,0.09137628972530365,-0.08726492524147034,0.046152263879776,0.0732014924287796,0.039730653166770935,-0.09091248363256454,0.023521915078163147,0.05759430676698685,0.05327799916267395,0.02305377647280693,0.020766807720065117,0.006651624571532011,-0.021658606827259064,-0.06839102506637573,0.08844823390245438,-0.05731085687875748,0.14241990447044373,0.12641014158725739,-0.22404688596725464,-0.024859843775629997,0.057278651744127274,0.1198609322309494,0.05425583943724632,0.028026409447193146,0.01548808254301548,0.026667486876249313
images/PRE_F240468_23_21_L.jpg,-0.0678410679101944,-0.09343935549259186,0.16492623090744019,-0.02899106964468956,-0.2136344313621521,-0.008823736570775509,-0.07520817965269089,0.07562633603811264,-0.037347521632909775,0.06429670751094818,0.0266275554895401,0.18302708864212036,0.11170976608991623,-0.06537879258394241,-0.1717149019241333,-0.03916985169053078,0.08205491304397583,0.21536637842655182,0.19076575338840485,-0.060625169426202774,-0.00601172586902976,-0.06707753986120224,0.023638980463147163,-0.02679147757589817,-0.06811363995075226,-0.0428328812122345,-0.12811040878295898,0.05015101283788681,-0.09642107039690018,-0.054751139134168625,-0.034406863152980804,-0.10174447298049927,0.1307566910982132,-0.02750910073518753,0.035022810101509094,-0.03724578022956848,0.09229960292577744,-0.02715260535478592,-0.048993539065122604,-0.038404472172260284,-0.021478455513715744,0.09239298850297928,0.10123617202043533,0.12212800979614258,-0.07718043774366379,0.11450532078742981,0.059816624969244,-0.03644639253616333,-0.04865461215376854,-0.018057141453027725,-0.04166041687130928,-0.008405184373259544,-0.012183688580989838,-0.038182370364665985,0.08860120177268982,0.14795082807540894,0.04148239642381668,0.04604204371571541,-0.041273925453424454,-0.05289515480399132,0.10396922379732132,0.11759664863348007,0.01548563688993454,0.067402683198452,0.1534377932548523,0.1085762083530426,-0.017302444204688072,0.09147512167692184,-0.03620508685708046,0.08878040313720703,0.07862696796655655,0.07044179737567902,0.030570706352591515,-0.035178396850824356,0.11964122205972672,0.008840353228151798,-0.09618362784385681,-0.03714974224567413,0.06801704317331314,0.010577025823295116,0.12032170593738556,-0.19344985485076904,-0.058738674968481064,-0.04108535125851631,0.10234437882900238,-0.06006016582250595,-0.15182162821292877,0.11749197542667389,-0.07916498184204102,0.09960319101810455,-0.014730701223015785,0.04488314688205719,-0.04814562574028969,0.04748138040304184,-0.03568634018301964,0.010824482887983322,0.07741967588663101,0.0785728394985199,-0.023815030232071877,-0.12406206876039505,0.12447454035282135,0.043361812829971313,0.1032327339053154,-0.09638743847608566,-0.0654745101928711,0.10322108119726181,-0.0550665445625782,-0.10609468072652817,-0.051004618406295776,-0.09823472797870636,-0.013381470926105976,0.17336615920066833,-0.03777178376913071,0.04937517270445824,-0.04305548593401909,-0.03454013168811798,-0.017307549715042114,-0.04215766116976738,0.17461702227592468,0.0496784970164299,-0.10459962487220764,-0.1330731362104416,0.003121165791526437,0.09160216152667999,0.1542607694864273,-0.11674442887306213,0.11912834644317627,0.06359710544347763
images/PRE_F240471_23_21_L.jpg,0.009672870859503746,0.03480193763971329,0.08473685383796692,-0.15932850539684296,-0.15825189650058746,0.20296397805213928,0.004638857673853636,-0.04846346005797386,0.039764221757650375,-0.02785518392920494,0.07336566597223282,0.1319604068994522,0.06367599964141846,-0.05149367079138756,0.03777053579688072,-0.10170361399650574,-0.026727138087153435,0.013151722960174084,0.0740835890173912,-0.07195541262626648,0.04287726432085037,-0.2389167994260788,0.015777861699461937,-0.06235752999782562,-0.040112804621458054,-0.011883648112416267,0.04214278236031532,0.007408970966935158,-0.11643952131271362,-0.02693558670580387,-0.011240948922932148,0.04291543364524841,0.025937393307685852,0.014530474320054054,-0.01352466270327568,-0.22983843088150024,-0.00011282793275313452,-0.11973922699689865,0.17657586932182312,-0.028021078556776047,0.045904941856861115,-0.0386299267411232,0.03306484594941139,-0.025640368461608887,0.0009275507763959467,-0.05589451268315315,0.11013538390398026,-0.20113256573677063,0.07807549834251404,-0.11387694627046585,-0.08567900210618973,0.016584590077400208,0.010864210315048695,-0.18095649778842926,0.13593706488609314,0.06667625904083252,0.15246301889419556,0.01531777624040842,-0.0014535489026457071,0.09533163160085678,0.21478429436683655,0.009485283866524696,0.15495166182518005,-0.0008150381618179381,0.001751224510371685,0.006882771383970976,0.006504523102194071,0.0068703992292284966,-0.02788623236119747,-0.03904983773827553,-0.03030807338654995,0.05809811130166054,0.015178101137280464,-0.03673751652240753,0.16905389726161957,0.06785988807678223,-0.09024783223867416,-0.015564300119876862,0.07687736302614212,-0.04148415848612785,0.058033909648656845,0.004784892313182354,-0.033176932483911514,-0.09694550186395645,0.042588673532009125,-0.03764523193240166,-0.10836189240217209,-0.00683264946565032,-0.0595729798078537,0.0033748256973922253,-0.13843300938606262,-0.10700323432683945,-0.05077405273914337,-0.009347876533865929,0.12194578349590302,0.08280821889638901,-0.192509263753891,0.12142352759838104,-0.09700094163417816,-0.10180696099996567,0.1066364124417305,-0.12244515120983124,0.025871237739920616,0.022481301799416542,0.041364848613739014,0.034563224762678146,-0.11687298864126205,-0.00011485323921078816,-0.1206214651465416,-0.031085049733519554,-0.005135527811944485,0.13236945867538452,-0.06238459050655365,-0.11538425832986832,-0.10606606304645538,0.06355739384889603,-0.12643206119537354,0.00458432687446475,0.06656306236982346,0.14824393391609192,-0.03825820982456207,-0.056269627064466476,0.143809974193573,0.12806276977062225,0.0050182463601231575,-0.04744347557425499,0.016903694719076157,-0.0015550571260973811
images/PRE_F240472_23_21_R.jpg,0.010386720299720764,0.07062464207410812,0.06434924900531769,-0.2665694057941437,-0.17344777286052704,0.1562664955854416,-0.03908081352710724,-0.13854151964187622,0.016758279874920845,-0.08301271498203278,0.04305960610508919,0.2463245391845703,0.09990409016609192,-0.014043418690562248,0.10238506644964218,-0.02613694779574871,-0.02799857407808304,-0.02351844310760498,0.061445172876119614,0.07645842432975769,0.16287103295326233,-0.13123388588428497,-0.010785600170493126,-0.04137222468852997,0.13701239228248596,-0.16357645392417908,-0.11439122259616852,0.02478213422000408,0.051503460854291916,0.049147218465805054,0.028284071013331413,-0.12526609003543854,0.005798403173685074,0.16365891695022583,-0.1524328738451004,-0.16556231677532196,-0.06528645008802414,-0.04272819682955742,0.06717418879270554,-0.15843117237091064,-0.02764960750937462,0.0711849182844162,-0.0066464561969041824,-0.03418197110295296,-0.08263026177883148,-0.10911118239164352,-0.061970338225364685,-0.04846135526895523,-0.02100803516805172,-0.02089284360408783,-0.0237681083381176,0.033515285700559616,0.03635943681001663,-0.15953609347343445,0.02637648768723011,-0.049691956490278244,0.05271289125084877,-0.03864721953868866,0.010398123413324356,0.03936168551445007,0.14946675300598145,0.12177809327840805,0.029691562056541443,0.024747362360358238,0.010136391036212444,-0.0069808647967875,-0.01983076147735119,-0.11522208154201508,-0.12309580296278,-0.0629611685872078,0.05475308746099472,-0.01510709710419178,0.04122574254870415,-0.09680268913507462,0.06732669472694397,0.05721161887049675,0.04083073139190674,-0.06730011105537415,0.10114241391420364,-0.02807045914232731,-0.024994371458888054,0.07980594038963318,-0.12740971148014069,0.049896810203790665,0.13827475905418396,0.04739891365170479,0.0343908965587616,0.00320995319634676,-0.050229303538799286,0.03179200738668442,0.02222808636724949,0.010226358659565449,0.06855151057243347,0.06961911916732788,0.12596291303634644,0.08525776118040085,-0.05139065906405449,0.05586804449558258,-0.0973847433924675,-0.11561716347932816,0.21688854694366455,-0.1338738203048706,0.11627888679504395,0.04132160171866417,-0.05101378634572029,0.0694795623421669,-0.10857882350683212,-0.047046959400177,-0.05467156693339348,-0.01458821166306734,-0.026702502742409706,0.02219947800040245,-0.004399826750159264,-0.10241375863552094,0.07234209775924683,-0.03638150915503502,-0.09375179558992386,0.12692812085151672,0.03852482885122299,0.12443135678768158,0.032502204179763794,0.08237287402153015,0.12194506078958511,0.08977683633565903,0.081315778195858,-0.07100682705640793,0.015146606601774693,-0.017373163253068924
images/PRE_F240473_23_21_L.jpg,0.08356116712093353,0.13100382685661316,0.065536729991436,-0.2020530253648758,-0.17767325043678284,0.20310640335083008,0.04121486842632294,-0.07310370355844498,0.13305902481079102,-0.03637941554188728,0.0016199081437662244,0.13795094192028046,0.04416632652282715,-0.0548434779047966,0.009718487970530987,-0.06910514831542969,-0.12801796197891235,0.11248398572206497,0.0198317039757967,0.01742532104253769,0.08842558413743973,-0.11915357410907745,0.07462166994810104,-0.0044202436693012714,-0.0195004865527153,-0.037274304777383804,-0.029053591191768646,-0.09933042526245117,-0.15321402251720428,0.01177255343645811,-0.04183407872915268,-0.06005970016121864,0.014376044273376465,0.11177844554185867,-0.06647711992263794,-0.17221695184707642,-0.028609447181224823,-0.06232643499970436,0.06804981827735901,-0.0013857206795364618,0.04515564814209938,-0.061059046536684036,0.10591105371713638,-0.0005166092305444181,0.00810277834534645,0.011351208202540874,0.040036171674728394,-0.1297960877418518,0.005286583676934242,-0.13932374119758606,-0.12283793091773987,0.022532060742378235,0.0545487180352211,-0.19478747248649597,0.06597627699375153,0.009363008663058281,0.09401282668113708,0.09988345950841904,-0.038382720202207565,-0.0626252070069313,0.16313332319259644,0.15092845261096954,-0.03788399323821068,0.11594526469707489,0.06609081476926804,0.03490862995386124,0.036372993141412735,-0.07033183425664902,-0.015780402347445488,-0.06066633388400078,0.1294986605644226,-0.0009324293932877481,0.10438191890716553,-0.11269322037696838,0.10684564709663391,-0.0515122152864933,-0.09036136418581009,-0.05246838927268982,0.026094472035765648,-0.07614295929670334,0.12142474204301834,-0.07398244738578796,0.006822619587182999,-0.006578539032489061,0.06564963608980179,0.000305818160995841,-0.09306921809911728,0.024841152131557465,-0.02315647341310978,-0.05035656318068504,-0.08606760203838348,-0.14051362872123718,-0.010558508336544037,0.035848405212163925,0.11791405826807022,0.0652172714471817,-0.10570620745420456,0.0576147586107254,-0.15465593338012695,-0.06635123491287231,0.12746520340442657,-0.0787733644247055,-0.008757357485592365,0.06426959484815598,-0.13348272442817688,0.03985453024506569,-0.06200595945119858,-0.08490025997161865,-0.1062987670302391,0.035996124148368835,-0.03856823965907097,0.18413403630256653,-0.0280147772282362,-0.0032061117235571146,-0.09987946599721909,0.05918870493769646,-0.19684410095214844,-0.014428269118070602,0.07754875719547272,0.10517019778490067,-0.023529140278697014,0.0046815453097224236,0.11361879110336304,0.017006561160087585,-0.007009059190750122,-0.11950654536485672,0.15650056302547455,0.03815760090947151
images/PRE_F240474_23_21_R.jpg,0.030492650344967842,0.031586263328790665,0.11191386729478836,-0.1299503594636917,-0.099741630256176,0.046975523233413696,-0.08651833236217499,-0.044478192925453186,0.015435236506164074,0.007750676479190588,-0.03819023072719574,0.17089062929153442,0.09173531830310822,-0.005824307911098003,0.07846326380968094,-0.07667262107133865,-0.011079611256718636,0.04309140518307686,0.037260573357343674,-0.00979348924010992,0.024424221366643906,-0.12566904723644257,0.26275670528411865,0.0051038130186498165,-0.03502177447080612,-0.10114266723394394,-0.010045045055449009,0.02028903365135193,-0.07989180088043213,-0.030759744346141815,-0.07093600928783417,-0.21419353783130646,0.09950150549411774,0.07357259839773178,-0.03413339704275131,0.008880434557795525,0.0019291352946311235,-0.034599024802446365,0.01925177313387394,-0.11659131199121475,-0.06821829080581665,0.027120696380734444,0.09157633036375046,-0.07288075983524323,-0.007667877245694399,0.04815566912293434,-0.06440729647874832,-0.09542666375637054,-0.10069052129983902,-0.020847773179411888,-0.015326984226703644,0.026790764182806015,0.024899505078792572,-0.2012452483177185,0.058052390813827515,0.10713879764080048,-0.05265511944890022,0.10872339457273483,-0.04511052370071411,-0.15150697529315948,0.13460128009319305,0.08918897062540054,0.018475018441677094,0.09877502918243408,-0.10179394483566284,0.07432305067777634,-0.08840589970350266,-0.043383385986089706,-0.041204605251550674,0.07383113354444504,0.18730808794498444,-0.002493264153599739,0.10859041661024094,-0.0800379291176796,0.13141629099845886,0.033569157123565674,-0.04681393504142761,-0.04372434690594673,0.009188365191221237,-0.12218078225851059,0.01635386236011982,0.05524894967675209,-0.04002869501709938,0.13309137523174286,0.16072766482830048,-0.037008028477430344,0.07796776294708252,-0.04770490154623985,-0.07229308038949966,-0.0905337929725647,-0.11515254527330399,0.0015389814507216215,0.08481008559465408,0.18322154879570007,0.028456293046474457,-0.003856752533465624,-0.09095403552055359,0.08489661663770676,-0.20071002840995789,-0.07735589891672134,0.08316817879676819,0.01853196881711483,0.12019835412502289,-0.019833452999591827,-0.05520889535546303,0.018742872402071953,-0.04792504012584686,-0.09942743182182312,-0.12977398931980133,0.06274721026420593,0.005783412605524063,0.23193208873271942,-0.0382084846496582,0.04507128521800041,-0.01088208518922329,0.17019951343536377,-0.09860340505838394,-0.005811761599034071,-0.06080830469727516,0.037431150674819946,-0.014251871965825558,-0.05072219669818878,0.1283143311738968,0.014748351648449898,0.031520772725343704,-0.120940200984478,0.12209577858448029,0.07297401875257492
images/PRE_F240475_23_21_L.jpg,-0.04428378865122795,0.0886947512626648,0.07905415445566177,-0.21194519102573395,-0.0642181858420372,0.08384019136428833,0.04512730613350868,-0.09803454577922821,0.06643927842378616,-0.09501408785581589,-0.10985805094242096,0.2581052780151367,0.03677729517221451,-0.0768590196967125,0.04280805587768555,-0.08646035939455032,-0.1307314783334732,0.13189415633678436,0.03664042055606842,-0.057668883353471756,0.08757351338863373,-0.08430629968643188,0.019274579361081123,-0.03231602907180786,-0.09239175915718079,-0.07058995217084885,-0.12975434958934784,-0.07723047584295273,-0.10424911230802536,0.07276605069637299,-0.05496546998620033,-0.15318848192691803,-0.13019630312919617,0.12298448383808136,0.07369545102119446,-0.13962191343307495,-0.07449568063020706,-0.052903804928064346,0.08131033182144165,-0.03352004662156105,-0.01696724258363247,0.12234072387218475,0.0363805890083313,0.08292039483785629,-0.03943070396780968,-0.04810909554362297,-0.011531843803822994,-0.12129312753677368,0.021067921072244644,0.04079172760248184,-0.18452298641204834,-0.00174032524228096,0.10003162920475006,-0.18358710408210754,0.08906175196170807,-0.033971432596445084,0.003023881698027253,-0.03712647408246994,-0.07525814324617386,-0.00013196996587794274,0.1165652945637703,0.08750975131988525,-0.021902209147810936,-0.0198221318423748,-0.05703505128622055,0.17601913213729858,-0.08666770160198212,0.04186815395951271,0.023837292566895485,0.016418389976024628,0.1209612637758255,0.13534602522850037,0.07182011753320694,-0.16280704736709595,0.08883006125688553,-0.029601579532027245,-0.12761659920215607,-0.045556485652923584,0.025716328993439674,-0.060928795486688614,0.005674697924405336,-0.05892540141940117,-0.09894368052482605,0.05287150666117668,0.0880398377776146,0.011642150580883026,-0.010393591597676277,0.014672959223389626,-0.05003279820084572,0.1092783659696579,0.0182099137455225,-0.0102812135592103,-0.09742188453674316,0.05198583006858826,0.03568171337246895,0.10595238953828812,-0.06424426287412643,0.05773378908634186,0.007483498193323612,-0.0472736582159996,0.19394157826900482,-0.022967489436268806,0.019978465512394905,0.008083311840891838,0.02708013355731964,-0.04528374969959259,-0.09241735935211182,-0.08031076192855835,-0.16430474817752838,-0.06006595119833946,0.1446729600429535,0.028936758637428284,-0.004884244874119759,0.04415316507220268,-0.026032861322164536,0.10063300281763077,-0.12726518511772156,0.10832060873508453,0.09044141322374344,0.12128859013319016,0.00585322268307209,-0.005644411314278841,0.04523890092968941,-0.058480892330408096,-0.12081287801265717,-0.14979134500026703,0.0070932963863015175,-0.10373403877019882
images/PRE_F240476_23_21_R.jpg,-0.00330081838183105,-0.023914113640785217,0.051428332924842834,-0.09678991883993149,-0.1499026119709015,0.0168971735984087,0.041514985263347626,-0.06662794947624207,0.04500763863325119,-0.037185244262218475,0.02954133041203022,0.13915018737316132,0.09899486601352692,-0.05300365388393402,-0.14519813656806946,-0.0818307176232338,-0.04415677860379219,0.1442970633506775,0.0802726149559021,-0.024725308641791344,-0.06168607249855995,0.012845639139413834,-0.03472939133644104,0.061214543879032135,-0.021661795675754547,0.05794403702020645,0.04980390891432762,-0.12410802394151688,-0.03023315593600273,-0.0221317857503891,-0.08364478498697281,0.07617831230163574,0.04261494800448418,-0.005426032468676567,-0.010126346722245216,-0.18290020525455475,0.05382677540183067,-0.04083721339702606,0.06467950344085693,-0.03330735117197037,0.069000244140625,0.009354625828564167,0.030929196625947952,0.2193935215473175,0.031176352873444557,-0.01608116179704666,-0.0074287536554038525,-0.0815199464559555,0.0600251704454422,0.058946263045072556,0.006399364676326513,-0.08153466880321503,-0.020484281703829765,-0.18764160573482513,0.0341288261115551,0.14829057455062866,0.06642580032348633,-0.06379096210002899,-0.18748728930950165,-0.006388372275978327,0.08746623992919922,0.010327178053557873,-0.048770517110824585,-0.04221333935856819,-0.05413476377725601,0.17699085175991058,-0.052834827452898026,-0.04100317135453224,0.05293732136487961,-0.13371029496192932,0.015473376959562302,0.13218602538108826,0.011181256733834743,-0.004543870687484741,0.11098382622003555,-0.17979039251804352,-0.1105869933962822,-0.09814295917749405,0.004752307198941708,-0.014193623326718807,-0.034901417791843414,-0.09698859602212906,-0.05445500835776329,0.0956510528922081,0.1797911673784256,-0.007317506242543459,-0.01903005689382553,0.018429545685648918,0.0537317730486393,0.04091848433017731,-0.13279587030410767,0.007513267919421196,0.0016571155283600092,0.09820421040058136,0.1046673133969307,0.03224441781640053,0.09381867200136185,0.05722798407077789,-0.15163345634937286,-0.2915312349796295,0.1892222911119461,-0.06630177795886993,0.13345575332641602,-0.0872730165719986,-0.0670943409204483,0.006769937463104725,-0.015242962166666985,-0.09537879377603531,-0.1073446124792099,-0.09999827295541763,0.15163661539554596,0.11172429472208023,0.039436183869838715,0.024319294840097427,-0.07941658794879913,0.10559774935245514,-0.02244165726006031,0.05481475591659546,0.01831253059208393,0.1160978376865387,-0.08255048841238022,0.012689966708421707,0.08437728136777878,0.08660630881786346,-0.12106017023324966,-0.010046112351119518,-0.1042393296957016,-0.010056951083242893
images/PRE_F240477_23_21_L.jpg,0.019002728164196014,-0.07107358425855637,0.09669646620750427,-0.013402853161096573,-0.17081034183502197,0.11295059323310852,-0.07671945542097092,0.0488077774643898,0.057531993836164474,0.012231165543198586,0.07553434371948242,0.1630711555480957,0.14812538027763367,0.01739373244345188,-0.09911897778511047,-0.14156118035316467,0.022454166784882545,0.2412712424993515,0.09854352474212646,0.09578211605548859,0.0053039612248539925,0.044025879353284836,-0.03571522608399391,-0.10352198034524918,-0.027853386476635933,-0.07583823055028915,-0.11100319772958755,0.031681131571531296,-0.13955630362033844,-0.08867776393890381,-0.01054078247398138,0.018929867073893547,0.05060136318206787,-0.07219556719064713,-0.05197746679186821,-0.050590015947818756,0.01588110812008381,-0.0523531548678875,-0.02939916029572487,0.019609235227108,0.10621409863233566,0.02868134342133999,0.074227474629879,0.05408013239502907,-0.05622829869389534,-0.022924348711967468,0.07503136247396469,-0.14053252339363098,0.07553587108850479,0.04354342073202133,-0.02520444616675377,-0.07445155084133148,-0.01775967888534069,-0.2273142784833908,0.1266123503446579,0.019924605265259743,0.0625818744301796,0.05235275998711586,-0.024382783100008965,-0.13026480376720428,0.16979260742664337,0.026282284408807755,0.009008876979351044,0.0015681431395933032,0.11231660097837448,0.008547250181436539,0.022499261423945427,0.019801009446382523,-0.12469226866960526,-0.04669620096683502,-0.057801805436611176,0.06978867948055267,0.1506744772195816,-0.08971232920885086,0.120880626142025,-0.05666359141469002,-0.02171984128654003,-0.06051434949040413,-0.01946166902780533,0.15052254498004913,0.0015065015759319067,-0.1299196034669876,0.0028216163627803326,0.043553806841373444,0.04514040797948837,0.04191680997610092,-0.14611245691776276,0.12768223881721497,0.06364204734563828,0.06057539954781532,0.011691194027662277,0.03645389899611473,-0.15240764617919922,0.047814130783081055,0.06852950900793076,-0.11065953969955444,0.04561302810907364,0.05616753175854683,-0.024717194959521294,-0.1855211704969406,0.19329850375652313,0.057959094643592834,0.022032806649804115,-0.15530996024608612,-0.01541838701814413,0.04874463006854057,0.1022673025727272,-0.06398657709360123,0.07716189324855804,-0.07994715124368668,0.04017890617251396,0.17965498566627502,-0.028635729104280472,0.08269631862640381,0.014799680560827255,-0.04487405717372894,0.0025970316492021084,-0.009374259039759636,0.16632825136184692,0.09693747758865356,-0.18295533955097198,0.019135864451527596,0.0031863015610724688,0.05771224945783615,0.06449291110038757,-0.1115659847855568,-0.022647682577371597,0.0859139934182167
images/PRE_F240478_23_21_R.jpg,0.06896999478340149,0.05120743066072464,0.0045023756101727486,-0.09471527487039566,-0.16999419033527374,0.1558217853307724,-0.13695304095745087,-0.02007165364921093,0.004288897383958101,-0.04257725179195404,-0.026875147596001625,0.10592315346002579,0.02474483847618103,0.014435390010476112,-0.03462448716163635,-0.04336969181895256,0.00590375205501914,0.0905623510479927,0.10252700746059418,0.011027545668184757,0.026086902245879173,0.08067228645086288,-0.09597824513912201,0.03674743324518204,-0.030919181182980537,0.10944108664989471,-0.123172827064991,0.004246609751135111,-0.00034380919532850385,-0.002677980810403824,0.011431378312408924,0.03281209617853165,0.06813035160303116,-0.004771963693201542,0.06468608975410461,-0.10481856018304825,0.015938667580485344,-0.11143021285533905,0.08659204095602036,-0.031245602294802666,-0.07186494022607803,0.04530467465519905,0.04628731310367584,-0.044839952141046524,0.07501127570867538,0.034318629652261734,-0.009519469924271107,-0.13827334344387054,0.1696207970380783,-0.0365428626537323,0.06049900874495506,-0.18145741522312164,-0.0004701158031821251,-0.29300928115844727,0.08675161749124527,0.13889215886592865,0.12404090166091919,-0.12498325854539871,0.0442340262234211,0.0812438353896141,0.08868931233882904,0.10728196799755096,0.16353780031204224,0.01604476198554039,-0.09212552011013031,0.023178646340966225,0.051173802465200424,-0.10546916723251343,0.10451241582632065,-0.012654440477490425,0.13822528719902039,0.015753865242004395,-0.003355432068929076,-0.03028462454676628,0.2063136249780655,-0.11165764927864075,-0.08908820897340775,-0.04076005145907402,0.08751675486564636,0.05343904718756676,0.11416289210319519,-0.1556658297777176,-0.09981486946344376,0.05714205652475357,0.05927926301956177,-0.007306609768420458,-0.12628096342086792,0.0729914978146553,0.014933574944734573,-0.06373033672571182,0.016669146716594696,0.03991905227303505,-0.11479813605546951,0.06400802731513977,0.0573074035346508,0.005591981112957001,0.023138251155614853,0.06289076060056686,-0.07733090221881866,-0.10388350486755371,0.1129750981926918,-0.1538240611553192,0.05785070359706879,0.00046681304229423404,0.03291773051023483,-0.1293097734451294,-0.045279234647750854,-0.11284951865673065,-0.17588256299495697,-0.0007741206791251898,0.1194184422492981,-0.019349591806530952,-0.1143881306052208,0.14213299751281738,0.010340111330151558,-0.07507982105016708,0.021636439487338066,0.09987396746873856,0.06995894014835358,0.16492214798927307,-0.03293842077255249,-0.06310772150754929,0.06612078100442886,0.0870225802063942,-0.07497100532054901,-0.05766042321920395,-0.027724415063858032,-0.07168985158205032
images/PRE_F240479_23_21_L.jpg,0.022574318572878838,0.05284927412867546,0.04892975464463234,-0.20718912780284882,-0.08922511339187622,0.11721883714199066,0.18782013654708862,-0.04967610910534859,0.05556827411055565,-0.06587061285972595,-0.05017663165926933,0.18688423931598663,0.08901562541723251,-0.06711476296186447,0.07667156308889389,-0.11772449314594269,-0.031070049852132797,0.1039433628320694,0.06732019782066345,-0.005410695448517799,0.12449628114700317,-0.17552727460861206,0.04802856966853142,-0.073764368891716,-0.07575240731239319,-0.03617934137582779,-0.10998093336820602,0.027693362906575203,-0.20449544489383698,-0.0002366861590417102,-0.04948348179459572,-0.00574846426025033,-0.10365180671215057,0.10634418576955795,-0.002746358048170805,-0.23476272821426392,-0.05551939085125923,-0.04729698598384857,0.0880647674202919,-0.10407493263483047,-0.07915975898504257,0.09506860375404358,0.03258059173822403,-0.04974835738539696,0.01399142388254404,-0.03674878180027008,-0.01945142075419426,-0.09336120635271072,0.018121343106031418,0.06132591888308525,-0.10104910284280777,0.00697613600641489,-0.0019410202512517571,-0.25035226345062256,0.13313858211040497,-0.00013838063750881702,0.031290844082832336,0.08972672373056412,-0.059862170368433,-0.049704089760780334,0.062115564942359924,0.14466537535190582,0.055183980613946915,0.03959309309720993,-0.05980228632688522,0.0599113330245018,-0.0643635243177414,-0.035475969314575195,0.054691385477781296,-0.020992519333958626,0.1309177726507187,0.034494657069444656,0.10088085383176804,-0.1388320028781891,0.032179322093725204,-0.022308986634016037,-0.19974257051944733,-0.1482311487197876,-0.010443232953548431,-0.05049879476428032,0.049666877835989,0.01625075750052929,-0.07906247675418854,-0.09497510641813278,0.03714499995112419,0.059398919343948364,0.004675546661019325,0.03034701943397522,0.010388615541160107,0.08673118054866791,-0.04132797569036484,-0.050200484693050385,-0.09749536216259003,0.13681559264659882,0.09394896030426025,0.08178216964006424,-0.07458514720201492,0.03558819741010666,-0.05941345542669296,0.022052349522709846,0.19560842216014862,-0.030838118866086006,0.04653468728065491,-0.07897650450468063,-0.08389203995466232,-0.05841556563973427,-0.01828595995903015,-0.10281843692064285,-0.06459628790616989,0.005201264284551144,-0.02581518329679966,0.09047197550535202,-0.04514620080590248,0.02790173329412937,-0.03138427436351776,0.07524087280035019,-0.11003179848194122,0.05829999968409538,0.03767255321145058,0.061038851737976074,-0.0376887321472168,0.13858361542224884,0.10019288212060928,-0.032574206590652466,-0.14009515941143036,-0.049770135432481766,0.035844821482896805,-0.1520121544599533
images/PRE_F240480_23_21_R.jpg,0.07514121383428574,-0.010222177952528,0.05467472970485687,-0.25799110531806946,-0.13068141043186188,0.19477631151676178,-0.009722528979182243,-0.006149161607027054,0.042732011526823044,0.014710413292050362,-0.011896880343556404,0.2922554314136505,0.03293272480368614,-0.1005290299654007,0.0581497922539711,-0.016128327697515488,-0.030735807493329048,0.1379033625125885,0.13803313672542572,0.02039313316345215,0.08227380365133286,-0.20202432572841644,0.0862535834312439,-0.008365655317902565,0.07015912979841232,-0.07885377109050751,-0.08474214375019073,0.053828708827495575,-0.09659790992736816,-0.02320193499326706,-0.015733445063233376,-0.05990825593471527,-0.021759673953056335,0.0038715165574103594,-0.04582947865128517,-0.1952861249446869,-0.07455050200223923,0.05524440482258797,0.03792846202850342,0.016157278791069984,-0.0635339543223381,0.07072795927524567,0.053792618215084076,0.0389341376721859,-0.024453850463032722,-0.10032600164413452,-0.10860395431518555,-0.07764554768800735,0.12741956114768982,0.008259272202849388,-0.0902528241276741,-0.0438087061047554,0.14588019251823425,-0.1721276491880417,0.18627148866653442,-0.005215095821768045,0.019677575677633286,0.04172643646597862,-0.04728947579860687,0.07964900881052017,0.14552512764930725,0.13393688201904297,0.019305944442749023,0.006764041259884834,-0.0018027343321591616,0.05312320962548256,-0.03611387684941292,-0.00710633210837841,0.002808201825246215,0.02802717313170433,-0.00799050647765398,0.13131242990493774,0.04351687803864479,-0.08285848796367645,0.11683940887451172,-0.07567164301872253,-0.16402366757392883,-0.04641929268836975,0.04220957309007645,0.04394812509417534,-0.014319836162030697,-0.026005765423178673,-0.042233776301145554,-0.10496996343135834,0.025099720805883408,0.03635919839143753,-0.08941993117332458,-0.0032112211920320988,0.03158330172300339,0.05040948837995529,0.014184150844812393,-0.10127084702253342,-0.15622903406620026,0.05771653354167938,0.13561050593852997,0.015752946957945824,-0.14158347249031067,0.0013069898122921586,-0.03840131685137749,-0.06085958704352379,0.25533854961395264,-0.05397920310497284,0.030720995739102364,-0.015061518177390099,-0.04936060309410095,-0.05655298009514809,-0.04358431696891785,-0.13900226354599,-0.038989000022411346,-0.04166819900274277,0.021988268941640854,0.10951221734285355,-0.06253089755773544,-0.03003455139696598,-0.04192172363400459,0.022295285016298294,-0.09453073889017105,0.0891435518860817,0.09389280527830124,0.06507772952318192,0.06142290309071541,0.005482534412294626,0.08875079452991486,-0.027702724561095238,-0.07251972705125809,-0.1123238280415535,0.05973175913095474,-0.08525083214044571
images/PRE_F240481_23_21_L.jpg,0.11693960428237915,0.046954039484262466,0.023307280614972115,-0.2089579701423645,-0.20447978377342224,0.20044775307178497,-0.05531403049826622,-0.10246378928422928,-0.018365608528256416,-0.00910667423158884,-0.06618189066648483,0.15229009091854095,0.1811525970697403,0.04114104062318802,0.08903818577528,-0.09873153269290924,0.053570348769426346,0.029688607901334763,0.08882749080657959,0.015149901621043682,0.03900837153196335,-0.05769745260477066,0.033793285489082336,0.013903002254664898,0.08840764313936234,-0.07268786430358887,-0.12145572155714035,-0.04836270585656166,-0.02419709414243698,-0.03270689770579338,0.03560557961463928,-0.1208156943321228,0.027329638600349426,0.1163702979683876,-0.05698497220873833,-0.16415996849536896,-0.039764340966939926,0.0664682388305664,0.09255494922399521,-0.011660242453217506,0.00753002380952239,0.05191902071237564,0.12936079502105713,-0.07198985666036606,-0.06486747413873672,-0.07651187479496002,-0.00773655716329813,-0.028210988268256187,0.06167031452059746,-0.02089747227728367,-0.06120917573571205,-0.018398860469460487,0.021220816299319267,-0.2193441241979599,0.1035783439874649,-0.04397817701101303,0.05477507412433624,-0.048431482166051865,0.004272318445146084,-0.039293210953474045,0.10542206466197968,0.026449674740433693,0.01723700575530529,0.07284025102853775,-0.05505157634615898,-0.03992915153503418,-0.07419903576374054,-0.11929933726787567,-0.05080154910683632,-0.11136494576931,0.05890472233295441,0.002419856609776616,0.10834267735481262,-0.12938793003559113,0.13210958242416382,-0.004610681440681219,-0.058018170297145844,-0.09893342852592468,0.08841487020254135,-0.056152086704969406,0.054883599281311035,0.02817496471107006,-0.12633445858955383,0.0660255178809166,0.1657712757587433,0.08903250843286514,-0.01583876460790634,0.016445785760879517,-0.057847119867801666,0.09287003427743912,-0.0001858563773566857,0.03854350745677948,0.06457468867301941,0.053650833666324615,0.13800175487995148,0.10658241808414459,-0.029826659709215164,0.15643718838691711,-0.13680100440979004,-0.14046992361545563,0.2240937203168869,-0.11844810098409653,0.10224492102861404,0.028067635372281075,-0.10905146598815918,-0.003760354360565543,-0.1006377637386322,-0.050154220312833786,-0.10961487144231796,-0.1133592277765274,-0.014353543519973755,0.11628894507884979,-0.06654006242752075,-0.012262621894478798,-0.012791925109922886,-0.1091044694185257,-0.12049946933984756,0.06263978779315948,0.13428038358688354,0.13715620338916779,-0.012372194789350033,-0.030044404789805412,0.04720679670572281,0.05642136558890343,-0.046505555510520935,-0.029415976256132126,0.04514778405427933,0.0013419466558843851
images/PRE_F240482_23_21_L.jpg,0.10648412257432938,0.047182347625494,0.08202185481786728,-0.23518504202365875,-0.16576719284057617,0.17482289671897888,0.007746857590973377,-0.04578971862792969,-0.0510326623916626,-0.03217674046754837,-0.08615338802337646,0.257392019033432,0.09389268606901169,-0.03132719546556473,0.1053631603717804,-0.10234204679727554,0.029617080464959145,0.11833275854587555,0.1566774994134903,0.014817965216934681,0.0690263882279396,-0.096488818526268,0.02651865966618061,-0.0804179236292839,0.05175008252263069,-0.10307328402996063,-0.13601066172122955,0.0006527737132273614,-0.0690259113907814,-0.0993674099445343,-0.02716025710105896,-0.02281958982348442,0.01145457848906517,-0.017821991816163063,-0.02305329032242298,-0.13007372617721558,0.01752370409667492,-0.043629251420497894,0.035173624753952026,-0.015767501667141914,-0.004584421869367361,0.11900781095027924,0.06996816396713257,-0.014820612035691738,-0.06048290804028511,-0.04845681041479111,-0.10264673084020615,-0.16317853331565857,0.1191493421792984,0.01894514076411724,-0.11267361789941788,-0.04773550480604172,0.07239605486392975,-0.234487846493721,0.15162549912929535,-0.0032034963369369507,0.00042621290776878595,0.02461487054824829,-0.008077387697994709,0.014891168102622032,0.1187179833650589,0.011035599745810032,0.05043146759271622,0.03365512192249298,-0.020880358293652534,0.01941310055553913,0.05417831987142563,-0.007755961734801531,0.039270415902137756,0.01590055041015148,0.020713791251182556,0.12942199409008026,0.024121390655636787,-0.1488911658525467,0.199859619140625,-0.051004230976104736,-0.14350676536560059,-0.08629688620567322,0.004989731591194868,0.0465097576379776,0.07443207502365112,0.08887892961502075,-0.10786083340644836,-0.10292041301727295,0.056260064244270325,0.04018799215555191,-0.16059064865112305,-0.0060316589660942554,-0.0795113667845726,0.1075197160243988,-0.004662482533603907,-0.04831581190228462,-0.13866853713989258,0.01335927564650774,0.02090802974998951,0.001628618105314672,-0.1281837522983551,0.06297867000102997,0.05239134281873703,-0.012365270406007767,0.1542421579360962,-0.05326662212610245,0.05027097091078758,-0.039441417902708054,-0.09197696298360825,-0.061527084559202194,-0.04101842641830444,-0.08138468116521835,-0.08191974461078644,-0.06452877819538116,-0.07102224975824356,0.17243601381778717,-0.03707713633775711,-0.010900801979005337,0.021042179316282272,-0.03278675675392151,-0.03881725296378136,0.047011848539114,0.12859055399894714,0.1660272628068924,0.055807389318943024,-0.0828079804778099,0.1199239194393158,-0.021736472845077515,-0.057341307401657104,-0.07544299960136414,0.028230834752321243,0.03175279498100281
images/PRE_F240483_23_21_R.jpg,0.05147808417677879,0.030994955450296402,0.0650099590420723,-0.06221950054168701,-0.16114301979541779,0.16682936251163483,-0.0034617199562489986,0.08747395873069763,-0.004116818308830261,0.014766504056751728,-0.042993273586034775,0.1307092159986496,0.11918013542890549,-0.043509986251592636,0.07300636172294617,-0.16571205854415894,0.08372993022203445,-0.004243925679475069,0.08948759734630585,0.06507057696580887,0.06371115148067474,-0.07695335894823074,0.04673973098397255,-0.15426108241081238,0.008062719367444515,0.003916692454367876,-0.05948400869965553,0.052375223487615585,-0.07125342637300491,0.024614419788122177,-0.07846111059188843,-0.015835784375667572,-0.056674521416425705,-0.03429582715034485,0.038302019238471985,-0.17614349722862244,0.050444189459085464,-0.084730364382267,-0.022484207525849342,-0.011464254930615425,0.04433206468820572,0.0510895773768425,0.10966700315475464,0.11986783146858215,0.024129735305905342,0.08717948198318481,0.03291378542780876,-0.14714275300502777,-0.005238770041614771,0.050241049379110336,-0.08946043252944946,0.04458761587738991,0.016088977456092834,-0.21010833978652954,-0.0570911206305027,0.0742100402712822,0.16527895629405975,0.005974161438643932,-0.010265585966408253,-0.05858398973941803,0.11958636343479156,0.11565496772527695,0.014291176572442055,0.09472986310720444,-0.037145089358091354,-0.09084561467170715,-0.02192462608218193,-0.13287654519081116,-0.06891581416130066,-0.11528819799423218,0.05767475813627243,0.031464941799640656,0.08609869331121445,-0.12556172907352448,0.21323508024215698,0.011786678805947304,0.01199299842119217,-0.06249140575528145,-0.04478023946285248,0.03922628238797188,0.06280683726072311,0.04883228614926338,-0.03557885065674782,-0.14140471816062927,0.11824270337820053,-0.17903614044189453,-0.06742497533559799,0.02669859491288662,-0.05970141291618347,0.04502660408616066,-0.22794802486896515,-0.08568920195102692,-0.14119748771190643,0.0299582127481699,0.08710206300020218,-0.05308355763554573,0.050264451652765274,0.059626512229442596,-0.09262686967849731,-0.10115564614534378,0.24846051633358002,-0.09124360233545303,0.019677825272083282,0.049999602138996124,-0.05452990159392357,0.08864957839250565,0.08627452701330185,-0.08800181746482849,0.09126044064760208,0.003976029809564352,0.02683265134692192,0.0993560180068016,-0.013486277312040329,0.07077067345380783,-0.005319688934832811,-0.06425358355045319,-0.0465056337416172,0.019597163423895836,0.13359057903289795,0.020769819617271423,0.1647372841835022,-0.06503058224916458,-0.014357632026076317,0.0992877334356308,-0.05458061769604683,-0.10089486092329025,0.0005576912080869079,0.11583387106657028
images/PRE_F240484_23_21_L.jpg,-0.10890423506498337,-0.06223558261990547,0.033345483243465424,-0.052690040320158005,-0.09770721942186356,0.06789544224739075,-0.05331699550151825,0.12420306354761124,0.10371964424848557,-0.014307803474366665,-0.011904180981218815,0.10017258673906326,0.16792674362659454,0.05973220244050026,-0.060845375061035156,-0.1508750021457672,-0.0276645477861166,0.07741259783506393,0.023050108924508095,-0.013123273849487305,-0.09634105861186981,0.03926831856369972,-0.12237860262393951,0.02017790637910366,-0.21267613768577576,-0.13543453812599182,0.033498626202344894,-0.16555333137512207,-0.09120821952819824,-0.02465827204287052,0.02770357020199299,-0.049663785845041275,0.11590087413787842,-0.11669034510850906,0.05089972913265228,-0.04071241617202759,0.0283855888992548,-0.09629343450069427,0.02190323732793331,-0.023155609145760536,0.09932433068752289,-0.020473988726735115,0.08903837203979492,0.08281354606151581,-0.036054085940122604,-0.09245061874389648,0.0936722531914711,-0.14976666867733002,-0.02321109175682068,0.025858702138066292,-0.13682402670383453,0.09602977335453033,0.0395130030810833,-0.13758611679077148,-0.0010166555875912309,-0.00037569517735391855,-0.009098565205931664,-0.061009909957647324,-0.128927543759346,-0.1450880467891693,0.04405329003930092,0.11358490586280823,-0.08435499668121338,0.009326927363872528,0.03489961475133896,0.12619991600513458,0.037482503801584244,0.07026612758636475,-0.10856679826974869,-0.061054687947034836,0.05256842449307442,0.03527155891060829,0.12734130024909973,-0.17391593754291534,0.09398072957992554,-0.031041566282510757,-0.09618043899536133,-0.14498449862003326,-0.00847743358463049,-0.06040109321475029,0.10360339283943176,-0.06843037158250809,-0.05640076473355293,0.048150599002838135,0.17136071622371674,-0.0395570769906044,-0.13997161388397217,0.1519395112991333,0.012614088132977486,0.06213858351111412,-0.11795134842395782,0.0688052698969841,-0.12107564508914948,0.05378878489136696,-0.03641700744628906,0.12870478630065918,-0.014266787096858025,0.1223999410867691,-0.0402960479259491,-0.09252262115478516,0.14617380499839783,0.056465595960617065,0.04537351056933403,-0.12062271684408188,0.021504657343029976,0.08492466062307358,0.07816644012928009,-0.014029932208359241,0.026559067890048027,-0.05141275376081467,0.050761133432388306,0.16279806196689606,0.020395908504724503,-0.016268214210867882,-0.18191781640052795,-0.026668956503272057,-0.06274991482496262,-0.04264739900827408,0.06829524040222168,0.060387227684259415,-0.14073146879673004,-0.09414178878068924,0.02950088120996952,0.05453096702694893,0.13092584908008575,-0.0741681382060051,0.035194527357816696,0.07202216237783432
