,0,1,2,3,4,5,6,7,8,9,10,11,12,13,14,15,16,17,18,19,20,21,22,23,24,25,26,27,28,29,30,31,32,33,34,35,36,37,38,39,40,41,42,43,44,45,46,47,48,49,50,51,52,53,54,55,56,57,58,59,60,61,62,63,64,65,66,67,68,69,70,71,72,73,74,75,76,77,78,79,80,81,82,83,84,85,86,87,88,89,90,91,92,93,94,95,96,97,98,99,100,101,102,103,104,105,106,107,108,109,110,111,112,113,114,115,116,117,118,119,120,121,122,123,124,125,126,127
images/POST_F240445_23_21_R.jpg,0.021929172798991203,0.02550228126347065,-0.036075204610824585,0.024831371381878853,0.0751701071858406,0.06042147055268288,0.04909571632742882,0.14658086001873016,-0.09498018026351929,-0.13832637667655945,0.030465586110949516,0.007804666180163622,0.06078818812966347,-0.11265341192483902,0.15747623145580292,-0.06590890139341354,-0.0628870502114296,-0.051942795515060425,-0.005364757031202316,0.024438949301838875,0.02840016596019268,0.0929812490940094,-0.004645410925149918,0.16213229298591614,-0.21610191464424133,0.10116471350193024,0.08064534515142441,-0.015378087759017944,0.2807358205318451,0.05910800024867058,-0.027296151965856552,0.02688668668270111,0.038693446666002274,-0.014899835921823978,0.06361393630504608,0.0010914003942161798,-0.015128693543374538,0.07994281500577927,0.12429659068584442,0.018555898219347,-0.07095035165548325,0.05001624673604965,-0.08996265381574631,-0.05406824126839638,-0.0537959523499012,-0.02518397383391857,0.06840156763792038,-0.017991937696933746,0.039691776037216187,-0.08179674297571182,0.15781041979789734,0.15570175647735596,0.001728507922962308,-0.05943385511636734,-0.07175106555223465,0.08494137227535248,0.06901370733976364,0.09853152185678482,0.01620260626077652,0.1134711429476738,-0.012215866707265377,0.009333387017250061,-0.17073911428451538,0.09871526807546616,-0.04667056351900101,0.08986083418130875,-0.03106280229985714,-0.017386462539434433,0.09376994520425797,-0.14148558676242828,-0.01222066767513752,-0.044156089425086975,-0.04961065575480461,-0.168477863073349,0.038193292915821075,0.04062571004033089,0.055662211030721664,0.16585668921470642,-0.11326263099908829,0.32062283158302307,-0.01470091100782156,0.10045329481363297,0.14396549761295319,-0.10071593523025513,-0.1402038335800171,0.018824808299541473,-0.027869299054145813,0.006981393322348595,0.06164747104048729,-0.05553702265024185,-0.16747963428497314,0.03221721947193146,-0.04882258549332619,0.019334567710757256,0.0573427751660347,-0.07409819960594177,-0.04466128349304199,-0.0586673803627491,-0.0018689254065975547,0.05822514370083809,-0.04956010729074478,-0.09126580506563187,-0.12157705426216125,0.07030678540468216,-0.07413085550069809,0.04536765068769455,-0.07779484242200851,0.04533335193991661,-0.06187700480222702,0.0664709284901619,0.015979107469320297,-0.09606008231639862,0.08815700560808182,-0.05758589506149292,0.09947867691516876,-0.021406838670372963,0.06917794793844223,-0.15556132793426514,0.07806310802698135,-0.04216955602169037,0.0699881836771965,0.0780869796872139,0.11391867697238922,0.06945796310901642,0.0422736257314682,0.08822792023420334,-0.025677068158984184,0.03276641294360161
images/POST_F240447_23_21_R.jpg,-0.03043021634221077,0.08511047810316086,-0.05429393798112869,-0.013707575388252735,-0.0399494543671608,0.08373326063156128,0.2011319249868393,0.18222008645534515,-0.10954388231039047,0.04541143402457237,0.035263773053884506,-0.03338281810283661,0.024164389818906784,0.017296751961112022,-0.005288275424391031,0.03241844102740288,-0.10197412222623825,0.151097372174263,-0.12513874471187592,-0.12313052266836166,-0.015338855795562267,0.08187200129032135,0.01951395906507969,-0.007099649868905544,0.11503299325704575,-0.011759631335735321,-0.046264179050922394,-0.0785415768623352,-0.020815199241042137,0.12002265453338623,0.09673918038606644,0.06315114349126816,0.0835174024105072,0.10754026472568512,0.09470738470554352,-0.11806420981884003,-0.11148633807897568,-0.013850734569132328,-0.018651407212018967,0.03243941441178322,-0.09172841161489487,-0.02525072731077671,0.026975883170962334,0.050841011106967926,-0.023722682148218155,0.15017127990722656,0.11907783150672913,0.18731671571731567,0.20519152283668518,0.04428192973136902,0.05578308925032616,-0.09742070734500885,-0.06532316654920578,-0.035272017121315,-0.0029727122746407986,0.06298911571502686,-0.07295089215040207,-0.09817203879356384,-0.17165881395339966,-0.0715193897485733,0.132150337100029,-0.00022132474987301975,0.07041914016008377,0.06006736308336258,-0.02192993275821209,0.08364209532737732,0.10221527516841888,0.1253913789987564,0.022268224507570267,-0.1304101198911667,-0.06281428039073944,0.0006439043791033328,-0.048655230551958084,-0.1799822896718979,-0.043233148753643036,0.04174141585826874,-0.09307492524385452,0.13539214432239532,-0.24859970808029175,0.02243969589471817,0.08158993721008301,0.1084735170006752,0.011629801243543625,-0.027363335713744164,-0.047903262078762054,0.10321246832609177,-0.07573997974395752,0.14021195471286774,0.12918689846992493,-0.11699362844228745,-0.08547607064247131,0.025357918813824654,-0.03204888105392456,-0.08377598226070404,0.025868728756904602,-0.09608903527259827,0.053335174918174744,-0.06050385907292366,-0.0063906158320605755,0.04864820837974548,0.017406847327947617,0.013603943400084972,0.015095152892172337,-0.0183376707136631,0.06489386409521103,-0.16655921936035156,-0.09200955927371979,0.12232491374015808,0.0004407739615999162,0.1289968192577362,-0.11585341393947601,0.06668046861886978,-0.010005953721702099,-0.08480260521173477,0.0626065656542778,0.019269999116659164,0.036798857152462006,0.05510687455534935,-0.10124203562736511,-0.01989433541893959,0.03170017525553703,-0.04263370856642723,-0.10026120394468307,0.1748124063014984,0.030599655583500862,-0.06389748305082321,-0.023761773481965065,0.11240068078041077
images/POST_F240448_23_21_L.jpg,0.04417803883552551,-0.05568563565611839,-0.019839415326714516,-0.014754890464246273,-0.08103708177804947,-0.004831495229154825,0.08072798699140549,0.14139635860919952,-0.1995723843574524,0.008127626962959766,0.008941699750721455,0.023653576150536537,0.12194225192070007,-0.06488028913736343,0.013315385207533836,0.11608029901981354,-0.051447585225105286,0.13298243284225464,-0.06662865728139877,-0.08511823415756226,-0.0016631375765427947,0.05575082451105118,0.03281340375542641,0.08503962308168411,0.006131791975349188,-0.033772062510252,-0.02992342971265316,0.09336534142494202,0.03961876407265663,0.10468491166830063,0.15390953421592712,0.04277587682008743,-0.02100704237818718,0.10641594976186752,0.013967962935566902,-0.08838140219449997,0.04424656555056572,-0.10768143087625504,0.018253503367304802,0.009770816192030907,0.11436060816049576,-0.060039691627025604,0.04296940565109253,0.002296478021889925,-0.07274030148983002,0.13201873004436493,0.14037778973579407,-0.08428815007209778,0.22768986225128174,0.0021258497145026922,0.17846322059631348,0.014944746159017086,0.05955173820257187,-0.0767177864909172,-0.06871291249990463,0.11027321219444275,-0.004026290029287338,-0.15140855312347412,0.0008441787213087082,0.10298555344343185,0.1088523119688034,0.04258621484041214,-0.0015228771371766925,-0.016860298812389374,-0.1374797224998474,0.09459946304559708,0.03383589908480644,0.02376224845647812,0.06513602286577225,-0.1765706092119217,0.011127348989248276,-0.14883437752723694,-0.047562140971422195,-0.06760799139738083,-0.0959591269493103,0.13418418169021606,-0.11919896304607391,0.07446623593568802,-0.1846534162759781,-0.05952809005975723,0.06262217462062836,0.019709782674908638,0.06564093381166458,-0.025204570963978767,0.08510683476924896,0.015518107451498508,-0.00206925836391747,0.05708696320652962,0.17772740125656128,-0.16874659061431885,-0.16191425919532776,0.05894352123141289,-0.10973858833312988,-0.04215531796216965,0.09823314100503922,0.07033111900091171,-0.03523879870772362,0.015631260350346565,0.13757479190826416,-0.030781565234065056,-0.02713555283844471,-0.09918688982725143,0.046497177332639694,0.0010257588000968099,0.0016472131246700883,-0.08442683517932892,-0.07139629125595093,0.02104446478188038,-0.0373694971203804,-0.012442276813089848,-0.0562334768474102,-0.04910355433821678,-0.10411721467971802,-0.18067781627178192,0.06362191587686539,0.02994702197611332,-0.019126450642943382,-0.028063621371984482,-0.12641389667987823,-0.14295856654644012,0.1049986183643341,0.10015857219696045,-0.013104631565511227,0.06407836824655533,0.1531813144683838,0.12963137030601501,-0.11441990733146667,0.026356756687164307
images/POST_F240449_23_21_R.jpg,-0.07686982303857803,0.08550197631120682,-0.09709227830171585,0.10724395513534546,0.010667477734386921,0.200235515832901,-0.037344977259635925,0.16238512098789215,0.062030501663684845,0.02361024171113968,0.09012811630964279,0.10787355899810791,0.1606282889842987,-0.010217530652880669,0.05232398957014084,0.11525154858827591,0.04054930806159973,0.12534423172473907,0.04999493062496185,0.06981566548347473,-0.029780693352222443,-0.06117203086614609,0.09038464725017548,-0.03758979216217995,-0.032160017639398575,-0.17033962905406952,-0.04965671896934509,-0.022159073501825333,0.17082080245018005,-0.092646025121212,0.11490843445062637,0.27200400829315186,-0.0378606840968132,0.14754299819469452,0.15718983113765717,-0.08595536649227142,-0.03882824629545212,-0.018851593136787415,0.002929644426330924,-0.05512811616063118,-0.14735734462738037,0.013752544298768044,-0.020130017772316933,-0.09679978340864182,-0.029196148738265038,0.13099004328250885,0.13048012554645538,-0.00861755944788456,0.02089742384850979,0.012877373956143856,0.09052865207195282,-0.01066205371171236,0.11140211671590805,-0.05737343430519104,-0.0038144898135215044,0.002118476899340749,-0.1087348684668541,0.01251395046710968,-0.03836517408490181,-0.005836614407598972,0.09402687847614288,-0.003400984453037381,-0.06397411972284317,0.04519925266504288,0.05967552214860916,0.06884080916643143,-0.03440987691283226,0.038207150995731354,0.1887277066707611,-0.10813696682453156,0.008632879704236984,-0.06457546353340149,-0.12982836365699768,-0.13372929394245148,0.02102072909474373,0.10465127974748611,-0.02590496651828289,0.10690377652645111,-0.07032085210084915,0.09159009158611298,0.1514817178249359,0.07413114607334137,0.034170787781476974,-0.16560699045658112,-0.13691498339176178,0.0677582174539566,-0.09872495383024216,0.038609910756349564,-0.07335606962442398,-0.04247858002781868,-0.029293248429894447,-0.0006744190468452871,-0.03014804981648922,0.1110759973526001,0.01613038405776024,-0.1738341599702835,0.06767310202121735,0.0564802885055542,0.0450538732111454,-0.00922965258359909,-0.11057934165000916,0.016647780314087868,0.12963932752609253,0.044013045728206635,-0.0390126071870327,-0.1061229482293129,0.03346461057662964,0.06948524713516235,-0.014028031378984451,0.10201526433229446,0.10217331349849701,-0.053491633385419846,0.019198967143893242,-0.06617283821105957,0.16181983053684235,0.0161120668053627,0.03607989475131035,0.020766960456967354,-0.009272484108805656,-0.01870645210146904,-0.012706251814961433,-0.12133000046014786,0.04218684136867523,0.018303940072655678,-0.056078556925058365,0.10862860828638077,0.06540857255458832,0.15487200021743774
images/POST_F240450_23_21_R.jpg,-0.05422535538673401,0.012958900071680546,-0.11618522554636002,0.17676842212677002,-0.045535750687122345,0.1863476186990738,0.05390582233667374,0.17629653215408325,-0.011445770971477032,0.06568971276283264,0.021099675446748734,-0.03432288020849228,0.14758586883544922,0.0010699762497097254,-0.06707536429166794,0.10797686129808426,0.11748319864273071,0.18574506044387817,-0.08678997308015823,0.00941971130669117,0.02363389916718006,0.09902112931013107,-0.049739737063646317,0.0773828849196434,0.006720987148582935,0.05998648703098297,-0.20021964609622955,0.056267667561769485,0.1169104129076004,-0.053137779235839844,-0.044954173266887665,0.16453760862350464,-0.07727853953838348,0.04885338619351387,0.12292125821113586,-0.04498588666319847,0.05006936937570572,-0.016998158767819405,-0.18004083633422852,-0.02745385654270649,0.07503959536552429,0.02122887410223484,-0.03249330073595047,0.031007524579763412,-0.008748144842684269,0.06379469484090805,0.1937275528907776,0.013408886268734932,0.11835358291864395,-0.06590697914361954,-0.019628223031759262,0.038047511130571365,0.0813293531537056,-0.11925395578145981,-0.06478426605463028,0.12321867048740387,0.008829467929899693,-0.04973071068525314,-0.06248428300023079,-0.10335656255483627,0.04971693828701973,-0.05993267521262169,-0.01784655824303627,-0.026323314756155014,0.005438569467514753,0.008907108567655087,-0.11352361738681793,0.1558130383491516,0.11333587765693665,-0.09453699737787247,0.03655103221535683,-0.0465608611702919,-0.04353531822562218,-0.18763522803783417,-0.014445259235799313,0.14274148643016815,0.07392916083335876,0.12244042754173279,-0.1225200966000557,0.14113306999206543,0.009717104956507683,-0.014441786333918571,0.18005488812923431,-0.14111261069774628,0.01597747951745987,0.04246986657381058,0.16044098138809204,-0.07688120007514954,0.00021437038958538324,-0.1204228326678276,-0.041582901030778885,-0.09481833130121231,-0.1129789724946022,0.025449741631746292,0.10392335802316666,-0.08193206787109375,0.04825570061802864,0.008889265358448029,0.06044100970029831,0.06943222135305405,-0.07274814695119858,0.04684172943234444,-0.06074055656790733,0.029241124168038368,0.0348474346101284,-0.03158744424581528,-0.05325190722942352,0.18992942571640015,0.006730675231665373,0.06689947843551636,-0.00923510268330574,0.039148926734924316,0.04973183199763298,0.004394034389406443,0.07342658936977386,0.03645326942205429,-0.04988894984126091,0.08663631975650787,-0.11422552168369293,-0.15025962889194489,0.000626564840786159,0.0859895572066307,0.07104983925819397,-0.060476332902908325,-0.0183077622205019,0.11359026283025742,0.03516669571399689,0.019639328122138977
images/POST_F240453_23_21_R.jpg,0.07049544155597687,-0.028448227792978287,-0.06024572625756264,-0.04636885225772858,-0.09485124051570892,0.0027875988744199276,0.03298448771238327,0.2054310292005539,-0.005678712390363216,-0.010885064490139484,0.035249605774879456,0.12579821050167084,0.008083413355052471,-0.06240570545196533,-0.037746675312519073,-0.0755295529961586,-0.10711366683244705,-0.08928878605365753,0.015173674561083317,0.05893709883093834,0.17390497028827667,0.030624952167272568,-0.034785281866788864,0.11873213946819305,-0.11024226248264313,-0.013467283919453621,0.09332741051912308,0.020283767953515053,0.13987809419631958,0.07262232899665833,-0.05042382702231407,0.03301107883453369,-0.15363599359989166,0.021040014922618866,0.08553840219974518,0.016225142404437065,0.06832811236381531,-0.11765462160110474,0.11699593812227249,0.125274196267128,-0.09758242964744568,-0.03204772248864174,-0.13085806369781494,0.03262189403176308,0.09124366194009781,0.028961334377527237,-0.01040534395724535,-0.048686180263757706,0.036979738622903824,-0.07294140011072159,0.1954130083322525,0.046681299805641174,0.14463110268115997,0.10105706006288528,-0.1543659269809723,0.06143556162714958,0.0585540272295475,-0.029061654582619667,-0.013026106171309948,-0.019079621881246567,0.00443477975204587,0.13777495920658112,-0.01355838868767023,0.07077790796756744,-0.15166008472442627,0.06159688159823418,0.0540408119559288,0.09223918616771698,0.009949802421033382,-0.13526873290538788,0.013337777927517891,-0.007285870146006346,-0.09223280847072601,-0.12064269185066223,0.010004004463553429,0.052257951349020004,0.03283844515681267,0.034818269312381744,-0.19941438734531403,0.021546494215726852,0.12799504399299622,0.047737862914800644,0.0936669111251831,0.046811580657958984,-0.12547142803668976,0.007635046262294054,0.0744037851691246,-0.043653152883052826,0.09440124779939651,-0.2225399613380432,-0.13655930757522583,0.038641396909952164,-0.14894573390483856,-0.0024767837021499872,0.006138937082141638,0.04148893058300018,-0.001553671550936997,-0.03269931674003601,0.06795594841241837,-0.12380107492208481,0.061266422271728516,0.013267111033201218,-0.035519327968358994,-0.08605208992958069,0.16741807758808136,-0.13436023890972137,-0.04327528178691864,0.11972706764936447,0.04669257998466492,0.02956816367805004,-0.12480559200048447,-0.0819501057267189,-0.035837821662425995,-0.07185858488082886,0.12088610231876373,0.06896648555994034,-0.01504371128976345,-0.06346569210290909,-0.07528464496135712,0.01477543544024229,-0.04571639373898506,0.11673448234796524,0.053244855254888535,-0.028166459873318672,0.21189571917057037,0.1014113649725914,-0.010916254483163357,-0.14514875411987305
images/POST_F240454_23_21_L.jpg,0.04521937295794487,-0.04072993993759155,0.028085337951779366,-0.009317493066191673,0.08636976778507233,-0.00393153028562665,0.07229533046483994,0.09072744846343994,0.014601456932723522,0.1192941814661026,-0.08035368472337723,-0.010842304676771164,0.058126553893089294,-0.12281426042318344,-0.04988514631986618,0.05109741538763046,-0.07249576598405838,0.16443608701229095,-0.055765021592378616,0.10186518728733063,0.008111350238323212,0.08729081600904465,0.17189839482307434,0.021834958344697952,-0.09424266219139099,0.04888125881552696,-0.11629794538021088,-0.035392265766859055,-0.06534607708454132,0.08693809062242508,0.0388827808201313,0.05104895681142807,0.044207070022821426,0.0681101605296135,0.16125592589378357,-0.11704733967781067,0.10705363750457764,0.06811019033193588,0.013538749888539314,0.07538697868585587,0.014066298492252827,0.014183047227561474,0.05729864165186882,-0.07226519286632538,-0.1485644280910492,0.0048849936574697495,0.1630721092224121,-0.05583683028817177,0.023201560601592064,0.017832497134804726,0.12247733026742935,0.045449960976839066,0.10930317640304565,-0.10933884233236313,-0.1443370282649994,0.05266531556844711,-0.038817889988422394,-0.07895577698945999,0.03878498449921608,-0.0698099210858345,-0.04190501570701599,0.12632116675376892,-0.03941236063838005,0.010619892738759518,0.09961727261543274,-0.07977308332920074,0.031837381422519684,0.09984178096055984,0.16616864502429962,-0.04056619480252266,-0.08412880450487137,-0.1473921537399292,-0.02694895677268505,-0.08726201206445694,-0.03989949822425842,0.06572334468364716,-0.055279746651649475,0.1294371485710144,-0.1627260148525238,0.21633277833461761,-0.021013861522078514,0.15343323349952698,0.07886283099651337,-0.17450407147407532,-0.01669500768184662,-0.019854579120874405,0.12774109840393066,0.08415009826421738,0.01106604840606451,-0.10467192530632019,-0.08138987421989441,-0.0016064007068052888,-0.07166776806116104,-0.043372586369514465,-0.031237419694662094,-0.1144048199057579,-0.013622837141156197,0.04793648049235344,-0.03336792066693306,-0.03260770067572594,-0.013135307468473911,-0.16862979531288147,-0.05977196618914604,-0.021723834797739983,0.02770574390888214,-0.19445538520812988,-0.1581384688615799,0.0960758700966835,-0.1101049855351448,0.033311352133750916,-0.009519615210592747,0.07897043228149414,0.10700021684169769,-0.1017565056681633,0.05489012971520424,-0.006515109445899725,-0.1101987287402153,-0.024753937497735023,-0.13081865012645721,0.02782171592116356,-0.002292017452418804,-0.09841343015432358,-0.0019118593772873282,0.10448435693979263,-0.05235118791460991,0.15547573566436768,-0.12433484941720963,0.11024871468544006
images/POST_F240455_23_21_R.jpg,0.08796494454145432,-0.01906220242381096,-0.032505132257938385,0.08481918275356293,-0.02355535700917244,-0.00937181618064642,-0.018824342638254166,0.11408726871013641,0.019979150965809822,-0.028856640681624413,0.12025555223226547,-0.08059003204107285,0.09451272338628769,-0.02642936259508133,-0.02153771184384823,-0.046207766979932785,0.058372385799884796,0.06109466403722763,-0.07689595967531204,-0.08988983184099197,0.08977115899324417,0.12670201063156128,0.14939096570014954,0.04769008606672287,-0.0392267070710659,0.15687169134616852,0.05190826207399368,-0.09124287217855453,0.09466841071844101,0.03870091587305069,0.010118282400071621,0.026380598545074463,-0.09894319623708725,0.042692311108112335,0.053213272243738174,-0.13438796997070312,0.06562864780426025,-0.09245413541793823,0.01672029122710228,0.015801705420017242,0.065448097884655,0.03787004202604294,-0.005754211451858282,0.05952535942196846,-0.012808708474040031,-0.023298097774386406,0.17941536009311676,-0.12485750019550323,-0.0001465441018808633,-0.03405075892806053,0.1585836410522461,0.06322582066059113,0.018651068210601807,-0.10212436318397522,-0.06808175891637802,0.1599627435207367,0.09757354855537415,-0.13364872336387634,0.05827489122748375,0.12025394290685654,-0.027964580804109573,0.043798480182886124,-0.019019324332475662,-0.00896136648952961,-0.028225544840097427,0.005600832402706146,-0.009033938869833946,0.19342394173145294,0.025214822962880135,-0.053258758038282394,0.03419706970453262,0.02265067771077156,-0.026192890480160713,-0.18163001537322998,0.06346185505390167,-0.002025004243478179,0.1267767995595932,0.07581783086061478,-0.12232061475515366,0.04092809930443764,-0.11128632724285126,0.043049510568380356,0.04731176793575287,0.04280238226056099,0.03841980919241905,0.03231407329440117,0.08468347042798996,-0.15216170251369476,0.0803854689002037,-0.13875269889831543,-0.038223158568143845,-0.004353192634880543,0.04232868179678917,-0.03337571397423744,0.1508929282426834,0.09240461140871048,0.0011502457782626152,-0.06632942706346512,0.034662242978811264,-0.014124146662652493,-0.10713840276002884,-0.14489294588565826,-0.1576593816280365,-0.04330053925514221,0.06401406973600388,-0.045549891889095306,-0.0941968709230423,0.18808655440807343,0.024427523836493492,0.05563514307141304,-0.07570226490497589,-0.03251146525144577,-0.03660969436168671,0.015982257202267647,0.173111692070961,0.05169904604554176,-0.07018566131591797,-0.03650932386517525,-0.1628420054912567,-0.2022467851638794,-0.01527981273829937,0.0669322982430458,0.17065677046775818,0.065435491502285,0.17929553985595703,0.17126679420471191,-0.12730883061885834,-0.10846655070781708
images/POST_F240457_23_21_R.jpg,-0.05664021894335747,-0.03762185573577881,-0.04340413585305214,-0.09273771196603775,-0.09772925078868866,-0.053118590265512466,0.03320593759417534,0.18477880954742432,-0.050559695810079575,0.10968734323978424,0.0012187933316454291,0.02721523307263851,-0.03976365923881531,-0.06468942016363144,0.02318650111556053,0.07726334035396576,-0.09321645647287369,0.10009504854679108,-0.09420032054185867,0.06718765199184418,0.05477356165647507,0.12378910183906555,0.07755652815103531,0.059603411704301834,-0.030207514762878418,0.027622291818261147,-0.11557645350694656,0.053034618496894836,0.07057006657123566,0.01045397948473692,-0.017234643921256065,0.13888616859912872,-0.05042237788438797,0.0009239501086995006,0.1421625167131424,-0.1010400652885437,0.032041385769844055,-0.07139874994754791,-0.04403037950396538,0.09653859585523605,0.04443180561065674,0.06249197944998741,0.03309758007526398,-0.09957540035247803,0.028470033779740334,0.09516453742980957,0.12927739322185516,0.06969921290874481,-0.06897206604480743,0.06859003752470016,0.08914057165384293,0.05442453548312187,0.03283901885151863,-0.14176885783672333,-0.07493496686220169,0.014414425007998943,0.016705680638551712,-0.18470339477062225,-0.011376206763088703,-0.11685431003570557,-0.010510798543691635,0.25849437713623047,0.05378751829266548,0.004529427736997604,0.008147339336574078,-0.019992249086499214,0.01758994348347187,0.17542441189289093,0.10015281289815903,-0.05870731174945831,-0.19666585326194763,-0.07182587683200836,-0.05852888897061348,-0.10633567720651627,0.04027099162340164,0.021772975102066994,0.0822242721915245,0.07908131182193756,-0.1330314576625824,0.14938019216060638,-0.055534303188323975,0.07259347289800644,0.07515553385019302,-0.166977196931839,-0.01859970949590206,0.013539939187467098,0.1706986278295517,0.05591767653822899,0.018891094252467155,-0.03383535519242287,-0.03281791880726814,-0.0650753527879715,-0.005411820951849222,-0.08940214663743973,0.02026807703077793,-0.09174603223800659,-0.06370997428894043,-0.03764549642801285,0.05966462567448616,0.10601083189249039,-0.12457471340894699,-0.08372046053409576,-0.039800409227609634,0.04470086470246315,0.18794462084770203,-0.2210392951965332,-0.07789305597543716,0.04563944786787033,-0.03571414574980736,0.0596291646361351,-0.09037137031555176,0.06792619079351425,0.018658215180039406,-0.07398170232772827,0.08481652289628983,-0.061680570244789124,0.0077568357810378075,0.08411749452352524,-0.2151581048965454,0.07443097978830338,-0.12816575169563293,-0.0594962053000927,0.007300224155187607,-0.0648207813501358,-0.012396038509905338,0.0814976915717125,-0.12777100503444672,0.08110450953245163
images/POST_F240459_23_21_L.jpg,0.01199739146977663,0.011514834128320217,-0.0048433756455779076,0.08476507663726807,-0.1209283098578453,0.05300081521272659,0.005396625492721796,0.2121918648481369,-0.05835805460810661,-0.11039447784423828,0.07031463086605072,-0.00812878180295229,-0.040309540927410126,-0.05266527831554413,0.049974553287029266,-0.007298784796148539,-0.020494118332862854,-0.012165694497525692,-0.03459621220827103,0.01849999465048313,0.17010429501533508,0.09675609320402145,0.04212873801589012,0.15891100466251373,-0.05407053232192993,0.04760929197072983,0.0004435266018845141,0.012782544828951359,0.1676364541053772,0.011910485103726387,-0.1271394044160843,0.13420222699642181,-0.13966874778270721,0.037726834416389465,0.06813620030879974,0.02051478624343872,0.04525430500507355,0.06973712146282196,0.04059581086039543,-0.07901961356401443,0.025018012151122093,0.023917023092508316,-0.06173714995384216,0.030059125274419785,0.06877801567316055,0.016232972964644432,0.10694380849599838,0.027901438996195793,0.018151193857192993,-0.15887781977653503,0.18975840508937836,-0.00686270697042346,0.1595335155725479,-0.08029273897409439,-0.1958034336566925,0.12530972063541412,0.0444880835711956,-0.011462356895208359,-0.012526627629995346,0.005456083919852972,-0.1491491198539734,0.1081007868051529,-0.14785413444042206,0.17929381132125854,-0.08226171135902405,0.08444884419441223,-0.028351379558444023,0.18043705821037292,0.12475411593914032,-0.041173841804265976,0.06423712521791458,-0.06887245178222656,-0.062390390783548355,-0.17792005836963654,-0.01770489104092121,-0.009074279107153416,0.11247248202562332,0.13196565210819244,-0.21296638250350952,0.21690331399440765,-0.04368443042039871,0.04420096054673195,0.07470902800559998,-0.11838506162166595,0.03602780029177666,0.06656584143638611,0.03145058453083038,0.006973346695303917,0.01593729853630066,0.0118698226287961,-0.012245195917785168,0.033362191170454025,-0.10449909418821335,-0.00467207795009017,-0.020514333620667458,-0.007855712436139584,-0.029072972014546394,-0.037960875779390335,0.0039027682505548,0.17583319544792175,-0.023356223478913307,-0.06258347630500793,-0.008371127769351006,-0.024201756343245506,0.08907874673604965,0.04166346788406372,-0.03993948921561241,0.05675485357642174,0.05294490233063698,-0.06423833966255188,-0.0008747359388507903,0.04138655960559845,0.054777830839157104,-0.0900619626045227,0.1431320160627365,0.06513014435768127,0.047935739159584045,-0.054894037544727325,-0.11065651476383209,-0.04215196892619133,-0.02521740086376667,0.1350272297859192,-0.02414577640593052,-0.10160795599222183,0.12191320210695267,0.06991603970527649,-0.15045735239982605,-0.04047379270195961
images/POST_F240460_23_21_R.jpg,-0.10247953981161118,0.05825405195355415,-0.12046607583761215,-0.029688186943531036,0.019385889172554016,0.06274520605802536,0.04241156578063965,0.23312488198280334,-0.08926491439342499,-0.09831345081329346,-0.004028305411338806,0.04291468858718872,0.12265624850988388,-0.010350625030696392,0.04937503859400749,-0.10654809325933456,-0.0652928277850151,0.05599961802363396,-0.05600220710039139,0.042112797498703,-0.028157508000731468,0.12741655111312866,0.013204979710280895,0.04979133978486061,-0.1163492351770401,0.034890271723270416,-0.02288459613919258,-0.07568713277578354,0.2330797165632248,0.09487941861152649,-0.003426693147048354,0.18177609145641327,0.009071935899555683,-0.01622612215578556,0.12493640929460526,-0.03172791004180908,-0.09504354000091553,-0.04391370341181755,0.000401095807319507,-0.0020978529937565327,-0.12083727866411209,0.07702241837978363,0.05508749186992645,0.02029178850352764,0.009582282975316048,0.03879523277282715,0.07884875684976578,0.016978934407234192,0.027928302064538002,-0.15056508779525757,0.053813934326171875,0.07534026354551315,0.02902160957455635,-0.10139011591672897,-0.0755922719836235,0.07526396960020065,0.040127694606781006,0.03358091786503792,-0.04301714524626732,0.08159663528203964,-0.10124833136796951,0.08641361445188522,-0.16510848701000214,0.11512187868356705,-0.05790088325738907,0.03220253437757492,0.005740304011851549,0.17014501988887787,0.17474216222763062,-0.130788654088974,-0.06932339072227478,-0.033481989055871964,-0.07061661779880524,-0.204726904630661,0.011081529781222343,0.05087151750922203,0.10249494761228561,0.16031819581985474,-0.18011833727359772,0.196065753698349,0.0394987054169178,0.05135577917098999,0.16088828444480896,-0.06326189637184143,-0.11394654214382172,0.11047907173633575,-0.012267742305994034,0.026045771315693855,-0.003254224080592394,-0.05671537294983864,-0.03461262583732605,-0.048859283328056335,0.02856404520571232,-0.006753069348633289,0.058213986456394196,-0.11757881194353104,-0.03076798841357231,-0.07172700017690659,0.041523415595293045,0.07957381010055542,0.012548898346722126,-0.10615482926368713,-0.07141664624214172,0.15054886043071747,0.0059460727497935295,-0.05808970332145691,-0.07258205860853195,0.022244621068239212,-0.07527581602334976,0.022440264001488686,-0.10005933791399002,-0.09367109090089798,0.027981912717223167,-0.10549335181713104,0.15778248012065887,-0.04662420228123665,0.11071375012397766,-0.028174972161650658,-0.14034338295459747,-0.013273770920932293,-0.01782860979437828,0.009983191266655922,0.1136704608798027,0.02159946784377098,0.04220829904079437,0.106045663356781,-0.04969491809606552,0.10545361787080765
images/POST_F240461_23_21_R.jpg,-0.12440582364797592,0.0012492862297222018,0.012457513250410557,0.0653403177857399,-0.09103012830018997,0.1556050032377243,-0.011195491999387741,0.19458165764808655,-0.07245703786611557,-0.04304787144064903,0.13395100831985474,0.018117165192961693,0.005196251440793276,-0.048349037766456604,0.025272853672504425,0.09278213232755661,-0.042932506650686264,0.13665811717510223,-0.12615437805652618,0.05731014162302017,0.10686514526605606,0.1080261617898941,0.08207576721906662,0.17692971229553223,-0.011909368447959423,0.09953967481851578,-0.0706353560090065,-0.06748106330633163,0.16240178048610687,-0.06535038352012634,0.07111989706754684,0.09964492917060852,-0.06447606533765793,0.06574776023626328,0.2095905989408493,-0.03856891393661499,0.08000637590885162,0.013836490921676159,-0.14024612307548523,-0.00016759723075665534,-0.025858601555228233,0.0511416494846344,-0.007076126057654619,-0.034179043024778366,-0.027657601982355118,0.05876334756612778,0.20108464360237122,0.05004907771945,0.04647048935294151,-0.013209732249379158,0.13344518840312958,0.05906952545046806,0.01968158222734928,0.0002361367951380089,-0.030802669003605843,0.14503446221351624,0.00926953088492155,-0.1364850401878357,-0.028720688074827194,-0.1062164232134819,2.7622432753560133e-05,0.10930238664150238,0.045429520308971405,-0.0711616650223732,0.030814407393336296,0.07295215874910355,-0.08293889462947845,0.1749832183122635,0.0326775498688221,-0.006776300258934498,-0.02036496438086033,-0.016616452485322952,-0.04102940112352371,-0.09886667132377625,0.01927541382610798,0.07233104854822159,0.07861989736557007,0.1604834794998169,-0.20116141438484192,0.2299749106168747,-0.03720943629741669,-0.011816959828138351,0.07618586719036102,-0.15238618850708008,-0.024503450840711594,0.0092995036393404,0.03965204581618309,0.1345246136188507,0.012142354622483253,-0.10563195496797562,-0.06603115797042847,-0.06673847883939743,-0.06309699267148972,-0.09996628016233444,0.037238709628582,-0.16494807600975037,-0.013597902841866016,-0.014145833440124989,-0.009898988530039787,0.11552319675683975,-0.10483352839946747,0.016064902767539024,0.014939513988792896,-0.04056869074702263,0.1073424369096756,-0.10812235623598099,-0.0016199948731809855,0.21051040291786194,-0.058597564697265625,0.07762362062931061,-0.0206211619079113,-0.029185689985752106,0.05161768198013306,-0.0777399018406868,0.043778758496046066,-0.08718928694725037,0.07133111357688904,0.02655831165611744,-0.1929475963115692,-0.03118027001619339,0.03277113288640976,0.00555802695453167,-0.0023498705122619867,-0.03931182995438576,-0.02915865369141102,0.020131830126047134,-0.07698337733745575,0.006632441654801369
images/POST_F240463_23_21_L.jpg,-0.001372255035676062,0.043245598673820496,-0.1263563185930252,-0.024351581931114197,0.0007818485028110445,0.09866271913051605,0.025950204581022263,0.16036063432693481,-0.11766958981752396,-0.016892366111278534,-0.014139979146420956,-0.06515171378850937,0.06397969275712967,-0.12748315930366516,0.06734663993120193,0.10670646280050278,-0.044393427670001984,0.20391874015331268,-0.043769098818302155,0.00019971617439296097,0.004230951424688101,-0.004175976850092411,0.04185543954372406,0.15439681708812714,-0.127391055226326,-0.05339794233441353,-0.013781758956611156,-0.0314197912812233,0.08186449855566025,0.15130513906478882,0.05454709380865097,0.09767424315214157,-0.026008233428001404,0.12974926829338074,0.005020499229431152,-0.11512704938650131,-0.005906932521611452,-0.03334662690758705,0.09310993552207947,-0.07239919155836105,0.04422297328710556,0.07294950634241104,0.015103131532669067,-0.12161007523536682,0.016219502314925194,0.16159020364284515,0.10370951145887375,0.019974974915385246,0.06242383271455765,0.06477193534374237,0.1868288516998291,0.05165613815188408,0.003980991430580616,-0.08794110268354416,-0.07898953557014465,0.005225436761975288,-0.05940772220492363,-0.0591186061501503,-0.1772065907716751,-0.03766212239861488,0.054044194519519806,-0.05192660167813301,-0.008626285009086132,0.016485048457980156,-0.029005050659179688,0.1754985898733139,0.07735192030668259,0.05306762456893921,0.1306641697883606,-0.12762358784675598,-0.07041481137275696,-0.10229352116584778,-0.10294552147388458,-0.16840222477912903,-0.05940987542271614,0.04484489560127258,-0.018156662583351135,0.06816599518060684,-0.22701454162597656,0.08266216516494751,0.04484077915549278,0.11320514976978302,0.15066291391849518,-0.030718868598341942,0.10823504626750946,0.036073897033929825,-0.027968358248472214,0.04770616069436073,0.12624318897724152,-0.010197960771620274,-0.1512661725282669,-0.004087647423148155,-0.08689852803945541,0.0434434711933136,0.19930094480514526,0.06506717950105667,-0.004782678559422493,-0.006030116230249405,0.08380384743213654,0.09696748107671738,-0.019435882568359375,-0.04000072926282883,0.09359665960073471,-0.002126504899933934,0.06375495344400406,-0.14339923858642578,-0.030704567208886147,0.044932473450899124,-0.04586820676922798,0.0309087336063385,0.056034527719020844,-0.057800766080617905,0.026538467034697533,-0.21296152472496033,0.08718719333410263,-0.00095630984287709,-0.1531911939382553,0.007263723760843277,-0.07290860265493393,-0.12550926208496094,0.042618900537490845,-0.006677423138171434,-0.019356589764356613,0.12375572323799133,0.0005115191452205181,0.08688729256391525,-0.09344913065433502,0.0748048946261406
images/POST_F240464_23_21_L.jpg,0.00030360373784787953,-0.07263403385877609,-0.11888950318098068,-0.08455245941877365,-0.005979812704026699,0.05615730583667755,0.0867946445941925,0.1695878803730011,-0.07119715958833694,-0.05236783251166344,-0.04137079417705536,0.018974309787154198,0.08643165230751038,-0.184404194355011,0.029643388465046883,0.01711248978972435,-0.1763712465763092,0.022863026708364487,-0.15980832278728485,0.10932734608650208,0.05872095376253128,0.08653998374938965,-0.0349348783493042,0.1904861032962799,-0.18031039834022522,-0.053886640816926956,0.006349384784698486,-0.1147955060005188,0.12138209491968155,0.06769250333309174,0.11755004525184631,0.10465732216835022,-0.02066260576248169,0.06423282623291016,0.11431583762168884,-0.08743220567703247,0.023399200290441513,0.008020801469683647,0.11058995872735977,0.06414201855659485,-0.05507950484752655,0.15803587436676025,-0.05290523171424866,-0.14096134901046753,-0.009492848999798298,0.08941615372896194,0.004607129842042923,-0.05720650777220726,0.00715189054608345,0.0847262591123581,0.11979881674051285,0.11172162741422653,0.04550149291753769,0.0008255939465016127,0.08091679215431213,-0.001513932948000729,0.0700516551733017,-0.031030181795358658,-0.08615455031394958,-0.06375569850206375,-0.024762049317359924,0.0031991139985620975,0.0045890505425632,-0.06268062442541122,0.04347679018974304,-0.005926989484578371,0.06331319361925125,0.015183188021183014,-0.004315870814025402,-0.18359598517417908,-0.03382846340537071,0.09980302304029465,0.02730720303952694,-0.2340703159570694,-0.01631975546479225,0.021948453038930893,-0.052840445190668106,0.058882467448711395,-0.17921006679534912,0.1270042359828949,-0.030724849551916122,0.0544234924018383,0.07982626557350159,-0.0032816489692777395,0.01765848509967327,-0.003328015562146902,0.08923730254173279,0.07212712615728378,0.12933222949504852,-0.08381486684083939,-0.23317576944828033,-0.06740720570087433,-0.08521629869937897,-0.022657083347439766,0.1284964680671692,-0.0007124391268007457,0.019542131572961807,-0.014760262332856655,0.12637534737586975,-0.047400057315826416,-0.09805907309055328,-0.07802359759807587,-0.1252252459526062,0.06862376630306244,0.04499981924891472,-0.15426479279994965,0.020194821059703827,0.03210477530956268,-0.08872245252132416,-0.005328672006726265,-0.06065509840846062,-0.12729598581790924,-0.03260839357972145,-0.10014994442462921,0.057322368025779724,-0.06399982422590256,-0.005665829870849848,-0.1444220095872879,-0.08022040128707886,-0.06015627831220627,-0.00393426651135087,-0.01008592639118433,0.00979591067880392,0.11974307149648666,0.08825726807117462,-0.055729493498802185,-0.13657058775424957,-0.07913291454315186
images/POST_F240465_23_21_L.jpg,0.0064188819378614426,-0.03493693843483925,-0.06350225955247879,-0.12276075035333633,-0.17783701419830322,0.07692012190818787,-0.05522911250591278,0.1644391119480133,0.02935211732983589,-0.06534568965435028,0.06563492119312286,-0.12116048485040665,0.07793862372636795,-0.13768886029720306,0.024536680430173874,-0.08203373104333878,-0.035415761172771454,0.05083983764052391,-0.03787443786859512,-0.05994760990142822,0.07313179969787598,0.06279817968606949,0.0030143859330564737,0.22171364724636078,-0.10532136261463165,-0.1186937466263771,0.03458811342716217,-0.15441358089447021,0.10536784678697586,0.16068042814731598,0.1090770736336708,0.07535935938358307,-0.08238277584314346,0.021922221407294273,0.02137448638677597,-0.04399160295724869,0.04895392432808876,0.07183784991502762,0.07643121480941772,-0.11045903712511063,0.03448665887117386,0.09314844757318497,-0.12948393821716309,-0.15548662841320038,-0.02405061013996601,0.10825679451227188,0.05331198871135712,-0.01636917144060135,0.0005026120925322175,0.07032237201929092,0.17161016166210175,-0.041096270084381104,0.09901991486549377,0.01575477048754692,-0.06746456027030945,0.07006367295980453,-0.024150719866156578,-0.03510797396302223,-0.05741526931524277,-0.02773210220038891,0.08910629898309708,-0.03667489066720009,-0.00750637985765934,0.04621089622378349,-0.043343205004930496,0.11382234841585159,0.006264627445489168,0.1069234237074852,0.07100607454776764,-0.06650596857070923,-0.07149278372526169,-0.04225477948784828,0.00967564806342125,-0.15345244109630585,0.01655089296400547,-0.04646291956305504,0.036476269364356995,-0.0747307762503624,-0.227863147854805,0.052760593593120575,-0.08617628365755081,0.06815823912620544,0.03767560422420502,0.04979291930794716,-0.0476839542388916,-0.015835998579859734,-0.011552674695849419,0.04045357555150986,0.08888924866914749,-0.06193096563220024,-0.04870590940117836,-0.02512485533952713,-0.08590714633464813,0.02459092251956463,0.0076994444243609905,-0.021876702085137367,-0.0520041361451149,-0.09255093336105347,0.15198811888694763,0.09507213532924652,-0.046586792916059494,-0.0826834887266159,0.041009727865457535,-0.060734961181879044,0.10528474301099777,-0.20497523248195648,-0.009031926281750202,0.18171676993370056,-0.02065722830593586,0.05542660877108574,-0.033465877175331116,-0.001484269043430686,0.18164655566215515,-0.12263166904449463,0.11105923354625702,-0.08067359775304794,-0.11098170280456543,-0.031074047088623047,-0.1305943876504898,-0.11477675288915634,-0.027263930067420006,-0.014458411373198032,0.0458550825715065,0.060093969106674194,0.06669332087039948,0.10580821335315704,-0.16327941417694092,-0.16488102078437805
images/POST_F240466_23_21_L.jpg,0.0018155616708099842,0.05313800275325775,-0.033208854496479034,-0.04776618257164955,-0.013633877970278263,0.08182286471128464,-0.10798045992851257,0.1610035002231598,0.0778830349445343,-0.01945427991449833,0.0360693521797657,-0.0441468320786953,0.05209176987409592,-0.15081731975078583,-0.003690310986712575,0.10934936255216599,-0.0059030610136687756,0.1475944072008133,-0.03648388013243675,-0.0039660632610321045,0.062051884829998016,0.006714424584060907,0.11457822471857071,0.1076824963092804,-0.06978461891412735,0.11476971954107285,-0.0422169454395771,-0.0296651478856802,0.0388617180287838,0.08497826009988785,-0.02752811089158058,0.03866291791200638,-0.04226987436413765,0.08030392974615097,0.18838109076023102,-0.12357930094003677,-0.023696959018707275,0.1893996000289917,0.0577501617372036,-0.005687954369932413,7.234256190713495e-05,0.08349207788705826,0.03250760957598686,-0.11098814755678177,-0.12058816105127335,0.08355739712715149,0.2598203420639038,0.00460550794377923,-0.018158866092562675,-0.10920626670122147,0.08282969892024994,0.08203571289777756,0.1269518882036209,-0.022102128714323044,-0.08359608054161072,0.11399319022893906,-0.006027877796441317,0.012046962976455688,-0.005225214641541243,-0.015671346336603165,0.0031644050031900406,0.03341003507375717,0.03600718826055527,0.10366450995206833,0.08991385251283646,-0.0807102769613266,-0.004944841843098402,0.049875106662511826,0.08578205853700638,0.010716147720813751,-0.020034896209836006,-0.05133749544620514,-0.10603371262550354,-0.08314142376184464,-0.1041732057929039,0.09690171480178833,-0.07883916050195694,0.17126968502998352,-0.22246716916561127,0.17518652975559235,-0.017730724066495895,0.1256314069032669,0.11348062753677368,-0.07188586890697479,-0.0523671954870224,0.017453975975513458,0.07004082202911377,-0.009061623364686966,0.07764231413602829,-0.15735837817192078,-0.13060353696346283,-0.06004824861884117,-0.031193682923913002,-0.029769495129585266,0.0038740357849746943,-0.07869835942983627,-0.06406177580356598,0.04511915519833565,-0.0429157130420208,0.0583755299448967,-0.05585746094584465,-0.1415814459323883,-0.047202419489622116,-0.03712959960103035,0.14095190167427063,-0.09337235242128372,-0.0837503969669342,0.18734371662139893,-0.0016126043628901243,0.04164567217230797,-0.026699721813201904,0.07973657548427582,0.1348082274198532,-0.1656542420387268,0.09273472428321838,-0.06136002764105797,-0.03145094960927963,0.049622129648923874,-0.09482637792825699,-0.11315779387950897,0.06784012168645859,0.010203542187809944,-0.013499456457793713,0.15728779137134552,-0.009255613200366497,0.09141074866056442,-0.10931550711393356,0.010727082379162312
images/POST_F240467_23_21_R.jpg,-0.0741783082485199,0.044788096100091934,-0.05473432317376137,-0.030476635321974754,0.08142843842506409,0.15504485368728638,-0.07765617221593857,0.13591936230659485,0.011806738562881947,-0.08749798685312271,0.025897275656461716,0.025407729670405388,0.14699333906173706,-0.04461967572569847,0.003264875616878271,0.1026608794927597,-0.10158399492502213,0.09883423894643784,0.02696932852268219,-0.020586911588907242,0.08250809460878372,-0.029078558087348938,0.13745930790901184,0.164976105093956,-0.12577837705612183,-0.02138633280992508,0.08865942806005478,-0.05347922071814537,0.09037148207426071,-0.18223156034946442,0.15635941922664642,0.15984365344047546,0.0018269033171236515,0.09248782694339752,0.20742644369602203,0.042831920087337494,-0.03537549450993538,0.029406491667032242,-0.0443379171192646,-0.03283640742301941,-0.029745763167738914,0.04754940792918205,-0.11878697574138641,0.007634918205440044,-0.06602760404348373,0.0019577625207602978,0.11580320447683334,-0.05439736321568489,0.09094536304473877,-0.01872403733432293,0.10565097630023956,0.06971985101699829,0.07759371399879456,-0.011541417799890041,0.03464662656188011,0.012895853258669376,-0.0860404297709465,-0.051733292639255524,-0.08545402437448502,-0.04422009736299515,-0.03954024985432625,0.06196264177560806,-0.0028036292642354965,-0.16375955939292908,-0.07441696524620056,0.009107355028390884,-0.12343672662973404,0.02251911722123623,0.1811448633670807,-0.004603454377502203,-0.04360833019018173,0.04474988207221031,-0.03975987806916237,-0.0776846781373024,0.02615991421043873,-0.04986094310879707,-0.09665978699922562,0.11637962609529495,-0.04670709744095802,0.26412463188171387,0.012465626932680607,0.014490178786218166,-0.05628436058759689,-0.15811222791671753,-0.0571516789495945,0.08183587342500687,-0.019640609622001648,0.0844188705086708,-0.07215425372123718,-0.018051177263259888,-0.08052124083042145,0.05561677739024162,-0.11676682531833649,-0.018526829779148102,-0.028661875054240227,-0.09354747086763382,0.00019578651699703187,-0.12845879793167114,0.09297286719083786,-0.012081261724233627,-0.1231425330042839,-0.11192263662815094,0.0214570052921772,0.021860115230083466,-0.11750869452953339,-0.17372868955135345,0.05281626433134079,0.16989155113697052,0.005558711010962725,0.11502163112163544,0.1455262154340744,-0.10727579146623611,0.019723836332559586,0.018700260668992996,0.12581875920295715,-0.04980991408228874,0.10627100616693497,-0.11718764901161194,-0.0948890969157219,-0.013036433607339859,-0.018604297190904617,0.03969937562942505,0.06937707215547562,-0.04632954299449921,-0.05867154896259308,0.1485094130039215,-0.0187806598842144,0.06724033504724503
images/POST_F240468_23_21_L.jpg,-0.07244725525379181,0.05832629278302193,-0.04810053110122681,-0.015538379549980164,-0.023793887346982956,0.08866547048091888,-0.030015496537089348,0.15924853086471558,-0.0023039025254547596,-0.024435875937342644,0.008654148317873478,-0.03906259685754776,-0.03366083279252052,-0.0642213299870491,0.06553501635789871,-0.06226320564746857,-0.007771069649606943,0.0060339742340147495,0.010511238127946854,0.0058810715563595295,0.05987371504306793,0.03379647806286812,0.0875910073518753,0.09821878373622894,-0.17778952419757843,0.131016343832016,-0.02064328081905842,-0.0636301189661026,0.17425155639648438,0.023395925760269165,-0.047096170485019684,0.131868377327919,-0.05904300510883331,-0.08636268228292465,0.10069906711578369,0.054631393402814865,0.007587421219795942,0.10331286489963531,0.06542432308197021,0.021913237869739532,0.04597688838839531,-0.0367625430226326,-0.03949688747525215,-0.07994262874126434,-0.052797261625528336,0.009047738276422024,0.19138848781585693,0.03317099064588547,-0.06762906163930893,-0.10381908714771271,0.07687355577945709,-0.0016258839750662446,0.06960449367761612,-0.03946287930011749,-0.0927145779132843,0.1136365607380867,-0.05047373101115227,-0.009395837783813477,-0.019989971071481705,-0.019434496760368347,-0.10883962363004684,0.10046269744634628,-0.1619848608970642,0.15244972705841064,-0.08761917799711227,0.06395356357097626,-0.010094264522194862,0.10665307193994522,0.22206823527812958,-0.012225496582686901,0.011759915389120579,-0.191219761967659,-0.11275012791156769,-0.0561370849609375,-0.03587273135781288,0.03862755373120308,0.05730574578046799,0.13616035878658295,-0.1861942857503891,0.3006945252418518,-0.05849282816052437,0.09652123600244522,0.029198287054896355,-0.1277792900800705,-0.19306328892707825,-0.0017345135565847158,-0.027200257405638695,0.02258959598839283,-0.06450649350881577,-0.027840353548526764,0.0013505334500223398,-0.0025791048537939787,-0.045261841267347336,0.04428195580840111,0.0010629621101543307,-0.06227904558181763,-0.02883397787809372,-0.05390184000134468,-0.0811050608754158,0.18255147337913513,-0.0015636986354365945,-0.12588293850421906,-0.022816242650151253,-0.01818670891225338,0.0015989959938451648,-0.04510713741183281,-0.0721026360988617,0.10880184918642044,-0.023045770823955536,0.09113268554210663,0.022777345031499863,-0.0366913340985775,0.20495706796646118,-0.09307266026735306,0.14078883826732635,-0.04875408858060837,-0.014746634289622307,-0.041198160499334335,0.02672259509563446,-0.016047148033976555,0.007817787118256092,0.05969562008976936,-0.008903199806809425,-0.018758976832032204,-0.02534620091319084,0.20373831689357758,-0.16884276270866394,0.0025464389473199844
images/POST_F240470_23_21_R.jpg,-0.03844863548874855,0.013873068615794182,-0.01359668280929327,-0.08167262375354767,0.03870973363518715,0.02983292192220688,0.044947750866413116,0.23235811293125153,-0.00854162685573101,-0.04198702424764633,0.05693439021706581,0.017584724351763725,0.052949994802474976,-0.01971450261771679,0.021800553426146507,0.03862207755446434,-0.09815334528684616,0.1065477654337883,-0.012987393885850906,-0.04656689241528511,0.11296816915273666,0.025676986202597618,0.11666084825992584,0.06275337189435959,-0.04752952605485916,0.09665609151124954,0.022458117455244064,-0.0026857610791921616,0.09005977213382721,-0.01448607724159956,0.00017585678142495453,0.18726272881031036,-0.01830458827316761,0.08735780417919159,0.07987646013498306,-0.10228610783815384,-0.0745924711227417,0.010992481373250484,0.10683570802211761,0.025978580117225647,-0.01753256469964981,0.10433787107467651,0.027730360627174377,0.027984619140625,0.01027914322912693,0.08599366247653961,0.08582647889852524,0.06997264176607132,0.02633310668170452,-0.06514596939086914,0.13722655177116394,-0.041676707565784454,0.15455041825771332,-0.0633019283413887,-0.07246971875429153,0.10302051901817322,-0.00040762146818451583,-0.06113626807928085,-0.04224298521876335,-0.0874527171254158,0.04867958277463913,0.09354695677757263,0.03957754746079445,0.05729367583990097,-0.05257442221045494,0.04290173947811127,0.09016743302345276,0.16287630796432495,0.06754998862743378,-0.11082954704761505,-0.01531693059951067,-0.11772728711366653,-0.13124790787696838,-0.1426132172346115,-0.029123714193701744,-0.08704663068056107,-0.03380173444747925,0.16299059987068176,-0.21467538177967072,0.06390099227428436,0.04953592270612717,0.10018932819366455,0.04868901148438454,-0.11776036769151688,-0.11287183314561844,0.15525609254837036,-0.0675613209605217,0.0058892872184515,0.1363285481929779,-0.11319312453269958,-0.08050412684679031,0.14272795617580414,0.02590804360806942,-0.020093398168683052,0.08356810361146927,-0.03736291453242302,-0.03257094323635101,-0.1442854255437851,0.0955769270658493,-0.013193892315030098,-0.1327829211950302,-0.18249475955963135,0.052889954298734665,-0.08319631963968277,0.10243593901395798,-0.15003852546215057,-0.025469698011875153,0.15671831369400024,0.06754721701145172,0.18667414784431458,-0.03810608386993408,0.037522681057453156,-0.013091420754790306,-0.06560809165239334,0.11393865942955017,0.01442963257431984,-0.0001452900469303131,-0.12135205417871475,-0.09386399388313293,-0.02122386544942856,0.013132302090525627,-0.020898381248116493,-0.03815104812383652,0.160213902592659,0.050699517130851746,0.13997378945350647,-0.15190939605236053,0.018387706950306892
images/POST_F240471_23_21_L.jpg,0.0788576602935791,-0.0770748108625412,-0.11393675208091736,0.03955433890223503,-0.0282126534730196,0.11776753515005112,0.022206759080290794,0.20326094329357147,0.10963469743728638,0.0800270214676857,-0.015067378990352154,-0.14234718680381775,0.09376043826341629,-0.03275354579091072,-0.03033461421728134,0.06072484701871872,-0.16941888630390167,0.21730902791023254,-0.048576850444078445,-0.008921340107917786,0.19831283390522003,0.04945051670074463,0.054630912840366364,0.04040241241455078,0.01310096587985754,0.018308281898498535,0.046725329011678696,0.0780758187174797,0.03742771968245506,-0.019804183393716812,0.09340134263038635,0.048953332006931305,-0.09960440546274185,0.06524620950222015,0.14596794545650482,-0.22484846413135529,0.05878937616944313,-0.011145945638418198,-0.02165844663977623,0.12304721772670746,-0.01531659159809351,-0.04216800257563591,-0.1117519810795784,0.02767030894756317,-0.04028473049402237,0.09127466380596161,0.2420129030942917,0.037263575941324234,0.14380179345607758,0.14506590366363525,0.15004953742027283,0.10091828554868698,-0.01811075583100319,0.005090684629976749,-0.002770110033452511,0.019875600934028625,0.005431524012237787,-0.13625915348529816,-0.10814676433801651,-0.053617458790540695,0.010301591828465462,0.14264212548732758,0.0870172306895256,-0.0775793269276619,0.046528786420822144,0.04220370575785637,-0.005362871568650007,0.05040501803159714,0.15465310215950012,-0.09507708996534348,-0.04570489376783371,0.025642966851592064,-0.059260956943035126,-0.17606787383556366,-0.07267720997333527,0.03095828741788864,-0.036630384624004364,0.13004358112812042,-0.12381552159786224,0.07832510769367218,0.053599096834659576,0.09247396886348724,-0.04853490740060806,-0.012767720967531204,0.052276283502578735,-0.0804453045129776,0.0681087076663971,0.03514697775244713,-0.012857569381594658,-0.11318526417016983,-0.08664689213037491,-0.025340870022773743,-0.10286323726177216,-0.10303857177495956,0.011973371729254723,-0.06997327506542206,0.09561280161142349,0.021794361993670464,0.01576526090502739,0.05994993820786476,-0.097342848777771,0.04521915689110756,-0.08891303092241287,-0.058558139950037,0.029662085697054863,-0.09549598395824432,-0.08704056590795517,0.1333773136138916,-0.07078773528337479,0.03303619846701622,-0.004531261045485735,0.007662464398890734,-0.05411447584629059,-0.13250583410263062,0.057596806436777115,0.08692359179258347,-0.03519587963819504,0.12318120151758194,0.034270212054252625,-0.11893818527460098,-0.08169633895158768,0.06435561925172806,0.008815048262476921,0.06836678832769394,-0.12242201715707779,-0.006304383277893066,-0.09151052683591843,0.07200444489717484
images/POST_F240472_23_21_R.jpg,0.0392497256398201,-0.008475184440612793,0.00774357421323657,0.03201499208807945,-0.0002989463973790407,0.08124180883169174,0.06409187614917755,0.11566640436649323,-0.0794556587934494,-0.018981244415044785,0.09464229643344879,-0.049708250910043716,0.1363150179386139,-0.03275579959154129,-0.1237475797533989,0.1544240415096283,0.002108978107571602,0.2113950252532959,-0.1588520109653473,-0.04779011383652687,-0.07452777028083801,0.09074509143829346,0.06019048020243645,0.05488147959113121,0.037333328276872635,-0.10981857031583786,-0.13859374821186066,0.002550567267462611,-0.05711386352777481,0.020313089713454247,0.15315836668014526,0.07027148455381393,-0.027938837185502052,0.17757800221443176,-0.009559927508234978,-0.2532103359699249,-0.046414509415626526,-0.05974686145782471,0.020865915343165398,0.06383588165044785,0.08012337237596512,0.1055838093161583,0.09857488423585892,-0.021066557615995407,-0.043382368981838226,0.1487542986869812,0.0596565306186676,-0.03407678380608559,0.08000746369361877,0.06293651461601257,0.08710038661956787,-0.03325461968779564,0.008778713643550873,-0.015116206370294094,-0.05638694018125534,0.11881599575281143,-0.041545383632183075,-0.08716224879026413,-0.0009494076366536319,-0.10131525248289108,0.11930172145366669,-0.05341979116201401,0.10141528397798538,-0.05702092871069908,0.08574628829956055,0.06133555993437767,0.11226815730333328,0.13888558745384216,0.022160133346915245,0.01157943531870842,-0.06091061234474182,-0.08265016227960587,-0.01715499721467495,-0.057902585715055466,-0.0892881229519844,0.09962885081768036,-0.011526810936629772,0.033276405185461044,-0.1230393573641777,-0.04503999650478363,-0.04760674759745598,0.1266762763261795,-0.019647639244794846,0.004686732776463032,0.08935797214508057,0.07510193437337875,-0.03419060260057449,0.03403320536017418,0.11123043298721313,-0.1379149854183197,-0.2403900921344757,0.0023199731949716806,-0.028733957558870316,0.006023750640451908,0.10836783051490784,-0.0697326734662056,0.005985102616250515,-0.053575240075588226,0.04350071772933006,0.009141063317656517,-0.06597872078418732,-0.05776388570666313,0.1499778926372528,-0.003861950011923909,0.024713246151804924,-0.13773928582668304,-0.0910448357462883,0.15563276410102844,-0.0580914206802845,0.04723644256591797,-0.023141633719205856,0.058602284640073776,0.057895153760910034,-0.19105690717697144,0.018798714503645897,-0.07463003695011139,-0.05252084881067276,0.1255951225757599,-0.20659847557544708,-0.05271369591355324,-0.03755731135606766,0.0007970951264724135,-0.04380127415060997,0.20093746483325958,0.0019848246593028307,-0.031240573152899742,-0.04606441780924797,0.007752559147775173
images/POST_F240473_23_21_L.jpg,0.008003071881830692,-0.0787203311920166,0.007263900712132454,-0.02881256490945816,-0.006346317008137703,-0.020958201959729195,0.12480940669775009,0.18491783738136292,0.08406975865364075,-0.06388387829065323,0.041233524680137634,-0.10998779535293579,0.17252612113952637,-0.06335332989692688,0.0427868627011776,-0.004347361624240875,-0.17315241694450378,0.02920258603990078,-0.02112387679517269,0.0874515101313591,0.16328002512454987,0.06966476142406464,0.08706451207399368,0.07336419075727463,-0.08298616111278534,-0.05015871673822403,0.04363153874874115,-0.04117549583315849,0.04796650633215904,0.010024872608482838,0.036804378032684326,0.13857579231262207,-0.06409507244825363,0.1101619079709053,0.018805067986249924,-0.13692323863506317,0.12383663654327393,-0.04738900065422058,0.036153633147478104,-0.0012323508271947503,-0.07993494719266891,0.037301741540431976,-0.051784247159957886,0.05109476298093796,0.004324276465922594,0.09884923696517944,-0.009404616430401802,0.01272048894315958,-0.015091359615325928,0.09467427432537079,0.15499338507652283,0.1039126068353653,0.1352454423904419,-0.1310916692018509,-0.12964066863059998,0.0063699716702103615,0.037762194871902466,-0.08908306062221527,-0.09449606388807297,-0.10281319171190262,-0.06476867198944092,0.12049305438995361,-0.013295751065015793,0.030899114906787872,-0.03719652071595192,-0.03547251969575882,0.1077594980597496,0.14225468039512634,0.07497431337833405,-0.1101064458489418,0.01220843568444252,-0.020945431664586067,0.04836374148726463,-0.26340776681900024,-0.015384337864816189,0.03730795532464981,0.023864831775426865,0.06904267519712448,-0.26074761152267456,0.1186789944767952,-0.0327536016702652,0.07054461538791656,0.03951893374323845,-0.1635289043188095,0.04751242697238922,0.10443642735481262,0.08419548720121384,0.0487821027636528,0.0503009594976902,-0.0748664066195488,-0.08435774594545364,-0.010400313884019852,-0.12007218599319458,-0.13946929574012756,-0.023081175982952118,0.07838806509971619,0.07569483667612076,-0.07842321693897247,0.1685289740562439,0.1508500576019287,-0.10557509958744049,-0.11302346736192703,-0.04402764514088631,-0.1410396695137024,0.04466690868139267,-0.07613231241703033,-0.033528633415699005,0.021126635372638702,0.057543154805898666,-0.09629154950380325,-0.08805292844772339,0.0034934652503579855,-0.02356693707406521,-0.15571491420269012,0.05648137256503105,0.02251957356929779,-0.06835277378559113,-0.09995564818382263,-0.0748647153377533,-0.09224499017000198,-0.06975889205932617,-0.0304198507219553,-0.008764121681451797,0.02155308611690998,0.00649676751345396,0.005771244410425425,-0.1069980040192604,0.012804714031517506
images/POST_F240474_23_21_R.jpg,-0.034977301955223083,-0.01876913569867611,-0.018186746165156364,-0.11817663162946701,-0.02057649753987789,0.01623235084116459,0.16285593807697296,0.10956668853759766,-0.016853125765919685,-0.021648190915584564,-0.04115655645728111,-0.12386076897382736,0.19724999368190765,-0.009939832612872124,-0.02556980587542057,0.004823411349207163,-0.11904893070459366,0.13716399669647217,-0.021224917843937874,-0.1280442625284195,-0.05411161482334137,0.03659358620643616,0.07797086238861084,0.00906358938664198,-0.02415071241557598,0.06742997467517853,-0.07686807960271835,0.031152015551924706,0.009162015281617641,0.09938111156225204,0.07671762257814407,0.01225497666746378,-0.011027461849153042,0.15199637413024902,0.0800115317106247,-0.12653759121894836,0.07319165021181107,0.037121035158634186,-0.09465016424655914,-0.11691761016845703,0.058746859431266785,-0.0021155066788196564,0.01736573874950409,0.034582339227199554,-0.08526452630758286,0.0967424064874649,0.04078303650021553,0.071492500603199,0.21663124859333038,0.08732926100492477,0.0814545676112175,0.0022697504609823227,0.006089028902351856,0.023860692977905273,-0.19467072188854218,0.05864003300666809,-0.014228635467588902,-0.06283234804868698,-0.030612852424383163,-0.022234514355659485,0.043404094874858856,0.03279799595475197,-0.01925860531628132,0.0541035421192646,-0.05826624482870102,0.09612752497196198,0.12631067633628845,0.1792963445186615,0.08616987615823746,-0.051889047026634216,-0.0514608770608902,-0.16530896723270416,0.04868464171886444,-0.04240816459059715,-0.07026849687099457,0.08357668668031693,-0.13809850811958313,0.13361631333827972,-0.2432064712047577,-0.0015973675763234496,0.021499671041965485,0.09225016832351685,0.058225084096193314,-0.060135919600725174,-0.020290547981858253,-0.011163457296788692,0.03657205030322075,0.057802714407444,0.06256221234798431,-0.19934895634651184,-0.05449807643890381,0.04751192778348923,-0.013629590161144733,-0.0890665277838707,-0.08119208365678787,-0.08987408876419067,0.050383005291223526,0.014039769768714905,0.19087669253349304,0.08381633460521698,0.0256692823022604,-0.12247420102357864,0.1506701111793518,-0.08159959316253662,0.02255924418568611,-0.1482888162136078,-0.09413663297891617,0.12350517511367798,0.04188968986272812,-0.023793697357177734,-0.1118161529302597,-0.01772620715200901,0.005327549297362566,-0.20025239884853363,0.09011435508728027,-0.047168754041194916,-0.004475298337638378,-0.023612478747963905,-0.10722464323043823,-0.01655620150268078,0.06517113000154495,-0.005551144015043974,0.014101626351475716,0.15133365988731384,-0.021588508039712906,0.04619136452674866,-0.011066095903515816,0.17055656015872955
images/POST_F240475_23_21_L.jpg,0.04677721485495567,-0.008902492001652718,-0.057006239891052246,-0.07975384593009949,-0.06969042122364044,0.10642006248235703,0.0290223378688097,0.22410865128040314,-0.047888558357954025,-0.03803996369242668,-0.029688220471143723,0.021453190594911575,0.11490898579359055,-0.16187189519405365,-0.10971784591674805,-0.017611758783459663,-0.08022835850715637,0.02703467756509781,0.06543659418821335,0.13265986740589142,0.09145502746105194,0.02447645366191864,0.09908930212259293,0.04427676647901535,-0.1809273213148117,-0.07517329603433609,-0.002471510786563158,-0.013680112548172474,0.0901227667927742,0.048130445182323456,-0.05863017961382866,0.05100196599960327,-0.0603039413690567,0.0684681087732315,0.0673658475279808,-0.02120755985379219,0.09837961196899414,-0.035093042999506,0.24472805857658386,-0.08284400403499603,-0.011607356369495392,0.01680375263094902,-0.0012534258421510458,0.010045381262898445,-0.01516270637512207,-0.010941815562546253,0.07267682999372482,-0.0035165317822247744,0.050664376467466354,-0.010856993496418,0.17875394225120544,0.0922030583024025,0.17332522571086884,-0.035411424934864044,-0.25501182675361633,-0.01210184209048748,-0.03683947026729584,0.014860739931464195,-0.10278298705816269,-0.05190442129969597,-0.06990503519773483,0.11271888762712479,-0.06473125517368317,0.14692281186580658,0.007116223685443401,-0.017156735062599182,0.009022096171975136,0.06555711477994919,0.2031310498714447,-0.09639834612607956,-0.04150187969207764,-0.049141623079776764,-0.08217998594045639,-0.15914006531238556,0.006510057486593723,0.1198844462633133,0.03341474384069443,0.08064714074134827,-0.15188831090927124,0.21550975739955902,0.044566862285137177,0.09504178911447525,0.1071779876947403,-0.08470902591943741,0.0242116991430521,0.002263312926515937,0.10880099982023239,0.09331749379634857,0.1410655677318573,0.046887919306755066,-0.1009487435221672,-0.05933062359690666,-0.17542442679405212,-0.07744137942790985,0.009241181425750256,0.09770868718624115,-0.031059211120009422,0.02004612796008587,0.04962978884577751,0.0007059985073283315,-0.03201991319656372,-0.09704142063856125,0.029089849442243576,-0.11414098739624023,0.18335649371147156,-0.08034326881170273,-0.027766112238168716,0.0260202344506979,0.023915238678455353,0.004139178432524204,0.10773283988237381,-0.012458889745175838,0.010931561700999737,-0.09246797859668732,0.06443443894386292,-0.018396593630313873,-0.07966092973947525,-0.09072539210319519,-0.08657047897577286,-0.0007071812869980931,-0.002759499941021204,0.10276807099580765,-0.05932900309562683,-0.02020975761115551,0.043038614094257355,0.09026149660348892,-0.06722787022590637,0.04343956336379051
images/POST_F240476_23_21_R.jpg,-0.007265898399055004,-0.04348449409008026,-0.02664824016392231,0.011561994440853596,-0.03157257288694382,0.12372128665447235,0.010802913457155228,-0.10714711993932724,0.017637163400650024,-0.16938555240631104,0.014158789068460464,0.0362752228975296,-0.110871322453022,-0.08675443381071091,0.11861943453550339,-0.01556803286075592,0.03786458447575569,0.10020796954631805,-0.016944343224167824,-0.027704529464244843,0.04068810120224953,-0.12928900122642517,0.11636054515838623,0.02562352828681469,-0.2626739740371704,-0.07472997903823853,-0.10105398297309875,-0.07618877291679382,0.10228339582681656,-0.15341956913471222,0.02725527249276638,0.19702550768852234,-0.018907809630036354,0.10349433869123459,-0.006026203278452158,-0.04046554118394852,-0.018474780023097992,0.047792043536901474,0.0789661630988121,-0.029496168717741966,0.15180149674415588,0.10826721787452698,-0.06341800838708878,-0.0913507416844368,0.12500838935375214,0.0739528015255928,0.08168119192123413,0.09728950262069702,-0.1972745656967163,0.01880919560790062,0.06079282984137535,-0.14073973894119263,-0.059014834463596344,0.020819755271077156,-0.08262450248003006,0.06696364283561707,0.08498789370059967,-0.1311388909816742,-0.042158227413892746,-0.09820568561553955,-0.01996796764433384,-0.060798708349466324,0.0058227768167853355,0.08038575202226639,0.008022790774703026,0.14750869572162628,-0.12826891243457794,0.11319287866353989,-0.0038885781541466713,-0.007283436134457588,-0.0039674146100878716,-0.027763912454247475,0.008077692240476608,-0.08578165620565414,0.0008049072930589318,0.05747133865952492,0.06614692509174347,0.02496575005352497,-0.12080809473991394,-0.08203286677598953,0.052208319306373596,0.07555919885635376,-0.04505007341504097,-0.027303414419293404,-0.0708961933851242,-0.0782683864235878,-0.03687020018696785,-0.04058169201016426,-0.09206259995698929,-0.012514184229075909,-0.06948006898164749,0.09402894228696823,0.012088037095963955,0.18513531982898712,0.07433359324932098,-0.08850153535604477,0.042269833385944366,0.059029851108789444,-0.00531784538179636,0.05005538836121559,0.032922256737947464,0.10821203887462616,0.1642310917377472,-0.05946625396609306,0.10489296913146973,0.05525735020637512,0.06592866778373718,0.11607761681079865,-0.1734156310558319,0.1404886245727539,-0.053701840341091156,-0.04066964238882065,-0.14787860214710236,-0.04208529368042946,0.05739228054881096,0.08016280829906464,0.07283291220664978,-0.08912333101034164,-0.08351258933544159,0.03937799483537674,0.005191836506128311,-0.12894845008850098,0.027537571266293526,-0.007083716336637735,0.14962159097194672,-0.13518865406513214,0.16682103276252747,-0.03562557324767113
images/POST_F240477_23_21_L.jpg,-0.10393791645765305,0.00729471305385232,-0.039217785000801086,-0.005875123664736748,-0.019313624128699303,0.11441516876220703,0.008707940578460693,0.09110323339700699,0.03517697751522064,0.03736799582839012,0.07265688478946686,0.006561073940247297,0.0822288766503334,-0.1486259251832962,0.01745014451444149,0.04887506738305092,-0.09271175414323807,0.13480518758296967,0.041973844170570374,0.08316817879676819,0.09676156938076019,-0.015390019863843918,0.16204197704792023,0.06906112283468246,-0.22845782339572906,0.021160993725061417,-0.03587843105196953,-0.13145709037780762,0.08725780248641968,-0.11272259801626205,0.033679503947496414,0.12017503380775452,-0.008482638746500015,0.04551860690116882,0.17014577984809875,-0.0008410580339841545,-0.039640214294195175,0.05583449453115463,0.03561896085739136,0.06274724751710892,0.005907030310481787,0.03777744621038437,-0.03367673233151436,-0.04475543275475502,-0.12087968736886978,0.04245127737522125,0.26612237095832825,-0.06587010622024536,-0.08284527063369751,-0.04390685260295868,0.038439903408288956,0.009006233885884285,0.01842733845114708,-0.04849141836166382,-0.03932976722717285,-0.0010753265814855695,-0.013812659308314323,-0.08383290469646454,0.011430871672928333,-0.019785726442933083,-0.07377734035253525,0.1490880846977234,-0.13266022503376007,0.035609714686870575,-0.0515492781996727,0.018736429512500763,0.03201974183320999,0.14718255400657654,0.2594589293003082,0.030650319531559944,-0.008509909734129906,-0.22952599823474884,-0.11564616113901138,-0.14172938466072083,-0.05048878863453865,0.07336176931858063,-0.015878435224294662,0.13406044244766235,-0.1729312539100647,0.3060566186904907,0.04266786202788353,0.036499425768852234,-0.03044114075601101,-0.14250120520591736,-0.09236820787191391,-0.023243555799126625,0.08985541015863419,0.0490526407957077,-0.026601659134030342,0.0008102681022137403,-0.071610227227211,0.023834874853491783,-0.10178747773170471,0.04403284192085266,-0.01288618240505457,-0.09062105417251587,0.019396726042032242,-0.036097507923841476,-0.055103883147239685,0.0068115005269646645,-0.078465037047863,-0.08974257856607437,-0.02347266487777233,-0.03217924386262894,0.000875622674357146,-0.008602038025856018,-0.04706532508134842,0.11308079957962036,-0.02211323194205761,0.12285461276769638,0.07705599069595337,-0.010878641158342361,0.05475851148366928,-0.011139152571558952,0.13821099698543549,-0.016600491479039192,0.043143101036548615,-0.068122498691082,-0.048174791038036346,-0.04755062237381935,-0.08851223438978195,-0.011816891841590405,-0.012120604515075684,-0.05151618272066116,-0.03466974198818207,0.13425034284591675,-0.11096260696649551,0.05412331223487854
images/POST_F240479_23_21_L.jpg,0.007652763742953539,-0.023616619408130646,-0.01943059079349041,0.06692389398813248,-0.08621679246425629,-0.05397799611091614,0.026635298505425453,0.25805777311325073,-0.030554551631212234,-0.04437924176454544,0.1738368570804596,-0.012172126211225986,0.12400004267692566,-0.02475525438785553,-0.0972621962428093,0.14657965302467346,-0.062408868223428726,-0.002006659982725978,-0.07304713129997253,-0.003201686544343829,0.03888474777340889,0.12107764184474945,0.09740931540727615,0.1256760060787201,0.007513084448873997,-0.08506429195404053,0.12346383929252625,0.11507350206375122,0.15818364918231964,0.00547404307872057,0.03485465794801712,0.11799193918704987,-0.19864825904369354,0.07855648547410965,0.12632420659065247,-0.12695983052253723,0.08287113904953003,-0.06713349372148514,0.008649024181067944,0.006498717702925205,0.04280515015125275,0.08933158963918686,-0.07121964544057846,-0.07074621319770813,0.05271784961223602,-0.036229826509952545,0.06436438113451004,-0.04642714560031891,0.08056314289569855,0.005532433744519949,0.13093529641628265,0.12792827188968658,0.04805759713053703,-0.04027267172932625,-0.09958382695913315,0.14179649949073792,-0.04724859073758125,-0.08393330127000809,-0.050664324313402176,-0.06260643899440765,0.06029835715889931,0.151363804936409,0.18116077780723572,-0.04257598891854286,0.018380850553512573,-0.045604828745126724,0.010932461358606815,0.0712786465883255,-0.0613492913544178,-0.08491659164428711,0.03436538577079773,0.04473677650094032,0.01840282790362835,-0.10682222247123718,-0.02560420334339142,0.010837169364094734,0.045114804059267044,0.06706051528453827,-0.1966598480939865,0.03246891498565674,0.08269135653972626,0.010369508527219296,0.057813022285699844,-0.0350012443959713,0.023615464568138123,0.0628657415509224,0.08806733042001724,0.015967892482876778,0.12694132328033447,-0.162152498960495,-0.2079426646232605,0.010860542766749859,-0.05607917159795761,-0.17631153762340546,0.06764824688434601,-0.04142887145280838,-0.051238447427749634,-0.07218440622091293,0.16921232640743256,-0.002972327871248126,-0.1959656924009323,-0.04543177783489227,-0.03432605788111687,-0.1303585022687912,0.12583541870117188,-0.07122240215539932,-0.10214351862668991,0.0817330852150917,0.046186257153749466,-0.02321222610771656,-0.09769535064697266,-0.025938507169485092,-0.07082004845142365,-0.11173900961875916,0.09384600818157196,0.03255424275994301,-0.031977348029613495,0.0077270097099244595,-0.10885918140411377,0.028346776962280273,0.04448283091187477,0.11297406256198883,0.03624572232365608,0.056953005492687225,-0.02867698483169079,-0.030611366033554077,0.017231671139597893,-0.015192325226962566
images/POST_F240480_23_21_R.jpg,0.07145515829324722,0.030635781586170197,-0.038481030613183975,0.06626850366592407,-0.10843857377767563,-0.012282590381801128,-0.04892471432685852,0.19913770258426666,-0.11291095614433289,-0.0581936277449131,0.05875014141201973,0.0548262856900692,-0.008401201106607914,-0.03580859303474426,0.021890690550208092,0.07764796167612076,-0.011242875829339027,0.15051446855068207,-0.16128528118133545,0.005407022777944803,0.058545615524053574,0.08200544118881226,0.01638830080628395,0.19387368857860565,0.020189041271805763,0.01620587334036827,0.04070918634533882,0.03766416385769844,0.08721011877059937,0.009988491423428059,-0.02285854145884514,0.07581436634063721,-0.07440833002328873,0.10086803883314133,0.1891922801733017,-0.07136862725019455,0.09042655676603317,-0.0237981416285038,-0.04651249200105667,0.04580599442124367,0.04869970679283142,0.054222866892814636,-0.09229137003421783,-0.07843704521656036,-0.05799516290426254,0.05208263546228409,0.1532806158065796,-0.09523487091064453,0.06977587938308716,-0.08456359803676605,0.1381426304578781,0.05644489452242851,0.0019593723118305206,-0.021173499524593353,-0.0937279611825943,0.01988956145942211,0.04434356838464737,-0.11744298040866852,0.0191007312387228,-0.05270405858755112,0.08355725556612015,0.16736243665218353,-0.05003640428185463,0.023588042706251144,-0.05435563251376152,0.037297073751688004,0.016252178698778152,0.15192100405693054,0.030759602785110474,-0.007998914457857609,-0.09487515687942505,-0.07875563949346542,-0.01694336347281933,-0.1333131343126297,-0.009798357263207436,0.11984838545322418,0.029284102842211723,0.21313568949699402,-0.23016102612018585,0.12941201031208038,0.04980858042836189,0.06037402153015137,0.08755335211753845,-0.0822216346859932,0.06948161125183105,-0.016067516058683395,0.13959071040153503,-0.05049211159348488,-0.01336689293384552,-0.11841876059770584,-0.08470486849546432,0.008065639063715935,-0.20033222436904907,-0.05013074353337288,0.10889149457216263,-0.08577439188957214,-0.11218006908893585,0.07511413842439651,0.028423862531781197,-0.010178488679230213,-0.01761459745466709,-0.04843028634786606,-0.07590076327323914,0.02469034679234028,0.11212759464979172,-0.10028979182243347,-0.12682639062404633,0.1701325625181198,-0.12487836182117462,0.03910006955265999,-0.06741402298212051,0.001054569729603827,-0.012578917667269707,-0.09434133023023605,0.19430579245090485,-0.0577872134745121,-0.09760434925556183,0.09262984246015549,-0.13515925407409668,0.010115292854607105,-0.0216375682502985,0.13097485899925232,0.06158214434981346,-0.00240798806771636,0.002378260949626565,0.02538221701979637,-0.029224999248981476,-0.09779129922389984
images/POST_F240481_23_21_L.jpg,-0.030812157317996025,-0.03430662676692009,-0.10247042030096054,-0.17777703702449799,-0.058929502964019775,-0.013880711048841476,0.07586464285850525,0.19640225172042847,-0.033241838216781616,-0.04374772310256958,0.026274172589182854,0.059938136488199234,0.012102704495191574,-0.1346411556005478,-0.049448344856500626,0.07766234874725342,-0.14872802793979645,-0.021245595067739487,-0.027067244052886963,-0.050069186836481094,0.1051051914691925,0.09142348915338516,-0.0024891961365938187,0.1093003898859024,-0.0937640592455864,0.0076282452791929245,0.012823181226849556,0.04001282900571823,0.01883120834827423,0.04284742474555969,0.06093700975179672,0.07033032923936844,-0.15152542293071747,0.06458096206188202,0.03227720409631729,-0.03689596429467201,0.04667811840772629,-0.08923953771591187,0.12344876676797867,0.05113422870635986,0.09289999306201935,0.02247147262096405,0.02312438376247883,0.03158392012119293,0.10048796236515045,0.06928587704896927,-0.0449664443731308,0.13293641805648804,0.05985872820019722,-0.001817359123378992,0.26068466901779175,-0.0815398246049881,0.08323943614959717,-0.04943891614675522,-0.0862480103969574,0.002735351910814643,-0.014491209760308266,-0.05983549356460571,-0.06440075486898422,-0.11816296726465225,0.003950505517423153,0.13342857360839844,-0.00705901812762022,0.09521700441837311,-0.08959860354661942,0.10199162364006042,0.06874334812164307,0.19218230247497559,0.06025940552353859,-0.14767912030220032,-0.17268440127372742,-0.005017648451030254,-0.06642310321331024,-0.13022227585315704,0.0057227592915296555,-0.092881940305233,0.030070411041378975,0.039687350392341614,-0.07667332142591476,0.15439864993095398,-0.06908584386110306,0.204738050699234,0.09563413262367249,-0.10011210292577744,0.009794138371944427,0.07154057919979095,0.09187430143356323,0.05041804164648056,0.20515428483486176,-0.04568202793598175,-0.0877138152718544,0.08647836744785309,-0.05574619770050049,0.006597304251044989,0.031219061464071274,0.10260613262653351,-0.07823072373867035,-0.1139601618051529,0.1082707867026329,0.05118543654680252,-0.038839224725961685,-0.09140278398990631,-0.06647926568984985,-0.03586168587207794,0.10102567076683044,-0.20717650651931763,-0.01724489964544773,0.06307519227266312,-0.006326635833829641,0.05594051256775856,0.006766387727111578,0.02059960924088955,0.09288997203111649,-0.11072663217782974,0.026565847918391228,-0.07854479551315308,-0.0037186217959970236,-0.06852579861879349,-0.08119101822376251,0.017039531841874123,-0.038323983550071716,-7.715699030086398e-05,-0.06054576113820076,0.049214161932468414,0.13229255378246307,0.07579571008682251,-0.17329972982406616,-0.06736304610967636
images/POST_F240482_23_21_L.jpg,-0.05657791718840599,0.06573449075222015,-0.04090447723865509,-0.025602806359529495,-0.1682821661233902,0.09863302856683731,-0.08120843023061752,0.19310835003852844,-0.0010771555826067924,-0.07874917984008789,-0.02795981429517269,0.02074102684855461,0.017088569700717926,-0.08277177065610886,0.07458160817623138,-0.09562714397907257,-0.12154041975736618,0.11250221729278564,0.018960444256663322,-0.009837765246629715,0.12654156982898712,0.06154242530465126,0.05461369454860687,0.1813761293888092,-0.1337510049343109,0.06313829869031906,0.05223459377884865,-0.13660533726215363,0.10251090675592422,-0.0027140758465975523,0.02674644999206066,0.11645713448524475,-0.09855714440345764,0.008062602020800114,0.1486852616071701,0.10075990855693817,-0.05447516217827797,0.0928940549492836,0.028300143778324127,-0.04739224910736084,0.03690249100327492,-0.0029812627471983433,-0.12037678062915802,-0.025347288697957993,-0.07015399634838104,-0.01850711926817894,0.20462247729301453,-0.023498332127928734,0.046926409006118774,-0.0985807329416275,0.07669655978679657,0.019593872129917145,0.1415042132139206,-0.03849473595619202,-0.06678293645381927,-0.005504200235009193,0.047955237329006195,-0.02643575519323349,0.0239963810890913,0.03234909102320671,-0.10875962674617767,0.13410556316375732,-0.11173882335424423,0.11762542277574539,-0.16103418171405792,0.135895773768425,-0.023912211880087852,0.1169402226805687,0.12906357645988464,-0.060788221657276154,0.008837742730975151,-0.09605565667152405,-0.04346134513616562,-0.11266225576400757,-0.09883544594049454,-0.0014748842222616076,0.02083316259086132,0.14566829800605774,-0.26112112402915955,0.16614432632923126,0.006647208705544472,0.06253261864185333,0.06384386867284775,-0.07489125430583954,-0.0647147074341774,-0.0021685261745005846,0.04538531228899956,0.07166364789009094,0.04597637429833412,-0.02386387623846531,0.009859677404165268,0.04428080469369888,-0.10079200565814972,-0.020796623080968857,-0.028847359120845795,-0.03105388954281807,0.0007414297433570027,-0.011483917944133282,-0.0191247146576643,0.1299961805343628,-0.03404432535171509,-0.05469778925180435,-0.06409259140491486,-0.061686836183071136,0.03247638791799545,-0.05436239019036293,0.025362085551023483,0.12783649563789368,-0.005866074003279209,-0.0473826639354229,-0.03202935680747032,-0.0634080171585083,0.06833986192941666,-0.16033241152763367,0.2136831283569336,-0.07657437026500702,0.007130536250770092,0.002096825744956732,-0.015079628676176071,-0.04468632861971855,-0.02165703848004341,0.16933932900428772,0.03009137511253357,-0.08751756697893143,0.05068408325314522,0.138345867395401,-0.15524855256080627,-0.06148312985897064
images/POST_F240483_23_21_R.jpg,-0.07137326896190643,-0.08495663851499557,-0.16918611526489258,-0.07048746943473816,-0.11441876739263535,0.006912205833941698,0.1300911009311676,0.14701789617538452,-0.11413412541151047,-0.052330382168293,-0.060700297355651855,-0.046358201652765274,0.11068417876958847,-0.025048118084669113,-0.013102949596941471,0.044247716665267944,-0.04796554893255234,0.12196791917085648,-0.19484400749206543,0.03710104152560234,0.0396372452378273,0.07812833040952682,-0.048887740820646286,0.06624121963977814,-0.08768059313297272,0.024157360196113586,-0.13356752693653107,-0.1318848729133606,0.1042722836136818,0.08239628374576569,0.07865888625383377,0.14640888571739197,0.05081119015812874,0.032833684235811234,0.17204275727272034,-0.02814776822924614,-0.04511958733201027,0.09609227627515793,-0.06990605592727661,0.06187890097498894,-0.050527799874544144,0.03273405134677887,-0.025487326085567474,0.023689279332756996,0.003721589222550392,0.16964854300022125,0.1297558695077896,-0.026465043425559998,0.07114175707101822,0.0736289992928505,0.002659135963767767,0.07058044523000717,0.046696845442056656,0.0033525831531733274,0.039689309895038605,-0.01986059732735157,0.11490441113710403,-0.08623885363340378,-0.05301505699753761,-0.09409783035516739,0.042827308177948,0.0912836566567421,-0.013859317637979984,0.07778831571340561,-0.07072760164737701,-0.011188694275915623,0.11996874213218689,0.14339867234230042,0.0961546078324318,-0.13627807796001434,-0.04679393023252487,-0.01392828393727541,-0.011172575876116753,-0.256185919046402,-0.038706958293914795,0.09932779520750046,-0.09852340072393417,0.24115842580795288,-0.24869725108146667,0.03559529781341553,0.05438317358493805,-0.04672464728355408,0.1509009301662445,-0.126475989818573,-0.02532051131129265,0.03943851217627525,0.043452974408864975,0.0524185374379158,0.008801879361271858,-0.1370820254087448,-0.005699507892131805,-0.07942426949739456,-0.04664134979248047,-0.0030738140922039747,0.10549101233482361,-0.08646877855062485,0.07515829056501389,-0.008722051978111267,0.10746925324201584,0.1311425417661667,-0.03327075392007828,-0.027174651622772217,0.008820299059152603,0.025908352807164192,-0.01671704463660717,-0.15005195140838623,0.012863537296652794,0.11201824247837067,-0.040764447301626205,0.04417731612920761,-0.09244108945131302,-0.013024349696934223,-0.03753902390599251,-0.18349716067314148,0.08726698160171509,-0.03670192137360573,0.024690760299563408,-0.03490475192666054,-0.06501367688179016,-0.09202645719051361,0.05819578096270561,-0.05122838169336319,0.029717134311795235,0.04571361094713211,-0.05619528889656067,-0.030038584023714066,-0.02926032990217209,-0.0016996440244838595
images/POST_F240486_23_21_R.jpg,-0.1422155201435089,-0.060026057064533234,0.018019752576947212,-0.01064714603126049,0.15223857760429382,0.018895400688052177,0.05040540173649788,0.09363452345132828,-0.11103285104036331,0.013293655589222908,0.008747640065848827,0.007215753197669983,0.011245734989643097,0.04323346167802811,-0.027275878936052322,0.0032710221130400896,-0.04128638282418251,0.05312872305512428,-0.029222236946225166,0.013411130756139755,-0.09729544073343277,0.07425514608621597,0.19854167103767395,0.08222585916519165,-0.09383806586265564,0.16054324805736542,-0.10631956905126572,0.008318183943629265,0.12736618518829346,-0.0033091935329139233,0.037512507289648056,0.0859346091747284,0.12699097394943237,0.10992538928985596,0.04127230867743492,-0.132460817694664,0.0322386808693409,0.0015106399077922106,-0.033834025263786316,-0.03832706809043884,0.04701590538024902,0.05488651618361473,0.10119850933551788,-0.06327714771032333,-0.10416477918624878,0.039836786687374115,0.013766800984740257,0.0910799503326416,0.014494824223220348,-0.043334148824214935,0.06612652540206909,-0.024365004152059555,0.007400786504149437,-0.1250515580177307,-0.11810171604156494,0.008856945671141148,-0.03132564574480057,-0.0226502176374197,0.07972408831119537,-0.09805675595998764,0.04029705002903938,0.009153498336672783,-0.03747900575399399,-0.010186664760112762,-0.05074740946292877,0.09865183383226395,0.08927121013402939,0.2300603985786438,0.15701846778392792,-0.027125177904963493,-0.1235697939991951,-0.1842261254787445,0.004454573150724173,-0.08003757894039154,0.015763355419039726,0.03856264799833298,-0.039925169199705124,0.1874619424343109,-0.1648051142692566,0.12939883768558502,-0.0297633558511734,0.11705337464809418,0.08880767226219177,-0.16348212957382202,-0.048191964626312256,-0.021595386788249016,-0.045366302132606506,0.03111754171550274,0.007933666929602623,-0.0838666781783104,-0.015476354397833347,-0.02765035629272461,-0.04436828941106796,0.06872480362653732,0.12916865944862366,-0.06986688077449799,-0.01280171051621437,-0.003856000956147909,0.017124565318226814,-0.04778875783085823,-0.0946844145655632,-0.20164230465888977,0.15240120887756348,0.009135744534432888,-0.05533020943403244,-0.12905704975128174,-0.0460943840444088,0.11308703571557999,-0.047449737787246704,0.18688537180423737,-0.03328327834606171,-0.012184606865048409,0.0740356594324112,0.03213043510913849,0.10154096782207489,-0.09749576449394226,-0.07060558348894119,-0.07017549872398376,-0.07873637229204178,0.08636004477739334,0.10843108594417572,-0.17708902060985565,0.05220148712396622,0.12213374674320221,0.03315409645438194,0.1550656259059906,-0.13530364632606506,0.08947589993476868
images/POST_F240487_23_21_L.jpg,-0.017649928107857704,-0.009860246442258358,-0.028680924326181412,-0.0391257144510746,-0.0948943942785263,-0.06959246844053268,0.007961327210068703,0.03957144170999527,-0.1738445907831192,0.10771690309047699,-0.012509522959589958,0.07480592280626297,-0.004316926002502441,-0.03408902511000633,-0.0722968727350235,0.146938294172287,-0.057147830724716187,0.013906528241932392,-0.05818735808134079,0.01798115111887455,0.07682503759860992,-0.009159872308373451,0.05813666060566902,0.022898413240909576,-0.00941364374011755,0.20762036740779877,-0.1827695220708847,-0.04222971573472023,0.022560955956578255,0.048160456120967865,-0.006847756914794445,-0.04216722771525383,0.0343947671353817,-0.049354854971170425,0.15166518092155457,-0.0895967185497284,0.04583941772580147,0.08127403259277344,-0.026372022926807404,0.10247810184955597,0.01567184552550316,0.011026446707546711,0.002723031910136342,-0.07663270086050034,-0.10005434602499008,0.08191823959350586,0.1548660546541214,-0.024637902155518532,0.0994437113404274,0.10982158780097961,0.03670191764831543,0.02221636101603508,0.015637464821338654,0.005810363683849573,-0.024047603830695152,0.13389532268047333,0.0873573049902916,-0.14036493003368378,0.05886863172054291,0.02691824734210968,0.026508450508117676,0.21960711479187012,-0.016385577619075775,0.036668457090854645,-0.053943075239658356,-0.11987107992172241,0.05727417767047882,0.08918068557977676,0.11730356514453888,-0.09933158755302429,-0.002054010983556509,-0.1591930091381073,-0.054440855979919434,0.0012968176743015647,0.042883072048425674,0.1372290849685669,-0.15236066281795502,0.15371987223625183,-0.17350366711616516,0.10945642739534378,-0.041998524218797684,-0.02110736072063446,-0.008493279106914997,-0.1629120111465454,-0.06394606083631516,0.017112338915467262,0.08464188873767853,0.0807705745100975,0.018671639263629913,-0.1489700824022293,-0.11717218160629272,-0.0024798265658318996,-0.06832916289567947,-0.0992577001452446,0.014471963979303837,-0.041361600160598755,0.1021471917629242,0.05095468461513519,-0.07732930034399033,0.007380812894552946,0.010290326550602913,-0.13951054215431213,-0.029684890061616898,-0.058777112513780594,0.1177419126033783,-0.23061533272266388,-0.1734856367111206,0.15174348652362823,-0.054612722247838974,0.12833917140960693,0.006708951201289892,0.08179167658090591,-0.02412310056388378,-0.02469494193792343,0.005555640906095505,-0.07366456836462021,0.03864316642284393,0.0025363564491271973,-0.12099600583314896,0.02134961076080799,0.07465842366218567,0.06631162017583847,-0.14526613056659698,-0.06215139105916023,0.1220351830124855,0.05100661516189575,-0.15585950016975403,0.019537048414349556
images/POST_F240488_23_21_R.jpg,0.010723842307925224,-0.046874336898326874,-0.059154827147722244,-0.01211560145020485,0.06475064158439636,0.03915061056613922,0.10927996039390564,0.10230998694896698,-0.08072544634342194,0.014600208029150963,0.021599067375063896,-0.04530023783445358,0.09843184798955917,0.10560207068920135,-0.09062805026769638,0.05936603620648384,-0.004415836185216904,0.055877186357975006,-0.13360227644443512,0.025074688717722893,-0.02396002598106861,0.14337414503097534,0.09577924758195877,-0.01588313654065132,-0.0023221594747155905,0.0058001382276415825,-0.17898142337799072,0.09549698233604431,0.08645261079072952,-0.03231558948755264,0.015470705926418304,0.12218349426984787,0.0680849626660347,0.1331305056810379,0.11897366493940353,-0.11505074054002762,0.13652819395065308,0.018826989457011223,-0.09288886189460754,0.034393373876810074,0.038940317928791046,0.05156731233000755,0.08822060376405716,-0.035446930676698685,-0.0685444250702858,0.041426245123147964,0.04113804176449776,-0.0088505232706666,0.04198503494262695,0.05053343251347542,0.046547193080186844,0.030086642131209373,0.08657848834991455,0.011453011073172092,-0.059377919882535934,0.17020992934703827,-0.015766551718115807,-0.12640824913978577,0.06437879800796509,-0.0722355917096138,0.17993634939193726,0.0813293606042862,-0.07188182324171066,0.04171650484204292,0.0658101737499237,-0.033220406621694565,-0.06132855638861656,0.08091757446527481,0.06926581263542175,-0.1825278103351593,-0.07061804831027985,-0.058063387870788574,-0.03740967437624931,-0.07389989495277405,0.10310345143079758,0.15231160819530487,-0.053666554391384125,0.15152819454669952,-0.025518303737044334,0.17860181629657745,-0.050911661237478256,0.1363951712846756,0.13987071812152863,-0.261371910572052,-0.05325847864151001,-0.027157478034496307,0.12401387840509415,0.08996112644672394,0.011181400157511234,-0.17447717487812042,-0.054494861513376236,-0.0705132707953453,-0.04306025803089142,-0.06372610479593277,0.05447264760732651,-0.18551820516586304,-0.04633987322449684,3.194216697011143e-05,0.05426858738064766,-0.026965420693159103,-0.13992789387702942,-0.09368864446878433,0.01864759624004364,-0.02612895704805851,-0.007427473086863756,-0.20100091397762299,-0.11041479557752609,0.1445038914680481,-0.0888829231262207,0.08729550987482071,-0.036682188510894775,0.1442909687757492,0.029589664191007614,-0.04136073589324951,0.09627462923526764,-0.01620292477309704,0.015225967392325401,-0.039129387587308884,-0.09487210214138031,0.06979070603847504,0.07357417792081833,-0.03824949264526367,0.013232541270554066,0.04680737107992172,0.010980349965393543,0.10423857718706131,0.028813466429710388,0.11664742976427078
images/POST_F240489_23_21_R.jpg,0.030360637232661247,-0.09475529193878174,-0.1684447079896927,-0.1147826686501503,0.020412931218743324,-0.05817551910877228,0.037497974932193756,0.10292603820562363,-0.17095224559307098,0.02539631724357605,-0.05479743704199791,0.07772872596979141,0.09495026618242264,-0.07339400053024292,0.010660430416464806,0.09079987555742264,0.00580658158287406,0.0805775374174118,0.03609783574938774,-0.017385270446538925,-0.03531252592802048,0.00832528155297041,0.1343475580215454,-0.02270236425101757,-0.15092240273952484,0.11189749836921692,-0.030566293746232986,0.03745434060692787,0.05732479318976402,0.024786241352558136,0.01733100786805153,0.03202003240585327,0.0415334589779377,-0.020241225138306618,0.10643503814935684,-0.0984930470585823,0.01362050510942936,-0.00773309450596571,0.08749186992645264,0.03524881973862648,0.059318359941244125,-0.01857709512114525,-0.025863459333777428,0.007957959547638893,-0.13163304328918457,0.10699328780174255,0.19373883306980133,-0.08709142357110977,0.09111719578504562,-0.059473663568496704,0.08958029747009277,0.08734950423240662,-0.015058501623570919,-0.08853210508823395,-0.015172072686254978,0.11153127998113632,0.014181195758283138,-0.05405408889055252,0.15883895754814148,0.10072261840105057,0.10203281044960022,0.10116657614707947,-0.0521434061229229,0.12930990755558014,-0.07360485941171646,-0.002998982323333621,-0.0028778084088116884,0.038544539362192154,0.18972662091255188,-0.07680132240056992,-0.08857155591249466,-0.17260052263736725,-0.10506131500005722,-0.11678566038608551,-0.05319472774863243,0.23167498409748077,-0.10683976858854294,0.24122203886508942,-0.06960992515087128,0.16540491580963135,0.060208510607481,0.012953083030879498,0.20784716308116913,-0.1559819132089615,-0.06504470854997635,-0.018360190093517303,-0.0028936874587088823,-0.03227132931351662,0.047951191663742065,-0.1163388043642044,-0.06320805102586746,-0.0031074383296072483,0.02566668391227722,0.06091861426830292,0.04141661152243614,-0.028102440759539604,-0.002610250608995557,0.01167966052889824,0.04402417317032814,0.019545305520296097,-0.06478002667427063,-0.1627207100391388,0.011458857916295528,0.0758608728647232,-0.12026728689670563,-0.054171591997146606,-0.026866411790251732,0.009385845623910427,-0.14122848212718964,0.11941701918840408,-0.0175156332552433,-0.043679676949977875,0.017382146790623665,-0.1274002194404602,0.1535489559173584,-0.0018286793492734432,-0.021385302767157555,-0.07047338038682938,-0.06771200150251389,-0.022193292155861855,0.1092597022652626,-0.00966230034828186,0.05026385933160782,0.01799028366804123,0.06545985490083694,0.13061641156673431,-0.08486264944076538,0.04245585575699806
images/POST_F240490_23_21_R.jpg,-0.004490203224122524,-0.08077054470777512,-0.12277129292488098,0.0008755588787607849,-0.05254571884870529,0.041132744401693344,0.010224888101220131,0.07465750724077225,-0.1792837381362915,-0.009050278924405575,-0.02751988358795643,0.028578413650393486,0.07053188234567642,0.12596961855888367,-0.09459046274423599,0.014792838133871555,-0.08429142087697983,0.030351463705301285,-0.11255292594432831,0.10614011436700821,0.05169089511036873,0.1511772722005844,0.027213845402002335,0.03129160404205322,0.021986741572618484,0.04539310932159424,-0.18008947372436523,0.01268155500292778,0.18759693205356598,-0.0015792303020134568,-0.06758590787649155,0.14460699260234833,0.018102260306477547,-0.003082380862906575,0.06370047479867935,-0.11413318663835526,0.08817993104457855,0.03599250689148903,0.00010149618174182251,0.10167187452316284,-0.011130357161164284,-0.03447640687227249,0.10263942182064056,-0.003916309215128422,0.018246708437800407,0.06980618834495544,0.07143398374319077,-0.0014283370692282915,-0.06963831186294556,0.07578171789646149,0.052719246596097946,0.07825731486082077,0.022117994725704193,0.0337502546608448,-0.12317023426294327,-0.0008266883087344468,-0.02417239546775818,-0.10901682823896408,-0.027312463149428368,0.013695715926587582,0.0201256163418293,0.23613855242729187,-0.08265264332294464,-0.05172375962138176,0.00591368367895484,-0.046189263463020325,0.11033282428979874,0.10944470763206482,0.16398681700229645,-0.06723718345165253,-0.1682898849248886,-0.013111991807818413,0.013017340563237667,-0.11143997311592102,0.1429709941148758,0.09509297460317612,0.02497238665819168,0.13805174827575684,-0.1340918242931366,0.06922371685504913,-0.0007417353335767984,-0.015452338382601738,0.06906724721193314,-0.16045169532299042,0.010350986383855343,-0.12452845275402069,0.06376761198043823,0.07739390432834625,-0.07935492694377899,-0.07420798391103745,0.010557202622294426,-0.09082792699337006,-0.06767940521240234,-0.08467429876327515,0.08113471418619156,-0.014170097187161446,0.06911879032850266,0.04911993071436882,0.00020414195023477077,0.042612817138433456,-0.09568556398153305,-0.11667398363351822,0.07792443782091141,0.001134920516051352,0.06127532571554184,-0.2605735957622528,-0.1495119035243988,0.0572555735707283,-0.007724548690021038,0.05336758494377136,-0.10501253604888916,-0.02889721654355526,-0.03973624110221863,-0.19380876421928406,0.1527140885591507,-0.12409096211194992,-0.05383209139108658,0.0739504024386406,-0.1696559339761734,0.15615126490592957,-0.02755928598344326,0.0009924841579049826,-0.02310316264629364,-0.09086066484451294,0.017375240102410316,0.06796330958604813,-0.04065326228737831,0.061268072575330734
images/POST_F240491_23_21_L.jpg,-0.03854244202375412,-0.04233856126666069,-0.11643749475479126,-0.19210878014564514,0.004989782348275185,0.06196901202201843,-0.03732915222644806,0.11034637689590454,-0.05895004794001579,0.005566398613154888,0.015105613507330418,0.009512718766927719,0.05794774368405342,-0.20825089514255524,-0.01752830296754837,0.08837366849184036,-0.10635793209075928,0.08998780697584152,-0.07133044302463531,0.0007933813612908125,0.061107199639081955,0.045407723635435104,0.07473644614219666,0.17693908512592316,-0.13931436836719513,-0.045223724097013474,0.08026991784572601,-0.14901436865329742,0.0019020920153707266,0.037668827921152115,0.15928541123867035,0.058750901371240616,0.008935002610087395,0.026069844141602516,0.18465186655521393,0.006833329331129789,0.0537988506257534,0.03131493926048279,0.04704052954912186,-0.03066916950047016,0.035172440111637115,0.14418263733386993,-0.07147136330604553,-0.21733537316322327,-0.09436248987913132,0.1219124048948288,0.09198565781116486,-0.015485654585063457,-0.014391820877790451,0.06547985970973969,0.11298155784606934,0.050579462200403214,0.027396807447075844,-0.07626882940530777,0.09132096916437149,0.021164724603295326,0.01384928822517395,-0.1246533915400505,-0.0671030804514885,-0.06365947425365448,0.06842130422592163,0.09641450643539429,0.17877079546451569,0.04780646041035652,-0.07442835718393326,0.013906005769968033,-0.04802968353033066,0.03813863545656204,0.06929366290569305,-0.08331221342086792,-0.056458886712789536,0.00035670536453835666,-0.10843215137720108,-0.10323052108287811,-0.0011911591282114387,-0.03547890484333038,-0.06250244379043579,0.07717377692461014,-0.17434799671173096,0.18655435740947723,-0.05814225971698761,0.0423310324549675,0.10419201850891113,-0.12097043544054031,-0.03564849868416786,0.08719135075807571,0.04366157948970795,0.10761803388595581,0.11912483721971512,-0.041348088532686234,-0.08295313268899918,-0.01588091254234314,-0.009540029801428318,-0.044574443250894547,0.029706886038184166,-0.06388864666223526,-0.08337609469890594,-0.14227120578289032,0.10731401294469833,0.073372021317482,-0.09941171854734421,-0.11624940484762192,-0.04064835608005524,-0.009008627384901047,0.0723191350698471,-0.22316813468933105,0.02305431105196476,0.05765623226761818,-0.1060531884431839,0.037768054753541946,0.09843767434358597,-0.0341675691306591,0.07019571214914322,-0.08235009014606476,0.025896672159433365,-0.03758542239665985,-0.015543232671916485,-0.08946426957845688,-0.08677636086940765,-0.06683216989040375,0.10360613465309143,-0.08718891441822052,-0.005245875101536512,0.07280023396015167,-0.0822526216506958,0.10153771936893463,-0.17657414078712463,-0.048129692673683167
